Version 0.1.0
num_output_group: 1
base_margin: 9.5083465576171875

booster[0]:
0:[6_RACE<0.5] yes=1,no=2,missing=1
	1:leaf=-0.020709004253149032593
	2:[14_CVTE:CAPSULE:DCAPS.3<9.6855020523071289062] yes=3,no=4,missing=3
		3:[3_CVTE:GLEASON.3<9.5476713180541992188] yes=5,no=6,missing=5
			5:[8_CVTE:DCAPS.3<9.4667644500732421875] yes=17,no=18,missing=17
				17:[11_NumCatTE:CAPSULE:DCAPS.3<9.456409454345703125] yes=21,no=22,missing=21
					21:leaf=-0.0034042610786855220795
					22:[3_CVTE:GLEASON.3<9.1260814666748046875] yes=29,no=30,missing=29
						29:leaf=0.0077713555656373500824
						30:leaf=0.0011299463221803307533
				18:[10_ClusterTE:ClusterID94:DCAPS:VOL.3<9.342006683349609375] yes=19,no=20,missing=19
					19:leaf=-0.012084196321666240692
					20:leaf=-0.0015371737536042928696
			6:[4_CVTE:RACE.3<9.5197210311889648438] yes=7,no=8,missing=7
				7:[1_CVTE:DCAPS.3<9.521411895751953125] yes=9,no=10,missing=9
					9:leaf=0.00034905347274616360664
					10:leaf=-0.0096790632233023643494
				8:[2_CVTE:DPROS.3<9.6769933700561523438] yes=11,no=12,missing=11
					11:[9_CVCatNumEnc:CAPSULE:DCAPS:RACE.amin.0<0.5] yes=13,no=14,missing=13
						13:[10_ClusterTE:ClusterID94:DCAPS:VOL.3<9.5069370269775390625] yes=15,no=16,missing=15
							15:[0_CVTE:CAPSULE.3<9.5475091934204101562] yes=25,no=26,missing=25
								25:leaf=0.00095298193627968430519
								26:[11_NumCatTE:CAPSULE:DCAPS.3<9.621608734130859375] yes=27,no=28,missing=27
									27:leaf=-0.008382536470890045166
									28:leaf=0.00073851703200489282608
							16:[3_CVTE:GLEASON.3<9.6270303726196289062] yes=23,no=24,missing=23
								23:leaf=-0.0069074439816176891327
								24:leaf=0.0034722699783742427826
						14:leaf=0.0015361668774858117104
					12:leaf=0.0035542766563594341278
		4:leaf=-0.0088078975677490234375
booster[1]:
0:[6_RACE<0.5] yes=1,no=2,missing=1
	1:leaf=-0.020709004253149032593
	2:[14_CVTE:CAPSULE:DCAPS.3<9.6855020523071289062] yes=3,no=4,missing=3
		3:[VOL<39] yes=5,no=6,missing=5
			5:[2_CVTE:DPROS.3<9.2693128585815429688] yes=7,no=8,missing=7
				7:leaf=0.00322582293301820755
				8:[2_CVTE:DPROS.3<9.6769933700561523438] yes=9,no=10,missing=9
					9:[10_ClusterTE:ClusterID94:DCAPS:VOL.3<9.342006683349609375] yes=17,no=18,missing=17
						17:leaf=0.0039595644921064376831
						18:[3_CVTE:GLEASON.3<9.8388967514038085938] yes=21,no=22,missing=21
							21:[3_CVTE:GLEASON.3<9.4690723419189453125] yes=23,no=24,missing=23
								23:[VOL<19] yes=25,no=26,missing=25
									25:[2_CVTE:DPROS.3<9.4060573577880859375] yes=29,no=30,missing=29
										29:leaf=-0.0029935168568044900894
										30:leaf=-0.011189385317265987396
									26:[VOL<29] yes=27,no=28,missing=27
										27:leaf=0.0046734344214200973511
										28:leaf=-0.0043626050464808940887
								24:leaf=-0.00026799814077094197273
							22:leaf=-0.0063998852856457233429
					10:[3_CVTE:GLEASON.3<9.547893524169921875] yes=11,no=12,missing=11
						11:[10_ClusterTE:ClusterID94:DCAPS:VOL.3<9.342006683349609375] yes=13,no=14,missing=13
							13:leaf=-0.012084196321666240692
							14:leaf=0.00030273821903392672539
						12:[PSA<20.399999618530273438] yes=15,no=16,missing=15
							15:leaf=0.0043537691235542297363
							16:[10_ClusterTE:ClusterID94:DCAPS:VOL.3<9.50537109375] yes=19,no=20,missing=19
								19:leaf=-0.0038307120557874441147
								20:leaf=0.0023858638014644384384
			6:leaf=0.0038230295758694410324
		4:leaf=-0.0068679358810186386108
booster[2]:
0:[6_RACE<0.5] yes=1,no=2,missing=1
	1:leaf=-0.02060545794665813446
	2:[14_CVTE:CAPSULE:DCAPS.3<9.6855020523071289062] yes=3,no=4,missing=3
		3:[2_CVTE:DPROS.3<9.6769933700561523438] yes=5,no=6,missing=5
			5:[12_TruncSVD:CAPSULE:DCAPS:VOL.7<0.76950633525848388672] yes=9,no=10,missing=9
				9:[VOL<24.799999237060546875] yes=13,no=14,missing=13
					13:leaf=0.0030522425659000873566
					14:[VOL<31] yes=15,no=16,missing=15
						15:[12_TruncSVD:CAPSULE:DCAPS:VOL.7<0.52596700191497802734] yes=17,no=18,missing=17
							17:leaf=-0.0087982136756181716919
							18:leaf=0.0019234144128859043121
						16:[4_CVTE:RACE.3<9.594661712646484375] yes=19,no=20,missing=19
							19:leaf=0.0026304125785827636719
							20:leaf=-0.0055483793839812278748
				10:[2_CVTE:DPROS.3<9.49092864990234375] yes=11,no=12,missing=11
					11:[3_CVTE:GLEASON.3<9.8388967514038085938] yes=21,no=22,missing=21
						21:[10_ClusterTE:ClusterID94:DCAPS:VOL.3<9.5069370269775390625] yes=25,no=26,missing=25
							25:[4_CVTE:RACE.3<9.5376873016357421875] yes=27,no=28,missing=27
								27:leaf=0.0042951297946274280548
								28:[11_NumCatTE:CAPSULE:DCAPS.3<9.590099334716796875] yes=29,no=30,missing=29
									29:leaf=0.001089151366613805294
									30:leaf=-0.0045797554776072502136
							26:leaf=-0.0035426800604909658432
						22:leaf=-0.0072697293944656848907
					12:leaf=-0.0066147544421255588531
			6:[3_CVTE:GLEASON.3<9.5033388137817382812] yes=7,no=8,missing=7
				7:leaf=0.00025488363462500274181
				8:[4_CVTE:RACE.3<9.5197210311889648438] yes=23,no=24,missing=23
					23:leaf=-0.0015324115520343184471
					24:leaf=0.0043885046616196632385
		4:leaf=-0.0068026212975382804871
booster[3]:
0:[6_RACE<0.5] yes=1,no=2,missing=1
	1:leaf=-0.02060545794665813446
	2:[1_CVTE:DCAPS.3<9.521411895751953125] yes=3,no=4,missing=3
		3:[8_CVTE:DCAPS.3<9.551082611083984375] yes=5,no=6,missing=5
			5:leaf=0.0021118293516337871552
			6:[14_CVTE:CAPSULE:DCAPS.3<9.5938177108764648438] yes=7,no=8,missing=7
				7:leaf=0.00052594684530049562454
				8:[4_CVTE:RACE.3<9.5595645904541015625] yes=25,no=26,missing=25
					25:leaf=-0.0015651499852538108826
					26:leaf=-0.01205683685839176178
		4:[10_ClusterTE:ClusterID94:DCAPS:VOL.3<9.4654083251953125] yes=9,no=10,missing=9
			9:[13_InteractionAdd:CAPSULE:GLEASON.3<8.5] yes=11,no=12,missing=11
				11:[PSA<7.5] yes=17,no=18,missing=17
					17:[PSA<3.0999999046325683594] yes=23,no=24,missing=23
						23:leaf=-0.001356653519906103611
						24:leaf=-0.008379934355616569519
					18:[3_CVTE:GLEASON.3<9.7797632217407226562] yes=19,no=20,missing=19
						19:[PSA<8.5] yes=21,no=22,missing=21
							21:leaf=0.0078450050204992294312
							22:leaf=-0.00097421143436804413795
						20:leaf=-0.0083182025700807571411
				12:leaf=-0.012481894344091415405
			10:[0_CVTE:CAPSULE.3<9.4211673736572265625] yes=13,no=14,missing=13
				13:[VOL<18] yes=15,no=16,missing=15
					15:leaf=-0.0071688941679894924164
					16:leaf=3.5035423934459686279e-05
				14:[VOL<20.200000762939453125] yes=27,no=28,missing=27
					27:leaf=0.0035135622601956129074
					28:[VOL<29.399999618530273438] yes=29,no=30,missing=29
						29:leaf=-0.0031617230270057916641
						30:leaf=0.0023401852231472730637
booster[4]:
0:[3_CVTE:GLEASON.3<9.5476713180541992188] yes=1,no=2,missing=1
	1:[8_CVTE:DCAPS.3<9.4667644500732421875] yes=5,no=6,missing=5
		5:leaf=0.0023929583840072154999
		6:[4_CVTE:RACE.3<9.5727252960205078125] yes=7,no=8,missing=7
			7:leaf=-0.00093328591901808977127
			8:[VOL<23.600000381469726562] yes=9,no=10,missing=9
				9:[2_CVTE:DPROS.3<9.3563251495361328125] yes=21,no=22,missing=21
					21:leaf=-0.002076288219541311264
					22:leaf=-0.010402214713394641876
				10:leaf=0.00054719496984034776688
	2:[1_CVTE:DCAPS.3<9.4411172866821289062] yes=3,no=4,missing=3
		3:leaf=0.0051353513263165950775
		4:[PSA<63.299999237060546875] yes=11,no=12,missing=11
			11:[PSA<6.8000001907348632812] yes=13,no=14,missing=13
				13:[PSA<3.2999999523162841797] yes=17,no=18,missing=17
					17:[2_CVTE:DPROS.3<9.4060573577880859375] yes=19,no=20,missing=19
						19:leaf=-0.0041335332207381725311
						20:leaf=0.0050936350598931312561
					18:leaf=0.0049465605989098548889
				14:[3_CVTE:GLEASON.3<9.8388967514038085938] yes=15,no=16,missing=15
					15:[PSA<13.100000381469726562] yes=23,no=24,missing=23
						23:[3_CVTE:GLEASON.3<9.762897491455078125] yes=25,no=26,missing=25
							25:leaf=0.0038071353919804096222
							26:leaf=-0.0026762443594634532928
						24:[PSA<22] yes=27,no=28,missing=27
							27:[11_NumCatTE:CAPSULE:DCAPS.3<9.485157012939453125] yes=29,no=30,missing=29
								29:leaf=0.00010947830742225050926
								30:leaf=-0.0049661588855087757111
							28:leaf=0.00172460207249969244
					16:leaf=-0.0049893073737621307373
			12:leaf=-0.007491576019674539566
booster[5]:
0:[6_RACE<0.5] yes=1,no=2,missing=1
	1:leaf=-0.020502431318163871765
	2:[3_CVTE:GLEASON.3<9.5476713180541992188] yes=3,no=4,missing=3
		3:[8_CVTE:DCAPS.3<9.4667644500732421875] yes=11,no=12,missing=11
			11:leaf=0.0018142741173505783081
			12:[10_ClusterTE:ClusterID94:DCAPS:VOL.3<9.342006683349609375] yes=13,no=14,missing=13
				13:leaf=-0.011988948099315166473
				14:[PSA<8.8000001907348632812] yes=17,no=18,missing=17
					17:[4_CVTE:RACE.3<9.5727252960205078125] yes=23,no=24,missing=23
						23:[14_CVTE:CAPSULE:DCAPS.3<9.5609674453735351562] yes=25,no=26,missing=25
							25:leaf=-0.0033292819280177354813
							26:leaf=0.0012938727159053087234
						24:leaf=-0.0057294671423733234406
					18:leaf=0.00093708239728584885597
		4:[4_CVTE:RACE.3<9.5197210311889648438] yes=5,no=6,missing=5
			5:[PSA<16.799999237060546875] yes=15,no=16,missing=15
				15:leaf=0.00035740184830501675606
				16:leaf=-0.007376420777291059494
			6:[2_CVTE:DPROS.3<9.6769933700561523438] yes=7,no=8,missing=7
				7:[VOL<34] yes=9,no=10,missing=9
					9:[3_CVTE:GLEASON.3<9.7430105209350585938] yes=19,no=20,missing=19
						19:[12_TruncSVD:CAPSULE:DCAPS:VOL.7<0.29835271835327148438] yes=21,no=22,missing=21
							21:leaf=-0.0082150986418128013611
							22:leaf=0.002945771440863609314
						20:[12_TruncSVD:CAPSULE:DCAPS:VOL.6<0.037871863692998886108] yes=27,no=28,missing=27
							27:leaf=-0.0051938877440989017487
							28:[13_InteractionAdd:CAPSULE:GLEASON.3<7.5] yes=29,no=30,missing=29
								29:leaf=0.0024458111729472875595
								30:leaf=-0.003111119614914059639
					10:leaf=0.0067475233227014541626
				8:leaf=0.0038930296432226896286
booster[6]:
0:[6_RACE<0.5] yes=1,no=2,missing=1
	1:leaf=-0.0204488411545753479
	2:[3_CVTE:GLEASON.3<9.5476713180541992188] yes=3,no=4,missing=3
		3:[3_CVTE:GLEASON.3<9.2134637832641601562] yes=5,no=6,missing=5
			5:[4_CVTE:RACE.3<9.5376873016357421875] yes=7,no=8,missing=7
				7:leaf=0.0068911314010620117188
				8:[10_ClusterTE:ClusterID94:DCAPS:VOL.3<9.3742923736572265625] yes=27,no=28,missing=27
					27:leaf=-0.0064365989528596401215
					28:[0_CVTE:CAPSULE.3<9.5475091934204101562] yes=29,no=30,missing=29
						29:leaf=-0.0024053144734352827072
						30:leaf=0.0035960252862423658371
			6:[10_ClusterTE:ClusterID94:DCAPS:VOL.3<9.342006683349609375] yes=13,no=14,missing=13
				13:leaf=-0.01317598298192024231
				14:[8_CVTE:DCAPS.3<9.4667644500732421875] yes=25,no=26,missing=25
					25:leaf=0.0013137267669662833214
					26:leaf=-0.0029553708154708147049
		4:[4_CVTE:RACE.3<9.5197210311889648438] yes=9,no=10,missing=9
			9:[1_CVTE:DCAPS.3<9.521411895751953125] yes=11,no=12,missing=11
				11:leaf=0.00079961866140365600586
				12:[PSA<16.799999237060546875] yes=15,no=16,missing=15
					15:leaf=0.0015659427735954523087
					16:leaf=-0.0093500539660453796387
			10:[14_CVTE:CAPSULE:DCAPS.3<9.5938177108764648438] yes=17,no=18,missing=17
				17:leaf=0.0019002051558345556259
				18:[8_CVTE:DCAPS.3<9.4667644500732421875] yes=19,no=20,missing=19
					19:leaf=0.0040046721696853637695
					20:[0_CVTE:CAPSULE.3<9.5475091934204101562] yes=21,no=22,missing=21
						21:leaf=0.001683978131040930748
						22:[2_CVTE:DPROS.3<9.7967023849487304688] yes=23,no=24,missing=23
							23:leaf=-0.0070154452696442604065
							24:leaf=0.0046090460382401943207
booster[7]:
0:[6_RACE<0.5] yes=1,no=2,missing=1
	1:leaf=-0.0204488411545753479
	2:[3_CVTE:GLEASON.3<9.5476713180541992188] yes=3,no=4,missing=3
		3:[3_CVTE:GLEASON.3<9.2134637832641601562] yes=5,no=6,missing=5
			5:[4_CVTE:RACE.3<9.5376873016357421875] yes=7,no=8,missing=7
				7:leaf=0.0050591570325195789337
				8:[VOL<13.300000190734863281] yes=9,no=10,missing=9
					9:leaf=-0.0044272467494010925293
					10:[0_CVTE:CAPSULE.3<9.5475091934204101562] yes=23,no=24,missing=23
						23:[1_CVTE:DCAPS.3<9.521411895751953125] yes=29,no=30,missing=29
							29:leaf=0.00204199180006980896
							30:leaf=-0.0060586342588067054749
						24:leaf=0.005861902143806219101
			6:[10_ClusterTE:ClusterID94:DCAPS:VOL.3<9.342006683349609375] yes=21,no=22,missing=21
				21:leaf=-0.01317598298192024231
				22:[3_CVTE:GLEASON.3<9.4690723419189453125] yes=27,no=28,missing=27
					27:leaf=-0.0033991539385169744492
					28:leaf=0.0020736420992761850357
		4:[2_CVTE:DPROS.3<9.6769933700561523438] yes=11,no=12,missing=11
			11:[3_CVTE:GLEASON.3<9.7685461044311523438] yes=15,no=16,missing=15
				15:leaf=0.00098570983391255140305
				16:[2_CVTE:DPROS.3<9.2693128585815429688] yes=17,no=18,missing=17
					17:leaf=0.0031470258254557847977
					18:[14_CVTE:CAPSULE:DCAPS.3<9.3594942092895507812] yes=19,no=20,missing=19
						19:leaf=0.004404328763484954834
						20:leaf=-0.005491971038281917572
			12:[14_CVTE:CAPSULE:DCAPS.3<9.4367618560791015625] yes=13,no=14,missing=13
				13:leaf=-0.0015626386739313602448
				14:[PSA<13.399999618530273438] yes=25,no=26,missing=25
					25:leaf=0.0050242482684552669525
					26:leaf=0.00076585292117670178413
booster[8]:
0:[6_RACE<0.5] yes=1,no=2,missing=1
	1:leaf=-0.020346598699688911438
	2:[1_CVTE:DCAPS.3<9.521411895751953125] yes=3,no=4,missing=3
		3:[8_CVTE:DCAPS.3<9.5127096176147460938] yes=13,no=14,missing=13
			13:leaf=0.0025139518547803163528
			14:[0_CVTE:CAPSULE.3<9.5705242156982421875] yes=15,no=16,missing=15
				15:leaf=0.0011585282627493143082
				16:[10_ClusterTE:ClusterID94:DCAPS:VOL.3<9.3652019500732421875] yes=17,no=18,missing=17
					17:leaf=0.0012128591770306229591
					18:leaf=-0.011111862026154994965
		4:[PSA<18.200000762939453125] yes=5,no=6,missing=5
			5:[9_CVCatNumEnc:CAPSULE:DCAPS:PSA.amin.3<3.6500000953674316406] yes=7,no=8,missing=7
				7:[PSA<7.8000001907348632812] yes=19,no=20,missing=19
					19:[10_ClusterTE:ClusterID94:DCAPS:VOL.3<9.4654083251953125] yes=21,no=22,missing=21
						21:[2_CVTE:DPROS.3<9.7367162704467773438] yes=25,no=26,missing=25
							25:[0_CVTE:CAPSULE.3<9.3965396881103515625] yes=27,no=28,missing=27
								27:leaf=0.0042647481895983219147
								28:leaf=-0.0078788222745060920715
							26:leaf=0.0014186706393957138062
						22:[PSA<1] yes=23,no=24,missing=23
							23:leaf=-0.0064369887113571166992
							24:[PSA<7] yes=29,no=30,missing=29
								29:leaf=0.0031344189774245023727
								30:leaf=-0.004980519413948059082
					20:leaf=0.0022385758347809314728
				8:leaf=-0.007852509617805480957
			6:[13_InteractionAdd:CAPSULE:GLEASON.3<5.5] yes=9,no=10,missing=9
				9:leaf=0.0036216829903423786163
				10:[1_CVTE:DCAPS.3<9.5951023101806640625] yes=11,no=12,missing=11
					11:leaf=-0.0059537738561630249023
					12:leaf=0.00031570077408105134964
booster[9]:
0:[6_RACE<0.5] yes=1,no=2,missing=1
	1:leaf=-0.020346598699688911438
	2:[3_CVTE:GLEASON.3<9.5476713180541992188] yes=3,no=4,missing=3
		3:[4_CVTE:RACE.3<9.5727252960205078125] yes=5,no=6,missing=5
			5:[3_CVTE:GLEASON.3<9.2134637832641601562] yes=21,no=22,missing=21
				21:[4_CVTE:RACE.3<9.5376873016357421875] yes=23,no=24,missing=23
					23:leaf=0.0069111995398998260498
					24:[1_CVTE:DCAPS.3<9.4411172866821289062] yes=27,no=28,missing=27
						27:leaf=-0.0067741293460130691528
						28:leaf=0.0017824106616899371147
				22:leaf=-0.001129704061895608902
			6:[12_TruncSVD:CAPSULE:DCAPS:VOL.7<0.24975775182247161865] yes=7,no=8,missing=7
				7:leaf=0.0033181174658238887787
				8:[2_CVTE:DPROS.3<9.307483673095703125] yes=15,no=16,missing=15
					15:leaf=0.00035154502256773412228
					16:[PSA<2.7000000476837158203] yes=17,no=18,missing=17
						17:leaf=-0.00098929880186915397644
						18:leaf=-0.010343539528548717499
		4:[2_CVTE:DPROS.3<9.6769933700561523438] yes=9,no=10,missing=9
			9:[VOL<34] yes=13,no=14,missing=13
				13:[2_CVTE:DPROS.3<9.49092864990234375] yes=29,no=30,missing=29
					29:leaf=-0.00048547159531153738499
					30:leaf=-0.0049705104902386665344
				14:[14_CVTE:CAPSULE:DCAPS.3<9.610858917236328125] yes=25,no=26,missing=25
					25:leaf=0.0059275510720908641815
					26:leaf=-0.0035778030287474393845
			10:[PSA<20.399999618530273438] yes=11,no=12,missing=11
				11:leaf=0.0049219322390854358673
				12:[4_CVTE:RACE.3<9.5197210311889648438] yes=19,no=20,missing=19
					19:leaf=-0.0058963936753571033478
					20:leaf=0.0014736222801730036736
booster[10]:
0:[6_RACE<0.5] yes=1,no=2,missing=1
	1:leaf=-0.020244864746928215027
	2:[3_CVTE:GLEASON.3<9.4690723419189453125] yes=3,no=4,missing=3
		3:[3_CVTE:GLEASON.3<9.2134637832641601562] yes=5,no=6,missing=5
			5:[4_CVTE:RACE.3<9.5727252960205078125] yes=11,no=12,missing=11
				11:leaf=0.0033285683020949363708
				12:[12_TruncSVD:CAPSULE:DCAPS:VOL.7<0.24975775182247161865] yes=13,no=14,missing=13
					13:leaf=0.0024663230869919061661
					14:[1_CVTE:DCAPS.3<9.5512294769287109375] yes=19,no=20,missing=19
						19:leaf=-0.0096677979454398155212
						20:leaf=0.0046095177531242370605
			6:[9_CVCatNumEnc:CAPSULE:DCAPS:PSA.amin.3<1.5499999523162841797] yes=17,no=18,missing=17
				17:leaf=-0.0023065484128892421722
				18:leaf=-0.0090748667716979980469
		4:[4_CVTE:RACE.3<9.5197210311889648438] yes=7,no=8,missing=7
			7:[0_CVTE:CAPSULE.3<9.5386028289794921875] yes=23,no=24,missing=23
				23:[8_CVTE:DCAPS.3<9.551082611083984375] yes=27,no=28,missing=27
					27:leaf=-0.0078719872981309890747
					28:leaf=-0.00032890241709537804127
				24:leaf=0.0019646806176751852036
			8:[VOL<28.5] yes=9,no=10,missing=9
				9:[2_CVTE:DPROS.3<9.6769933700561523438] yes=15,no=16,missing=15
					15:[12_TruncSVD:CAPSULE:DCAPS:VOL.7<0.20034299790859222412] yes=21,no=22,missing=21
						21:leaf=-0.0095716211944818496704
						22:[3_CVTE:GLEASON.3<9.7430105209350585938] yes=29,no=30,missing=29
							29:leaf=0.0017875508638098835945
							30:leaf=-0.0011098539689555764198
					16:leaf=0.0029317834414541721344
				10:[14_CVTE:CAPSULE:DCAPS.3<9.610858917236328125] yes=25,no=26,missing=25
					25:leaf=0.0055352644994854927063
					26:leaf=-0.0035593381617218255997
booster[11]:
0:[6_RACE<0.5] yes=1,no=2,missing=1
	1:leaf=-0.020244864746928215027
	2:[2_CVTE:DPROS.3<9.6769933700561523438] yes=3,no=4,missing=3
		3:[2_CVTE:DPROS.3<9.307483673095703125] yes=9,no=10,missing=9
			9:leaf=0.0019156256457790732384
			10:[3_CVTE:GLEASON.3<9.7685461044311523438] yes=13,no=14,missing=13
				13:[12_TruncSVD:CAPSULE:DCAPS:VOL.6<0.037871863692998886108] yes=15,no=16,missing=15
					15:[8_CVTE:DCAPS.3<9.5127096176147460938] yes=19,no=20,missing=19
						19:leaf=-0.000841272005345672369
						20:[4_CVTE:RACE.3<9.5595645904541015625] yes=21,no=22,missing=21
							21:leaf=0.0028422879986464977264
							22:leaf=-0.013755579479038715363
					16:[10_ClusterTE:ClusterID94:DCAPS:VOL.3<9.3742923736572265625] yes=17,no=18,missing=17
						17:leaf=0.0052955383434891700745
						18:[3_CVTE:GLEASON.3<9.5476713180541992188] yes=23,no=24,missing=23
							23:[3_CVTE:GLEASON.3<9.2833509445190429688] yes=25,no=26,missing=25
								25:leaf=0.00045470293844118714333
								26:[12_TruncSVD:CAPSULE:DCAPS:VOL.7<0.68580520153045654297] yes=27,no=28,missing=27
									27:leaf=-0.0011007249122485518456
									28:leaf=-0.0091839740052819252014
							24:[VOL<41.799999237060546875] yes=29,no=30,missing=29
								29:leaf=-4.8784171667648479342e-05
								30:leaf=0.0069966572336852550507
				14:leaf=-0.0044439453631639480591
		4:[3_CVTE:GLEASON.3<9.5033388137817382812] yes=5,no=6,missing=5
			5:leaf=-0.00046176571049727499485
			6:[PSA<20.399999618530273438] yes=7,no=8,missing=7
				7:leaf=0.0047853575088083744049
				8:[10_ClusterTE:ClusterID94:DCAPS:VOL.3<9.4922246932983398438] yes=11,no=12,missing=11
					11:leaf=-0.0033556001726537942886
					12:leaf=0.0027013118378818035126
booster[12]:
0:[3_CVTE:GLEASON.3<9.5476713180541992188] yes=1,no=2,missing=1
	1:[3_CVTE:GLEASON.3<9.2134637832641601562] yes=3,no=4,missing=3
		3:[4_CVTE:RACE.3<9.5376873016357421875] yes=5,no=6,missing=5
			5:leaf=0.0060566314496099948883
			6:[12_TruncSVD:CAPSULE:DCAPS:VOL.7<0.4023024439811706543] yes=7,no=8,missing=7
				7:leaf=0.0042548254132270812988
				8:[2_CVTE:DPROS.3<9.7367162704467773438] yes=9,no=10,missing=9
					9:leaf=-0.0052661746740341186523
					10:leaf=0.0016265225131064653397
		4:[12_TruncSVD:CAPSULE:DCAPS:VOL.7<1.3427147865295410156] yes=17,no=18,missing=17
			17:[PSA<5.8000001907348632812] yes=23,no=24,missing=23
				23:leaf=-0.0039172712713479995728
				24:leaf=0.00023586522729601711035
			18:[2_CVTE:DPROS.3<9.8428316116333007812] yes=19,no=20,missing=19
				19:[2_CVTE:DPROS.3<9.3800210952758789062] yes=21,no=22,missing=21
					21:leaf=-0.0020376550965011119843
					22:leaf=-0.011021873913705348969
				20:leaf=0.001802762271836400032
	2:[2_CVTE:DPROS.3<9.6769933700561523438] yes=11,no=12,missing=11
		11:[VOL<47] yes=15,no=16,missing=15
			15:leaf=-0.00012729702575597912073
			16:leaf=0.0061680320650339126587
		12:[PSA<20.399999618530273438] yes=13,no=14,missing=13
			13:[4_CVTE:RACE.3<9.5595645904541015625] yes=27,no=28,missing=27
				27:leaf=0.0026137714739888906479
				28:leaf=0.0064764562994241714478
			14:[10_ClusterTE:ClusterID94:DCAPS:VOL.3<9.4654083251953125] yes=25,no=26,missing=25
				25:[0_CVTE:CAPSULE.3<9.5386028289794921875] yes=29,no=30,missing=29
					29:leaf=-0.0059778420254588127136
					30:leaf=0.0032882522791624069214
				26:leaf=0.0017921406542882323265
booster[13]:
0:[6_RACE<0.5] yes=1,no=2,missing=1
	1:leaf=-0.020143639296293258667
	2:[14_CVTE:CAPSULE:DCAPS.3<9.6855020523071289062] yes=3,no=4,missing=3
		3:[1_CVTE:DCAPS.3<9.521411895751953125] yes=5,no=6,missing=5
			5:[10_ClusterTE:ClusterID94:DCAPS:VOL.3<9.3652019500732421875] yes=7,no=8,missing=7
				7:leaf=0.0056880265474319458008
				8:[12_TruncSVD:CAPSULE:DCAPS:VOL.7<0.79920625686645507812] yes=11,no=12,missing=11
					11:leaf=0.001896740286611020565
					12:[4_CVTE:RACE.3<9.5595645904541015625] yes=13,no=14,missing=13
						13:leaf=0.0017195575637742877007
						14:[14_CVTE:CAPSULE:DCAPS.3<9.5938177108764648438] yes=15,no=16,missing=15
							15:[PSA<8.6000003814697265625] yes=19,no=20,missing=19
								19:leaf=-0.0039235963486135005951
								20:leaf=0.00093231507344171404839
							16:[8_CVTE:DCAPS.3<9.5127096176147460938] yes=17,no=18,missing=17
								17:leaf=-0.00040476321009919047356
								18:leaf=-0.013709082268178462982
			6:[PSA<18.200000762939453125] yes=9,no=10,missing=9
				9:[PSA<7.8000001907348632812] yes=25,no=26,missing=25
					25:[10_ClusterTE:ClusterID94:DCAPS:VOL.3<9.3652019500732421875] yes=29,no=30,missing=29
						29:leaf=-0.0047103790566325187683
						30:leaf=-0.00021980039309710264206
					26:[3_CVTE:GLEASON.3<9.8388967514038085938] yes=27,no=28,missing=27
						27:leaf=0.0022028598468750715256
						28:leaf=-0.0056757959537208080292
				10:[1_CVTE:DCAPS.3<9.6757764816284179688] yes=21,no=22,missing=21
					21:[8_CVTE:DCAPS.3<9.5127096176147460938] yes=23,no=24,missing=23
						23:leaf=-0.0023189217317849397659
						24:leaf=-0.008564495481550693512
					22:leaf=0.0022641287650913000107
		4:leaf=-0.0085616856813430786133
booster[14]:
0:[6_RACE<0.5] yes=1,no=2,missing=1
	1:leaf=-0.020083487033843994141
	2:[3_CVTE:GLEASON.3<9.5476713180541992188] yes=3,no=4,missing=3
		3:[4_CVTE:RACE.3<9.5727252960205078125] yes=5,no=6,missing=5
			5:[3_CVTE:GLEASON.3<9.2134637832641601562] yes=11,no=12,missing=11
				11:leaf=0.0026091639883816242218
				12:leaf=-0.0016080236528068780899
			6:[12_TruncSVD:CAPSULE:DCAPS:VOL.7<0.24975775182247161865] yes=7,no=8,missing=7
				7:leaf=0.0019988398998975753784
				8:[8_CVTE:DCAPS.3<9.4667644500732421875] yes=9,no=10,missing=9
					9:leaf=-0.0008633765392005443573
					10:[11_NumCatTE:CAPSULE:DCAPS.3<9.485157012939453125] yes=17,no=18,missing=17
						17:leaf=-0.002053625183179974556
						18:leaf=-0.010666688904166221619
		4:[3_CVTE:GLEASON.3<9.7430105209350585938] yes=13,no=14,missing=13
			13:leaf=0.0026061036624014377594
			14:[2_CVTE:DPROS.3<9.6769933700561523438] yes=15,no=16,missing=15
				15:[PSA<6.5] yes=21,no=22,missing=21
					21:[PSA<2.5999999046325683594] yes=23,no=24,missing=23
						23:leaf=-0.0041703688912093639374
						24:leaf=0.002500705420970916748
					22:[3_CVTE:GLEASON.3<9.8388967514038085938] yes=25,no=26,missing=25
						25:[0_CVTE:CAPSULE.3<9.5386028289794921875] yes=27,no=28,missing=27
							27:[0_CVTE:CAPSULE.3<9.3965396881103515625] yes=29,no=30,missing=29
								29:leaf=0.0014568574260920286179
								30:leaf=-0.0046774959191679954529
							28:leaf=0.0023844628594815731049
						26:leaf=-0.0075268470682203769684
				16:[PSA<64.3000030517578125] yes=19,no=20,missing=19
					19:leaf=0.0028487411327660083771
					20:leaf=-0.0066963625140488147736
booster[15]:
0:[1_CVTE:DCAPS.3<9.521411895751953125] yes=1,no=2,missing=1
	1:[10_ClusterTE:ClusterID94:DCAPS:VOL.3<9.3652019500732421875] yes=3,no=4,missing=3
		3:leaf=0.0058981762267649173737
		4:[8_CVTE:DCAPS.3<9.551082611083984375] yes=5,no=6,missing=5
			5:[2_CVTE:DPROS.3<9.3800210952758789062] yes=9,no=10,missing=9
				9:leaf=-0.00085732754087075591087
				10:leaf=0.0025883798953145742416
			6:[9_CVCatNumEnc:CAPSULE:DCAPS:RACE.amin.0<0.5] yes=7,no=8,missing=7
				7:[2_CVTE:DPROS.3<9.3563251495361328125] yes=17,no=18,missing=17
					17:leaf=-0.00023958682140801101923
					18:leaf=-0.010119657032191753387
				8:[PSA<6.8000001907348632812] yes=19,no=20,missing=19
					19:leaf=0.0060722539201378822327
					20:leaf=-0.0020032206084579229355
	2:[PSA<26.700000762939453125] yes=11,no=12,missing=11
		11:[PSA<5.6999998092651367188] yes=13,no=14,missing=13
			13:[11_NumCatTE:CAPSULE:DCAPS.3<9.521389007568359375] yes=21,no=22,missing=21
				21:[10_ClusterTE:ClusterID94:DCAPS:VOL.3<9.3652019500732421875] yes=23,no=24,missing=23
					23:leaf=-0.0068100690841674804688
					24:leaf=0.0044704731553792953491
				22:[13_InteractionAdd:CAPSULE:GLEASON.3<5.5] yes=25,no=26,missing=25
					25:leaf=-0.0015388638712465763092
					26:leaf=-0.0084852669388055801392
			14:[PSA<22.100000381469726562] yes=27,no=28,missing=27
				27:[PSA<18.200000762939453125] yes=29,no=30,missing=29
					29:leaf=0.00090102455578744411469
					30:leaf=-0.0073930751532316207886
				28:leaf=0.0051681534387171268463
		12:[PSA<89] yes=15,no=16,missing=15
			15:leaf=-0.0068491334095597267151
			16:leaf=0.0040742619894444942474
booster[16]:
0:[3_CVTE:GLEASON.3<9.5476713180541992188] yes=1,no=2,missing=1
	1:[4_CVTE:RACE.3<9.5727252960205078125] yes=11,no=12,missing=11
		11:leaf=0.0003660906513687223196
		12:[12_TruncSVD:CAPSULE:DCAPS:VOL.7<0.24975775182247161865] yes=13,no=14,missing=13
			13:leaf=0.0027026997413486242294
			14:[PSA<2.7000000476837158203] yes=15,no=16,missing=15
				15:leaf=0.00024506621412001550198
				16:[2_CVTE:DPROS.3<9.3391332626342773438] yes=19,no=20,missing=19
					19:[0_CVTE:CAPSULE.3<9.4686174392700195312] yes=27,no=28,missing=27
						27:leaf=0.0044558462686836719513
						28:leaf=-0.0054078302346169948578
					20:leaf=-0.0095368213951587677002
	2:[4_CVTE:RACE.3<9.5197210311889648438] yes=3,no=4,missing=3
		3:[13_InteractionAdd:CAPSULE:GLEASON.3<6.5] yes=7,no=8,missing=7
			7:leaf=0.0031250824686139822006
			8:leaf=-0.0066841528750956058502
		4:[2_CVTE:DPROS.3<9.6769933700561523438] yes=5,no=6,missing=5
			5:[12_TruncSVD:CAPSULE:DCAPS:VOL.6<0.037871863692998886108] yes=9,no=10,missing=9
				9:[0_CVTE:CAPSULE.3<9.5475091934204101562] yes=17,no=18,missing=17
					17:leaf=0.0018390028271824121475
					18:[4_CVTE:RACE.3<9.5376873016357421875] yes=29,no=30,missing=29
						29:leaf=0.0018077056156471371651
						30:leaf=-0.0076180654577910900116
				10:[2_CVTE:DPROS.3<9.4060573577880859375] yes=21,no=22,missing=21
					21:[VOL<24] yes=25,no=26,missing=25
						25:leaf=0.00085427431622520089149
						26:leaf=0.004810972604900598526
					22:[PSA<7.9000000953674316406] yes=23,no=24,missing=23
						23:leaf=0.0029944002162665128708
						24:leaf=-0.0069837574847042560577
			6:leaf=0.0036355170886963605881
booster[17]:
0:[6_RACE<0.5] yes=1,no=2,missing=1
	1:leaf=-0.020048458129167556763
	2:[3_CVTE:GLEASON.3<9.547893524169921875] yes=3,no=4,missing=3
		3:[4_CVTE:RACE.3<9.5727252960205078125] yes=5,no=6,missing=5
			5:[3_CVTE:GLEASON.3<9.1260814666748046875] yes=11,no=12,missing=11
				11:leaf=0.0041348738595843315125
				12:leaf=-0.001079646754078567028
			6:[12_TruncSVD:CAPSULE:DCAPS:VOL.7<0.24975775182247161865] yes=7,no=8,missing=7
				7:leaf=0.0023853122256696224213
				8:[8_CVTE:DCAPS.3<9.5127096176147460938] yes=9,no=10,missing=9
					9:leaf=-0.0033613173291087150574
					10:leaf=-0.011091674678027629852
		4:[4_CVTE:RACE.3<9.5197210311889648438] yes=13,no=14,missing=13
			13:[13_InteractionAdd:CAPSULE:GLEASON.3<6.5] yes=15,no=16,missing=15
				15:leaf=0.0031250824686139822006
				16:leaf=-0.0047240308485925197601
			14:[2_CVTE:DPROS.3<9.6769933700561523438] yes=17,no=18,missing=17
				17:[14_CVTE:CAPSULE:DCAPS.3<9.5938177108764648438] yes=19,no=20,missing=19
					19:[VOL<41.799999237060546875] yes=25,no=26,missing=25
						25:[VOL<21.200000762939453125] yes=27,no=28,missing=27
							27:leaf=0.0019073515431955456734
							28:[PSA<13.699999809265136719] yes=29,no=30,missing=29
								29:leaf=0.0041607320308685302734
								30:leaf=-0.0055779707618057727814
						26:leaf=0.0063920752145349979401
					20:[PSA<13.899999618530273438] yes=21,no=22,missing=21
						21:[0_CVTE:CAPSULE.3<9.5705242156982421875] yes=23,no=24,missing=23
							23:leaf=-0.00012356697698123753071
							24:leaf=-0.0090592177584767341614
						22:leaf=0.0024011230561882257462
				18:leaf=0.0031979542691260576248
booster[18]:
0:[6_RACE<0.5] yes=1,no=2,missing=1
	1:leaf=-0.019999252632260322571
	2:[1_CVTE:DCAPS.3<9.5512294769287109375] yes=3,no=4,missing=3
		3:[2_CVTE:DPROS.3<9.6769933700561523438] yes=5,no=6,missing=5
			5:[4_CVTE:RACE.3<9.5595645904541015625] yes=9,no=10,missing=9
				9:[9_CVCatNumEnc:CAPSULE:DCAPS:PSA.amin.3<1.5499999523162841797] yes=27,no=28,missing=27
					27:leaf=0.00097328569972887635231
					28:leaf=0.0060404734686017036438
				10:[3_CVTE:GLEASON.3<9.547893524169921875] yes=11,no=12,missing=11
					11:[2_CVTE:DPROS.3<9.307483673095703125] yes=17,no=18,missing=17
						17:leaf=0.00064710417063906788826
						18:leaf=-0.0067303306423127651215
					12:[12_TruncSVD:CAPSULE:DCAPS:VOL.6<0.037871863692998886108] yes=13,no=14,missing=13
						13:[8_CVTE:DCAPS.3<9.5127096176147460938] yes=15,no=16,missing=15
							15:leaf=0.00061643915250897407532
							16:[PSA<40.40000152587890625] yes=25,no=26,missing=25
								25:leaf=-0.012474474497139453888
								26:leaf=0.00095523829804733395576
						14:[9_CVCatNumEnc:CAPSULE:DCAPS:PSA.amin.3<0.35000002384185791016] yes=29,no=30,missing=29
							29:leaf=0.0040850997902452945709
							30:leaf=-9.7428499429952353239e-05
			6:[PSA<63.299999237060546875] yes=7,no=8,missing=7
				7:[3_CVTE:GLEASON.3<9.5908346176147460938] yes=19,no=20,missing=19
					19:leaf=0.00034721408155746757984
					20:leaf=0.0042394557967782020569
				8:leaf=-0.0045280209742486476898
		4:[2_CVTE:DPROS.3<9.7932186126708984375] yes=21,no=22,missing=21
			21:leaf=-0.0012566788354888558388
			22:[8_CVTE:DCAPS.3<9.6753444671630859375] yes=23,no=24,missing=23
				23:leaf=-0.010163835249841213226
				24:leaf=0.0020850705914199352264
booster[19]:
0:[6_RACE<0.5] yes=1,no=2,missing=1
	1:leaf=-0.019999252632260322571
	2:[3_CVTE:GLEASON.3<9.5476713180541992188] yes=3,no=4,missing=3
		3:[3_CVTE:GLEASON.3<9.2134637832641601562] yes=7,no=8,missing=7
			7:[12_TruncSVD:CAPSULE:DCAPS:VOL.6<0.037871863692998886108] yes=21,no=22,missing=21
				21:[4_CVTE:RACE.3<9.5727252960205078125] yes=23,no=24,missing=23
					23:leaf=0.00066968740429729223251
					24:leaf=-0.0084668640047311782837
				22:leaf=0.0022367497440427541733
			8:[8_CVTE:DCAPS.3<9.4667644500732421875] yes=15,no=16,missing=15
				15:leaf=0.00081110402243211865425
				16:[4_CVTE:RACE.3<9.5595645904541015625] yes=19,no=20,missing=19
					19:leaf=-0.0019608836155384778976
					20:leaf=-0.0058582699857652187347
		4:[2_CVTE:DPROS.3<9.6769933700561523438] yes=5,no=6,missing=5
			5:[3_CVTE:GLEASON.3<9.7430105209350585938] yes=9,no=10,missing=9
				9:[1_CVTE:DCAPS.3<9.5512294769287109375] yes=25,no=26,missing=25
					25:[0_CVTE:CAPSULE.3<9.35811614990234375] yes=27,no=28,missing=27
						27:leaf=-0.0028425389900803565979
						28:leaf=0.0041951225139200687408
					26:[0_CVTE:CAPSULE.3<9.5705242156982421875] yes=29,no=30,missing=29
						29:leaf=0.0012396717211231589317
						30:leaf=-0.0081291692331433296204
				10:[2_CVTE:DPROS.3<9.307483673095703125] yes=17,no=18,missing=17
					17:leaf=0.0029726335778832435608
					18:leaf=-0.0023953521158546209335
			6:[4_CVTE:RACE.3<9.5595645904541015625] yes=11,no=12,missing=11
				11:[PSA<63.299999237060546875] yes=13,no=14,missing=13
					13:leaf=0.001774880685843527317
					14:leaf=-0.0075216228142380714417
				12:leaf=0.0054338914342224597931
booster[20]:
0:[2_CVTE:DPROS.3<9.6769933700561523438] yes=1,no=2,missing=1
	1:[12_TruncSVD:CAPSULE:DCAPS:VOL.7<0.38151249289512634277] yes=9,no=10,missing=9
		9:[9_CVCatNumEnc:CAPSULE:DCAPS:PSA.amin.3<0.35000002384185791016] yes=21,no=22,missing=21
			21:leaf=0.0028657205402851104736
			22:[0_CVTE:CAPSULE.3<9.4686174392700195312] yes=23,no=24,missing=23
				23:leaf=0.0021938532590866088867
				24:leaf=-0.0042609493248164653778
		10:[2_CVTE:DPROS.3<9.49092864990234375] yes=11,no=12,missing=11
			11:[4_CVTE:RACE.3<9.5376873016357421875] yes=25,no=26,missing=25
				25:[10_ClusterTE:ClusterID94:DCAPS:VOL.3<9.5069370269775390625] yes=29,no=30,missing=29
					29:leaf=0.0044694319367408752441
					30:leaf=-0.0025921233464032411575
				26:[14_CVTE:CAPSULE:DCAPS.3<9.4007959365844726562] yes=27,no=28,missing=27
					27:leaf=0.0018967038486152887344
					28:leaf=-0.0027081989683210849762
			12:[4_CVTE:RACE.3<9.594661712646484375] yes=13,no=14,missing=13
				13:[1_CVTE:DCAPS.3<9.477985382080078125] yes=17,no=18,missing=17
					17:leaf=0.00059136387426406145096
					18:leaf=-0.010427334345877170563
				14:[3_CVTE:GLEASON.3<9.74788665771484375] yes=15,no=16,missing=15
					15:leaf=0.0028869437519460916519
					16:leaf=-0.0077305529266595840454
	2:[PSA<28] yes=3,no=4,missing=3
		3:[3_CVTE:GLEASON.3<9.5033388137817382812] yes=5,no=6,missing=5
			5:leaf=0.00022208027075976133347
			6:leaf=0.0037124340888112783432
		4:[PSA<29.100000381469726562] yes=7,no=8,missing=7
			7:leaf=-0.012883918359875679016
			8:[4_CVTE:RACE.3<9.5197210311889648438] yes=19,no=20,missing=19
				19:leaf=-0.0073498021811246871948
				20:leaf=0.00081856246106326580048
booster[21]:
0:[6_RACE<0.5] yes=1,no=2,missing=1
	1:leaf=-0.019899258390069007874
	2:[3_CVTE:GLEASON.3<9.4690723419189453125] yes=3,no=4,missing=3
		3:[4_CVTE:RACE.3<9.5595645904541015625] yes=5,no=6,missing=5
			5:[10_ClusterTE:ClusterID94:DCAPS:VOL.3<9.3742923736572265625] yes=27,no=28,missing=27
				27:leaf=0.0058043641038239002228
				28:leaf=5.5401389545295387506e-05
			6:[12_TruncSVD:CAPSULE:DCAPS:VOL.7<0.24975775182247161865] yes=7,no=8,missing=7
				7:leaf=0.0015793214552104473114
				8:[8_CVTE:DCAPS.3<9.5127096176147460938] yes=19,no=20,missing=19
					19:[2_CVTE:DPROS.3<9.49092864990234375] yes=23,no=24,missing=23
						23:leaf=-0.0046355621889233589172
						24:leaf=0.0011766884708777070045
					20:[11_NumCatTE:CAPSULE:DCAPS.3<9.485157012939453125] yes=21,no=22,missing=21
						21:leaf=0.0005832815077155828476
						22:leaf=-0.0094300592318177223206
		4:[14_CVTE:CAPSULE:DCAPS.3<9.5938177108764648438] yes=9,no=10,missing=9
			9:[11_NumCatTE:CAPSULE:DCAPS.3<9.456409454345703125] yes=13,no=14,missing=13
				13:[4_CVTE:RACE.3<9.5197210311889648438] yes=15,no=16,missing=15
					15:leaf=-0.0049699777737259864807
					16:[0_CVTE:CAPSULE.3<9.4686174392700195312] yes=17,no=18,missing=17
						17:leaf=0.0023464702535420656204
						18:[13_InteractionAdd:CAPSULE:GLEASON.3<8.5] yes=25,no=26,missing=25
							25:leaf=-0.0048162001185119152069
							26:leaf=0.0042543727904558181763
				14:leaf=0.0033652752172201871872
			10:[8_CVTE:DCAPS.3<9.4775295257568359375] yes=11,no=12,missing=11
				11:leaf=0.0019983749371021986008
				12:[0_CVTE:CAPSULE.3<9.5705242156982421875] yes=29,no=30,missing=29
					29:leaf=-0.0010690480703487992287
					30:leaf=-0.0067117046564817428589
booster[22]:
0:[6_RACE<0.5] yes=1,no=2,missing=1
	1:leaf=-0.019856674596667289734
	2:[3_CVTE:GLEASON.3<9.5476713180541992188] yes=3,no=4,missing=3
		3:[10_ClusterTE:ClusterID94:DCAPS:VOL.3<9.342006683349609375] yes=9,no=10,missing=9
			9:leaf=-0.011612643487751483917
			10:[14_CVTE:CAPSULE:DCAPS.3<9.6855020523071289062] yes=11,no=12,missing=11
				11:[PSA<1.2000000476837158203] yes=17,no=18,missing=17
					17:leaf=-0.0068654441274702548981
					18:[PSA<1.7000000476837158203] yes=19,no=20,missing=19
						19:leaf=0.0063578113913536071777
						20:leaf=-0.00063083600252866744995
				12:leaf=-0.008125217631459236145
		4:[3_CVTE:GLEASON.3<9.6897058486938476562] yes=5,no=6,missing=5
			5:[12_TruncSVD:CAPSULE:DCAPS:VOL.7<0.58644193410873413086] yes=13,no=14,missing=13
				13:leaf=0.0076972153037786483765
				14:leaf=0.0024249595589935779572
			6:[2_CVTE:DPROS.3<9.6769933700561523438] yes=7,no=8,missing=7
				7:[VOL<48.700000762939453125] yes=15,no=16,missing=15
					15:[0_CVTE:CAPSULE.3<9.3965396881103515625] yes=21,no=22,missing=21
						21:[10_ClusterTE:ClusterID94:DCAPS:VOL.3<9.5069370269775390625] yes=23,no=24,missing=23
							23:leaf=0.0052954182028770446777
							24:leaf=-0.0029914921615272760391
						22:[11_NumCatTE:CAPSULE:DCAPS.3<9.4163913726806640625] yes=25,no=26,missing=25
							25:leaf=-0.0054269828833639621735
							26:[3_CVTE:GLEASON.3<9.7685461044311523438] yes=27,no=28,missing=27
								27:[10_ClusterTE:ClusterID94:DCAPS:VOL.3<9.50537109375] yes=29,no=30,missing=29
									29:leaf=-0.002394329756498336792
									30:leaf=0.0022352859377861022949
								28:leaf=-0.0049921334721148014069
					16:leaf=0.0037738068494945764542
				8:leaf=0.0027885069139301776886
booster[23]:
0:[6_RACE<0.5] yes=1,no=2,missing=1
	1:leaf=-0.019856674596667289734
	2:[3_CVTE:GLEASON.3<9.5476713180541992188] yes=3,no=4,missing=3
		3:[4_CVTE:RACE.3<9.5727252960205078125] yes=5,no=6,missing=5
			5:[3_CVTE:GLEASON.3<9.2134637832641601562] yes=21,no=22,missing=21
				21:leaf=0.0022052694112062454224
				22:[PSA<3.4000000953674316406] yes=25,no=26,missing=25
					25:leaf=0.002707263454794883728
					26:[PSA<7.5] yes=27,no=28,missing=27
						27:leaf=-0.0049311239272356033325
						28:leaf=-0.00053127633873373270035
			6:[12_TruncSVD:CAPSULE:DCAPS:VOL.7<0.24975775182247161865] yes=7,no=8,missing=7
				7:leaf=0.0026806872338056564331
				8:[2_CVTE:DPROS.3<9.307483673095703125] yes=15,no=16,missing=15
					15:leaf=0.00044012942817062139511
					16:[PSA<2.7000000476837158203] yes=17,no=18,missing=17
						17:leaf=-0.0017519195098429918289
						18:leaf=-0.009637745097279548645
		4:[2_CVTE:DPROS.3<9.6769933700561523438] yes=9,no=10,missing=9
			9:[VOL<29.799999237060546875] yes=11,no=12,missing=11
				11:[2_CVTE:DPROS.3<9.49092864990234375] yes=13,no=14,missing=13
					13:[12_TruncSVD:CAPSULE:DCAPS:VOL.7<0.20034299790859222412] yes=23,no=24,missing=23
						23:leaf=-0.0071365023031830787659
						24:[12_TruncSVD:CAPSULE:DCAPS:VOL.7<0.64773666858673095703] yes=29,no=30,missing=29
							29:leaf=0.0019821641035377979279
							30:leaf=-0.00099807791411876678467
					14:leaf=-0.0067526763305068016052
				12:[3_CVTE:GLEASON.3<9.7797632217407226562] yes=19,no=20,missing=19
					19:leaf=0.0060136010870337486267
					20:leaf=-0.001947153010405600071
			10:leaf=0.0028268294408917427063
booster[24]:
0:[6_RACE<0.5] yes=1,no=2,missing=1
	1:leaf=-0.019757391884922981262
	2:[1_CVTE:DCAPS.3<9.521411895751953125] yes=3,no=4,missing=3
		3:[3_CVTE:GLEASON.3<9.547893524169921875] yes=5,no=6,missing=5
			5:leaf=-0.00076608743984252214432
			6:[10_ClusterTE:ClusterID94:DCAPS:VOL.3<9.3652019500732421875] yes=7,no=8,missing=7
				7:leaf=0.0053845350630581378937
				8:[10_ClusterTE:ClusterID94:DCAPS:VOL.3<9.3742923736572265625] yes=9,no=10,missing=9
					9:[0_CVTE:CAPSULE.3<9.5705242156982421875] yes=11,no=12,missing=11
						11:leaf=0.00053143448894843459129
						12:leaf=-0.012016979046165943146
					10:leaf=0.0022183596156537532806
		4:[PSA<26.700000762939453125] yes=13,no=14,missing=13
			13:[2_CVTE:DPROS.3<9.6769933700561523438] yes=17,no=18,missing=17
				17:[PSA<4.5] yes=19,no=20,missing=19
					19:leaf=-0.006187580060213804245
					20:[2_CVTE:DPROS.3<9.3563251495361328125] yes=21,no=22,missing=21
						21:[12_TruncSVD:CAPSULE:DCAPS:VOL.6<0.037871863692998886108] yes=27,no=28,missing=27
							27:leaf=-0.0039290450513362884521
							28:[9_CVCatNumEnc:CAPSULE:DCAPS:PSA.amin.3<1.5499999523162841797] yes=29,no=30,missing=29
								29:leaf=0.0046795862726867198944
								30:leaf=-0.0010297622065991163254
						22:[14_CVTE:CAPSULE:DCAPS.3<9.4367618560791015625] yes=23,no=24,missing=23
							23:leaf=-0.0076778028160333633423
							24:[1_CVTE:DCAPS.3<9.5512294769287109375] yes=25,no=26,missing=25
								25:leaf=0.0032036630436778068542
								26:leaf=-0.0036764226388186216354
				18:leaf=0.0013727404875680804253
			14:[VOL<18] yes=15,no=16,missing=15
				15:leaf=-0.0072686066851019859314
				16:leaf=0.00047873868606984615326
booster[25]:
0:[6_RACE<0.5] yes=1,no=2,missing=1
	1:leaf=-0.019757391884922981262
	2:[1_CVTE:DCAPS.3<9.521411895751953125] yes=3,no=4,missing=3
		3:[8_CVTE:DCAPS.3<9.551082611083984375] yes=9,no=10,missing=9
			9:[0_CVTE:CAPSULE.3<9.3965396881103515625] yes=13,no=14,missing=13
				13:[3_CVTE:GLEASON.3<9.6911783218383789062] yes=17,no=18,missing=17
					17:leaf=-0.0033624267671257257462
					18:leaf=0.0038699607830494642258
				14:leaf=0.002778390888124704361
			10:[14_CVTE:CAPSULE:DCAPS.3<9.5938177108764648438] yes=11,no=12,missing=11
				11:leaf=0.0019610356539487838745
				12:[4_CVTE:RACE.3<9.5595645904541015625] yes=19,no=20,missing=19
					19:leaf=-0.0017002725508064031601
					20:leaf=-0.010687027126550674438
		4:[10_ClusterTE:ClusterID94:DCAPS:VOL.3<9.3652019500732421875] yes=5,no=6,missing=5
			5:[PSA<28] yes=15,no=16,missing=15
				15:[PSA<17.700000762939453125] yes=21,no=22,missing=21
					21:leaf=-0.0042239776812493801117
					22:leaf=0.0026548069436103105545
				16:leaf=-0.010052139870822429657
			6:[14_CVTE:CAPSULE:DCAPS.3<9.6855020523071289062] yes=7,no=8,missing=7
				7:[8_CVTE:DCAPS.3<9.5447854995727539062] yes=23,no=24,missing=23
					23:[PSA<16.799999237060546875] yes=25,no=26,missing=25
						25:[8_CVTE:DCAPS.3<9.4667644500732421875] yes=29,no=30,missing=29
							29:leaf=0.003030657302588224411
							30:leaf=-0.00085201836191117763519
						26:[2_CVTE:DPROS.3<9.3348255157470703125] yes=27,no=28,missing=27
							27:leaf=0.0030944645404815673828
							28:leaf=-0.0052255573682487010956
					24:leaf=0.0024036311078816652298
				8:leaf=-0.0081027811393141746521
booster[26]:
0:[1_CVTE:DCAPS.3<9.521411895751953125] yes=1,no=2,missing=1
	1:[VOL<44.200000762939453125] yes=3,no=4,missing=3
		3:[10_ClusterTE:ClusterID94:DCAPS:VOL.3<9.3652019500732421875] yes=5,no=6,missing=5
			5:leaf=0.00456854281947016716
			6:leaf=0.00039909212500788271427
		4:leaf=0.0052844644524157047272
	2:[VOL<32] yes=7,no=8,missing=7
		7:[VOL<25] yes=9,no=10,missing=9
			9:[10_ClusterTE:ClusterID94:DCAPS:VOL.3<9.4654083251953125] yes=11,no=12,missing=11
				11:[0_CVTE:CAPSULE.3<9.4211673736572265625] yes=13,no=14,missing=13
					13:[PSA<6] yes=25,no=26,missing=25
						25:leaf=-0.0059753344394266605377
						26:[PSA<8.8000001907348632812] yes=27,no=28,missing=27
							27:leaf=0.0067401770502328872681
							28:leaf=7.3225761298090219498e-05
					14:[0_CVTE:CAPSULE.3<9.5229310989379882812] yes=29,no=30,missing=29
						29:leaf=-0.0064227734692394733429
						30:leaf=-0.0022896295413374900818
				12:[10_ClusterTE:ClusterID94:DCAPS:VOL.3<9.5083637237548828125] yes=15,no=16,missing=15
					15:[14_CVTE:CAPSULE:DCAPS.3<9.6855020523071289062] yes=17,no=18,missing=17
						17:[PSA<1] yes=21,no=22,missing=21
							21:leaf=-0.0059211016632616519928
							22:leaf=0.0031590019352734088898
						18:leaf=-0.0047930739820003509521
					16:leaf=-0.0043584392406046390533
			10:[10_ClusterTE:ClusterID94:DCAPS:VOL.3<9.5121393203735351562] yes=19,no=20,missing=19
				19:leaf=-0.0073281829245388507843
				20:leaf=0.0021840936969965696335
		8:[3_CVTE:GLEASON.3<9.7797632217407226562] yes=23,no=24,missing=23
			23:leaf=0.004191854037344455719
			24:leaf=-0.0017377539770677685738
booster[27]:
0:[6_RACE<0.5] yes=1,no=2,missing=1
	1:leaf=-0.019658606499433517456
	2:[VOL<1.9199999570846557617] yes=3,no=4,missing=3
		3:[1_CVTE:DCAPS.3<9.477985382080078125] yes=5,no=6,missing=5
			5:[10_ClusterTE:ClusterID94:DCAPS:VOL.3<9.3652019500732421875] yes=11,no=12,missing=11
				11:leaf=0.0052414610981941223145
				12:[3_CVTE:GLEASON.3<9.7430105209350585938] yes=13,no=14,missing=13
					13:leaf=0.0014487095177173614502
					14:[0_CVTE:CAPSULE.3<9.5705242156982421875] yes=17,no=18,missing=17
						17:leaf=-0.001748815411701798439
						18:leaf=-0.011963742785155773163
			6:[3_CVTE:GLEASON.3<9.547893524169921875] yes=7,no=8,missing=7
				7:[8_CVTE:DCAPS.3<9.4667644500732421875] yes=9,no=10,missing=9
					9:[10_ClusterTE:ClusterID94:DCAPS:VOL.3<9.3652019500732421875] yes=15,no=16,missing=15
						15:leaf=-0.006206033751368522644
						16:leaf=0.0044080908410251140594
					10:[4_CVTE:RACE.3<9.5727252960205078125] yes=19,no=20,missing=19
						19:[2_CVTE:DPROS.3<9.7367162704467773438] yes=21,no=22,missing=21
							21:leaf=-0.0075667840428650379181
							22:leaf=-4.0341103158425539732e-05
						20:leaf=-0.010914565064013004303
				8:[PSA<64] yes=23,no=24,missing=23
					23:leaf=-3.292886322014965117e-05
					24:leaf=-0.0074189282022416591644
		4:[VOL<15.699999809265136719] yes=25,no=26,missing=25
			25:leaf=0.0033204981591552495956
			26:[12_TruncSVD:CAPSULE:DCAPS:VOL.7<-0.36692544817924499512] yes=27,no=28,missing=27
				27:leaf=0.0036663832142949104309
				28:[1_CVTE:DCAPS.3<9.5512294769287109375] yes=29,no=30,missing=29
					29:leaf=0.00079734076280146837234
					30:leaf=-0.002519495086744427681
booster[28]:
0:[6_RACE<0.5] yes=1,no=2,missing=1
	1:leaf=-0.019610457122325897217
	2:[1_CVTE:DCAPS.3<9.521411895751953125] yes=3,no=4,missing=3
		3:[10_ClusterTE:ClusterID94:DCAPS:VOL.3<9.3652019500732421875] yes=15,no=16,missing=15
			15:leaf=0.0042543672025203704834
			16:[8_CVTE:DCAPS.3<9.4775295257568359375] yes=19,no=20,missing=19
				19:[2_CVTE:DPROS.3<9.7395391464233398438] yes=25,no=26,missing=25
					25:[11_NumCatTE:CAPSULE:DCAPS.3<9.4163913726806640625] yes=27,no=28,missing=27
						27:leaf=-0.0034680222161114215851
						28:leaf=0.0014312923885881900787
					26:leaf=0.0039994078688323497772
				20:[0_CVTE:CAPSULE.3<9.5705242156982421875] yes=21,no=22,missing=21
					21:leaf=-2.9720751626882702112e-05
					22:[14_CVTE:CAPSULE:DCAPS.3<9.5938177108764648438] yes=23,no=24,missing=23
						23:leaf=0.0003258104261476546526
						24:leaf=-0.010989331640303134918
		4:[10_ClusterTE:ClusterID94:DCAPS:VOL.3<9.50537109375] yes=5,no=6,missing=5
			5:[0_CVTE:CAPSULE.3<9.6127300262451171875] yes=9,no=10,missing=9
				9:[0_CVTE:CAPSULE.3<9.35811614990234375] yes=29,no=30,missing=29
					29:leaf=0.0027921807486563920975
					30:leaf=-0.0036097704432904720306
				10:leaf=0.0040096757002174854279
			6:[8_CVTE:DCAPS.3<9.551082611083984375] yes=7,no=8,missing=7
				7:[9_CVCatNumEnc:CAPSULE:DCAPS:PSA.amin.3<1.5499999523162841797] yes=11,no=12,missing=11
					11:[11_NumCatTE:CAPSULE:DCAPS.3<9.621608734130859375] yes=17,no=18,missing=17
						17:leaf=0.001675686216913163662
						18:leaf=-0.0043001673184335231781
					12:[0_CVTE:CAPSULE.3<9.4211673736572265625] yes=13,no=14,missing=13
						13:leaf=-0.0080713648349046707153
						14:leaf=0.0030551971867680549622
				8:leaf=0.0039911777712404727936
booster[29]:
0:[6_RACE<0.5] yes=1,no=2,missing=1
	1:leaf=-0.019610457122325897217
	2:[3_CVTE:GLEASON.3<9.5476713180541992188] yes=3,no=4,missing=3
		3:[10_ClusterTE:ClusterID94:DCAPS:VOL.3<9.342006683349609375] yes=9,no=10,missing=9
			9:leaf=-0.011468110606074333191
			10:[9_CVCatNumEnc:CAPSULE:DCAPS:PSA.amin.3<3] yes=11,no=12,missing=11
				11:[2_CVTE:DPROS.3<9.2693128585815429688] yes=25,no=26,missing=25
					25:leaf=0.0026574467774480581284
					26:[2_CVTE:DPROS.3<9.7367162704467773438] yes=29,no=30,missing=29
						29:leaf=-0.0026469638105481863022
						30:leaf=-4.6822829062875825912e-06
				12:leaf=-0.0082189794629812240601
		4:[4_CVTE:RACE.3<9.5197210311889648438] yes=5,no=6,missing=5
			5:[13_InteractionAdd:CAPSULE:GLEASON.3<6.5] yes=15,no=16,missing=15
				15:leaf=0.0020790651906281709671
				16:leaf=-0.0060006966814398765564
			6:[2_CVTE:DPROS.3<9.6769933700561523438] yes=7,no=8,missing=7
				7:[12_TruncSVD:CAPSULE:DCAPS:VOL.6<0.037871863692998886108] yes=13,no=14,missing=13
					13:[0_CVTE:CAPSULE.3<9.5475091934204101562] yes=19,no=20,missing=19
						19:leaf=0.001176989404484629631
						20:[3_CVTE:GLEASON.3<9.7430105209350585938] yes=21,no=22,missing=21
							21:leaf=0.00066348788095638155937
							22:[10_ClusterTE:ClusterID94:DCAPS:VOL.3<9.342006683349609375] yes=23,no=24,missing=23
								23:leaf=0.0011560852872207760811
								24:leaf=-0.00952243804931640625
					14:[11_NumCatTE:CAPSULE:DCAPS.3<9.621608734130859375] yes=17,no=18,missing=17
						17:leaf=0.0011615244438871741295
						18:[0_CVTE:CAPSULE.3<9.6127300262451171875] yes=27,no=28,missing=27
							27:leaf=0.0022427511867135763168
							28:leaf=-0.0093753440305590629578
				8:leaf=0.0030357162468135356903
booster[30]:
0:[VOL<44.200000762939453125] yes=1,no=2,missing=1
	1:[1_CVTE:DCAPS.3<9.5512294769287109375] yes=3,no=4,missing=3
		3:[3_CVTE:GLEASON.3<9.5033388137817382812] yes=5,no=6,missing=5
			5:[3_CVTE:GLEASON.3<9.2134637832641601562] yes=9,no=10,missing=9
				9:[4_CVTE:RACE.3<9.5727252960205078125] yes=11,no=12,missing=11
					11:leaf=0.0031929272226989269257
					12:[12_TruncSVD:CAPSULE:DCAPS:VOL.7<0.24975775182247161865] yes=13,no=14,missing=13
						13:leaf=0.0024141902104020118713
						14:leaf=-0.0080030625686049461365
				10:leaf=-0.0027304270770400762558
			6:[PSA<6.5] yes=7,no=8,missing=7
				7:leaf=0.003741994732990860939
				8:[3_CVTE:GLEASON.3<9.762897491455078125] yes=15,no=16,missing=15
					15:[0_CVTE:CAPSULE.3<9.6127300262451171875] yes=17,no=18,missing=17
						17:[PSA<7.9000000953674316406] yes=19,no=20,missing=19
							19:leaf=-0.006608595140278339386
							20:leaf=0.0010455982992425560951
						18:leaf=0.006361180916428565979
					16:leaf=-0.0027979889418929815292
		4:[11_NumCatTE:CAPSULE:DCAPS.3<9.485157012939453125] yes=21,no=22,missing=21
			21:[0_CVTE:CAPSULE.3<9.3965396881103515625] yes=27,no=28,missing=27
				27:leaf=0.0033734284806996583939
				28:[3_CVTE:GLEASON.3<9.6911783218383789062] yes=29,no=30,missing=29
					29:leaf=0.00028897181618958711624
					30:leaf=-0.0058907698839902877808
			22:[13_InteractionAdd:CAPSULE:GLEASON.3<7.5] yes=23,no=24,missing=23
				23:[3_CVTE:GLEASON.3<9.6270303726196289062] yes=25,no=26,missing=25
					25:leaf=-0.0050905290991067886353
					26:leaf=0.00085434864740818738937
				24:leaf=-0.010942625813186168671
	2:leaf=0.0037875031121075153351
booster[31]:
0:[3_CVTE:GLEASON.3<9.5033388137817382812] yes=1,no=2,missing=1
	1:[VOL<12.800000190734863281] yes=11,no=12,missing=11
		11:[2_CVTE:DPROS.3<9.3800210952758789062] yes=13,no=14,missing=13
			13:leaf=0.00015206472016870975494
			14:[2_CVTE:DPROS.3<9.7367162704467773438] yes=15,no=16,missing=15
				15:[8_CVTE:DCAPS.3<9.4667644500732421875] yes=17,no=18,missing=17
					17:leaf=-0.00095614074962213635445
					18:leaf=-0.011300721205770969391
				16:leaf=-0.0017340731574222445488
		12:[2_CVTE:DPROS.3<9.3800210952758789062] yes=19,no=20,missing=19
			19:[14_CVTE:CAPSULE:DCAPS.3<9.4364576339721679688] yes=21,no=22,missing=21
				21:leaf=0.0039331912994384765625
				22:[14_CVTE:CAPSULE:DCAPS.3<9.54552459716796875] yes=23,no=24,missing=23
					23:leaf=-0.0083486279472708702087
					24:leaf=-0.00024196386220864951611
			20:leaf=0.0014418732607737183571
	2:[2_CVTE:DPROS.3<9.6769933700561523438] yes=3,no=4,missing=3
		3:[3_CVTE:GLEASON.3<9.7430105209350585938] yes=5,no=6,missing=5
			5:[1_CVTE:DCAPS.3<9.5512294769287109375] yes=7,no=8,missing=7
				7:leaf=0.0030762085225433111191
				8:[0_CVTE:CAPSULE.3<9.5705242156982421875] yes=9,no=10,missing=9
					9:leaf=0.00087417545728385448456
					10:leaf=-0.0080429287627339363098
			6:[9_CVCatNumEnc:CAPSULE:DCAPS:RACE.amin.0<0.5] yes=25,no=26,missing=25
				25:leaf=-0.0034961726050823926926
				26:[13_InteractionAdd:CAPSULE:GLEASON.3<7.5] yes=27,no=28,missing=27
					27:leaf=0.0030934005044400691986
					28:[8_CVTE:DCAPS.3<9.5127096176147460938] yes=29,no=30,missing=29
						29:leaf=-0.0049562784843146800995
						30:leaf=0.0008521706913597881794
		4:leaf=0.0027393235359340906143
booster[32]:
0:[6_RACE<0.5] yes=1,no=2,missing=1
	1:leaf=-0.019509183242917060852
	2:[3_CVTE:GLEASON.3<9.5476713180541992188] yes=3,no=4,missing=3
		3:[4_CVTE:RACE.3<9.5727252960205078125] yes=7,no=8,missing=7
			7:[3_CVTE:GLEASON.3<9.2134637832641601562] yes=21,no=22,missing=21
				21:leaf=0.0015702946111559867859
				22:[VOL<3.7000000476837158203] yes=23,no=24,missing=23
					23:[10_ClusterTE:ClusterID94:DCAPS:VOL.3<9.3742923736572265625] yes=25,no=26,missing=25
						25:leaf=0.0016009873943403363228
						26:leaf=-0.0080404505133628845215
					24:[0_CVTE:CAPSULE.3<9.5386028289794921875] yes=29,no=30,missing=29
						29:leaf=0.0024216684978455305099
						30:leaf=-0.0020977589301764965057
			8:[12_TruncSVD:CAPSULE:DCAPS:VOL.7<0.24975775182247161865] yes=9,no=10,missing=9
				9:leaf=0.0014833932509645819664
				10:[8_CVTE:DCAPS.3<9.5127096176147460938] yes=17,no=18,missing=17
					17:[PSA<1.3999999761581420898] yes=27,no=28,missing=27
						27:leaf=0.0025523782242089509964
						28:leaf=-0.004876756574958562851
					18:leaf=-0.010168781504034996033
		4:[4_CVTE:RACE.3<9.5197210311889648438] yes=5,no=6,missing=5
			5:[13_InteractionAdd:CAPSULE:GLEASON.3<6.5] yes=15,no=16,missing=15
				15:leaf=0.0034855776466429233551
				16:leaf=-0.0050817057490348815918
			6:[2_CVTE:DPROS.3<9.6769933700561523438] yes=11,no=12,missing=11
				11:[3_CVTE:GLEASON.3<9.7797632217407226562] yes=13,no=14,missing=13
					13:[14_CVTE:CAPSULE:DCAPS.3<9.5938177108764648438] yes=19,no=20,missing=19
						19:leaf=0.0025035142898559570312
						20:leaf=-0.0018402120331302285194
					14:leaf=-0.0037613697350025177002
				12:leaf=0.0036052928771823644638
booster[33]:
0:[3_CVTE:GLEASON.3<9.547893524169921875] yes=1,no=2,missing=1
	1:[4_CVTE:RACE.3<9.5727252960205078125] yes=3,no=4,missing=3
		3:[3_CVTE:GLEASON.3<9.2134637832641601562] yes=19,no=20,missing=19
			19:leaf=0.0020479795057326555252
			20:[1_CVTE:DCAPS.3<9.477985382080078125] yes=21,no=22,missing=21
				21:leaf=0.0019572852179408073425
				22:leaf=-0.0031158679630607366562
		4:[12_TruncSVD:CAPSULE:DCAPS:VOL.7<0.24975775182247161865] yes=5,no=6,missing=5
			5:leaf=0.0024334941990673542023
			6:[PSA<2.7999999523162841797] yes=7,no=8,missing=7
				7:leaf=0.0020658350549638271332
				8:[2_CVTE:DPROS.3<9.307483673095703125] yes=9,no=10,missing=9
					9:leaf=0.00046622435911558568478
					10:leaf=-0.010068527422845363617
	2:[2_CVTE:DPROS.3<9.6769933700561523438] yes=11,no=12,missing=11
		11:[9_CVCatNumEnc:CAPSULE:DCAPS:PSA.amin.3<2.2000000476837158203] yes=13,no=14,missing=13
			13:[3_CVTE:GLEASON.3<9.744770050048828125] yes=23,no=24,missing=23
				23:[1_CVTE:DCAPS.3<9.5512294769287109375] yes=25,no=26,missing=25
					25:leaf=0.0017591336509212851524
					26:leaf=-0.0051400391384959220886
				24:[0_CVTE:CAPSULE.3<9.3965396881103515625] yes=27,no=28,missing=27
					27:leaf=0.0057566622272133827209
					28:[9_CVCatNumEnc:CAPSULE:DCAPS:PSA.amin.3<0.35000002384185791016] yes=29,no=30,missing=29
						29:leaf=-0.00066827720729634165764
						30:leaf=-0.0049385391175746917725
			14:leaf=0.0040039098821580410004
		12:[PSA<20.399999618530273438] yes=15,no=16,missing=15
			15:leaf=0.0037737812381237745285
			16:[4_CVTE:RACE.3<9.5197210311889648438] yes=17,no=18,missing=17
				17:leaf=-0.0056395987048745155334
				18:leaf=0.0018222244689241051674
booster[34]:
0:[1_CVTE:DCAPS.3<9.5512294769287109375] yes=1,no=2,missing=1
	1:[3_CVTE:GLEASON.3<9.5033388137817382812] yes=3,no=4,missing=3
		3:[12_TruncSVD:CAPSULE:DCAPS:VOL.7<0.42606237530708312988] yes=5,no=6,missing=5
			5:leaf=0.0014967750757932662964
			6:[2_CVTE:DPROS.3<9.3563251495361328125] yes=9,no=10,missing=9
				9:[PSA<7.5] yes=11,no=12,missing=11
					11:leaf=-0.0024053724482655525208
					12:leaf=0.0060842162929475307465
				10:[PSA<6.6999998092651367188] yes=13,no=14,missing=13
					13:leaf=-0.00052554399007931351662
					14:[2_CVTE:DPROS.3<9.7395391464233398438] yes=17,no=18,missing=17
						17:leaf=-0.0096321040764451026917
						18:leaf=-0.0025196655187755823135
		4:[2_CVTE:DPROS.3<9.6769933700561523438] yes=7,no=8,missing=7
			7:[VOL<27.5] yes=19,no=20,missing=19
				19:[PSA<6.5] yes=21,no=22,missing=21
					21:[9_CVCatNumEnc:CAPSULE:DCAPS:RACE.amin.0<0.5] yes=23,no=24,missing=23
						23:leaf=-0.0011745631927624344826
						24:leaf=0.0045535485260188579559
					22:[VOL<18.299999237060546875] yes=25,no=26,missing=25
						25:leaf=-0.00013858717284165322781
						26:[4_CVTE:RACE.3<9.5595645904541015625] yes=27,no=28,missing=27
							27:leaf=0.00056374835548922419548
							28:leaf=-0.0068078003823757171631
				20:leaf=0.0041114697232842445374
			8:[PSA<20.399999618530273438] yes=15,no=16,missing=15
				15:leaf=0.0052428185008466243744
				16:leaf=0.00076239666668698191643
	2:[11_NumCatTE:CAPSULE:DCAPS.3<9.621608734130859375] yes=29,no=30,missing=29
		29:leaf=-0.0015262918313965201378
		30:leaf=-0.0072050872258841991425
booster[35]:
0:[6_RACE<0.5] yes=1,no=2,missing=1
	1:leaf=-0.019452622160315513611
	2:[3_CVTE:GLEASON.3<9.5476713180541992188] yes=3,no=4,missing=3
		3:[4_CVTE:RACE.3<9.5727252960205078125] yes=5,no=6,missing=5
			5:[3_CVTE:GLEASON.3<9.2134637832641601562] yes=19,no=20,missing=19
				19:[4_CVTE:RACE.3<9.5376873016357421875] yes=21,no=22,missing=21
					21:leaf=0.0050041982904076576233
					22:[1_CVTE:DCAPS.3<9.4411172866821289062] yes=23,no=24,missing=23
						23:leaf=-0.0067672352306544780731
						24:leaf=0.0012587325181812047958
				20:leaf=-0.0015257678460329771042
			6:[12_TruncSVD:CAPSULE:DCAPS:VOL.7<0.24975775182247161865] yes=7,no=8,missing=7
				7:leaf=0.0026218427810817956924
				8:[8_CVTE:DCAPS.3<9.5127096176147460938] yes=9,no=10,missing=9
					9:leaf=-0.0037511927075684070587
					10:leaf=-0.011268451809883117676
		4:[2_CVTE:DPROS.3<9.6769933700561523438] yes=11,no=12,missing=11
			11:[VOL<37] yes=15,no=16,missing=15
				15:[1_CVTE:DCAPS.3<9.5512294769287109375] yes=25,no=26,missing=25
					25:[12_TruncSVD:CAPSULE:DCAPS:VOL.7<0.54675692319869995117] yes=27,no=28,missing=27
						27:leaf=0.0028887467924505472183
						28:[1_CVTE:DCAPS.3<9.477985382080078125] yes=29,no=30,missing=29
							29:leaf=-0.0028566631954163312912
							30:leaf=0.00075205165194347500801
					26:leaf=-0.0027630568947643041611
				16:[14_CVTE:CAPSULE:DCAPS.3<9.610858917236328125] yes=17,no=18,missing=17
					17:leaf=0.0061047808267176151276
					18:leaf=-0.0035990444011986255646
			12:[PSA<20.700000762939453125] yes=13,no=14,missing=13
				13:leaf=0.0042031737975776195526
				14:leaf=-0.0010735082905739545822
booster[36]:
0:[6_RACE<0.5] yes=1,no=2,missing=1
	1:leaf=-0.019407732412219047546
	2:[3_CVTE:GLEASON.3<9.5476713180541992188] yes=3,no=4,missing=3
		3:[4_CVTE:RACE.3<9.5727252960205078125] yes=5,no=6,missing=5
			5:[3_CVTE:GLEASON.3<9.2134637832641601562] yes=17,no=18,missing=17
				17:leaf=0.0017550764605402946472
				18:[12_TruncSVD:CAPSULE:DCAPS:VOL.7<1.3427147865295410156] yes=21,no=22,missing=21
					21:leaf=-0.00031766967731527984142
					22:leaf=-0.0052018547430634498596
			6:[12_TruncSVD:CAPSULE:DCAPS:VOL.7<0.24975775182247161865] yes=7,no=8,missing=7
				7:leaf=0.0021034413948655128479
				8:[8_CVTE:DCAPS.3<9.4667644500732421875] yes=19,no=20,missing=19
					19:leaf=-0.0016831952380016446114
					20:[11_NumCatTE:CAPSULE:DCAPS.3<9.485157012939453125] yes=23,no=24,missing=23
						23:leaf=-0.0017919606762006878853
						24:leaf=-0.0090748779475688934326
		4:[14_CVTE:CAPSULE:DCAPS.3<9.5938177108764648438] yes=9,no=10,missing=9
			9:[3_CVTE:GLEASON.3<9.7685461044311523438] yes=25,no=26,missing=25
				25:[VOL<27.5] yes=29,no=30,missing=29
					29:leaf=0.0014436590718105435371
					30:leaf=0.0053602689877152442932
				26:[PSA<7.4000000953674316406] yes=27,no=28,missing=27
					27:leaf=0.0041767531074583530426
					28:leaf=-0.0025337114930152893066
			10:[8_CVTE:DCAPS.3<9.4775295257568359375] yes=11,no=12,missing=11
				11:leaf=0.0016967387637123465538
				12:[0_CVTE:CAPSULE.3<9.5705242156982421875] yes=13,no=14,missing=13
					13:[PSA<13.100000381469726562] yes=15,no=16,missing=15
						15:leaf=0.0029449344146996736526
						16:leaf=-0.0041259373538196086884
					14:leaf=-0.0099656768143177032471
booster[37]:
0:[3_CVTE:GLEASON.3<9.5476713180541992188] yes=1,no=2,missing=1
	1:[4_CVTE:RACE.3<9.5727252960205078125] yes=7,no=8,missing=7
		7:[3_CVTE:GLEASON.3<9.1260814666748046875] yes=25,no=26,missing=25
			25:[PSA<4.4000000953674316406] yes=29,no=30,missing=29
				29:leaf=-0.0041015394963324069977
				30:leaf=0.0044270614162087440491
			26:[12_TruncSVD:CAPSULE:DCAPS:VOL.7<1.3427147865295410156] yes=27,no=28,missing=27
				27:leaf=-0.00020253896946087479591
				28:leaf=-0.0069333198480308055878
		8:[12_TruncSVD:CAPSULE:DCAPS:VOL.7<0.24975775182247161865] yes=9,no=10,missing=9
			9:leaf=0.0040304050780832767487
			10:[11_NumCatTE:CAPSULE:DCAPS.3<9.485157012939453125] yes=11,no=12,missing=11
				11:[14_CVTE:CAPSULE:DCAPS.3<9.4400730133056640625] yes=21,no=22,missing=21
					21:leaf=-0.0058587118983268737793
					22:[10_ClusterTE:ClusterID94:DCAPS:VOL.3<9.3652019500732421875] yes=23,no=24,missing=23
						23:leaf=-0.0060763023793697357178
						24:leaf=0.0042032282799482345581
				12:leaf=-0.0094366576522588729858
	2:[4_CVTE:RACE.3<9.5197210311889648438] yes=3,no=4,missing=3
		3:[13_InteractionAdd:CAPSULE:GLEASON.3<6.5] yes=13,no=14,missing=13
			13:leaf=0.0035787087399512529373
			14:leaf=-0.0054172319360077381134
		4:[2_CVTE:DPROS.3<9.6769933700561523438] yes=5,no=6,missing=5
			5:[3_CVTE:GLEASON.3<9.7797632217407226562] yes=15,no=16,missing=15
				15:leaf=0.00098498526494950056076
				16:[14_CVTE:CAPSULE:DCAPS.3<9.3594942092895507812] yes=17,no=18,missing=17
					17:leaf=0.0031357656698673963547
					18:[2_CVTE:DPROS.3<9.2693128585815429688] yes=19,no=20,missing=19
						19:leaf=0.0023877525236457586288
						20:leaf=-0.0069190133363008499146
			6:leaf=0.0035421394277364015579
booster[38]:
0:[3_CVTE:GLEASON.3<9.5476713180541992188] yes=1,no=2,missing=1
	1:[10_ClusterTE:ClusterID94:DCAPS:VOL.3<9.342006683349609375] yes=3,no=4,missing=3
		3:leaf=-0.01003451179713010788
		4:[8_CVTE:DCAPS.3<9.4667644500732421875] yes=9,no=10,missing=9
			9:[11_NumCatTE:CAPSULE:DCAPS.3<9.4163913726806640625] yes=19,no=20,missing=19
				19:leaf=-0.0055343690328299999237
				20:leaf=0.0037679111119359731674
			10:[11_NumCatTE:CAPSULE:DCAPS.3<9.485157012939453125] yes=11,no=12,missing=11
				11:leaf=0.00086315599037334322929
				12:[4_CVTE:RACE.3<9.5727252960205078125] yes=13,no=14,missing=13
					13:leaf=-0.0012707640416920185089
					14:[12_TruncSVD:CAPSULE:DCAPS:VOL.7<0.26865279674530029297] yes=15,no=16,missing=15
						15:leaf=0.0016172942705452442169
						16:leaf=-0.0079465424641966819763
	2:[1_CVTE:DCAPS.3<9.521411895751953125] yes=5,no=6,missing=5
		5:[10_ClusterTE:ClusterID94:DCAPS:VOL.3<9.3652019500732421875] yes=17,no=18,missing=17
			17:leaf=0.0058967256918549537659
			18:[12_TruncSVD:CAPSULE:DCAPS:VOL.7<0.6120967864990234375] yes=21,no=22,missing=21
				21:[4_CVTE:RACE.3<9.5595645904541015625] yes=29,no=30,missing=29
					29:leaf=0.0010091867297887802124
					30:leaf=0.0054676830768585205078
				22:[1_CVTE:DCAPS.3<9.477985382080078125] yes=23,no=24,missing=23
					23:[3_CVTE:GLEASON.3<9.7430105209350585938] yes=25,no=26,missing=25
						25:[VOL<21.200000762939453125] yes=27,no=28,missing=27
							27:leaf=0.0029449877329170703888
							28:leaf=-0.0061407345347106456757
						26:leaf=-0.0048402706161141395569
					24:leaf=0.0018214475130662322044
		6:[4_CVTE:RACE.3<9.5197210311889648438] yes=7,no=8,missing=7
			7:leaf=-0.0073549663648009300232
			8:leaf=5.8004032325698062778e-05
booster[39]:
0:[6_RACE<0.5] yes=1,no=2,missing=1
	1:leaf=-0.019358705729246139526
	2:[VOL<47] yes=3,no=4,missing=3
		3:[3_CVTE:GLEASON.3<9.547893524169921875] yes=5,no=6,missing=5
			5:[4_CVTE:RACE.3<9.5727252960205078125] yes=7,no=8,missing=7
				7:leaf=-1.4424999790207948536e-05
				8:[PSA<2.7000000476837158203] yes=9,no=10,missing=9
					9:leaf=0.0014054782222956418991
					10:[12_TruncSVD:CAPSULE:DCAPS:VOL.7<0.24975775182247161865] yes=11,no=12,missing=11
						11:leaf=0.0011932611232623457909
						12:leaf=-0.0076961647719144821167
			6:[4_CVTE:RACE.3<9.5197210311889648438] yes=13,no=14,missing=13
				13:leaf=-0.0031004943884909152985
				14:[2_CVTE:DPROS.3<9.6769933700561523438] yes=15,no=16,missing=15
					15:[9_CVCatNumEnc:CAPSULE:DCAPS:RACE.amin.0<0.5] yes=17,no=18,missing=17
						17:[10_ClusterTE:ClusterID94:DCAPS:VOL.3<9.5069370269775390625] yes=19,no=20,missing=19
							19:leaf=-0.0044287047348916530609
							20:[1_CVTE:DCAPS.3<9.5512294769287109375] yes=25,no=26,missing=25
								25:leaf=0.0033276164904236793518
								26:leaf=-0.0054842615500092506409
						18:[13_InteractionAdd:CAPSULE:GLEASON.3<7.5] yes=21,no=22,missing=21
							21:[12_TruncSVD:CAPSULE:DCAPS:VOL.7<0.38448250293731689453] yes=23,no=24,missing=23
								23:leaf=-0.00030494094244204461575
								24:leaf=0.0062026754021644592285
							22:[10_ClusterTE:ClusterID94:DCAPS:VOL.3<9.4922246932983398438] yes=27,no=28,missing=27
								27:leaf=0.0019220653921365737915
								28:[VOL<27.5] yes=29,no=30,missing=29
									29:leaf=-0.0039299684576690196991
									30:leaf=0.0030179326422512531281
					16:leaf=0.0030059698037803173065
		4:leaf=0.0044229435734450817108
booster[40]:
0:[6_RACE<0.5] yes=1,no=2,missing=1
	1:leaf=-0.019307130947709083557
	2:[14_CVTE:CAPSULE:DCAPS.3<9.6855020523071289062] yes=3,no=4,missing=3
		3:[VOL<44.200000762939453125] yes=5,no=6,missing=5
			5:[2_CVTE:DPROS.3<9.6769933700561523438] yes=7,no=8,missing=7
				7:[2_CVTE:DPROS.3<9.3095941543579101562] yes=9,no=10,missing=9
					9:[3_CVTE:GLEASON.3<9.6931409835815429688] yes=11,no=12,missing=11
						11:[9_CVCatNumEnc:CAPSULE:DCAPS:PSA.amin.3<1.5499999523162841797] yes=13,no=14,missing=13
							13:leaf=0.0033940838184207677841
							14:leaf=-0.0031251304317265748978
						12:leaf=-0.0022386580239981412888
					10:[VOL<25] yes=15,no=16,missing=15
						15:[14_CVTE:CAPSULE:DCAPS.3<9.4007959365844726562] yes=23,no=24,missing=23
							23:leaf=0.0020889686420559883118
							24:[4_CVTE:RACE.3<9.5595645904541015625] yes=25,no=26,missing=25
								25:[11_NumCatTE:CAPSULE:DCAPS.3<9.456409454345703125] yes=29,no=30,missing=29
									29:leaf=-0.0037355355452746152878
									30:leaf=0.0016066069947555661201
								26:[PSA<17.700000762939453125] yes=27,no=28,missing=27
									27:leaf=-0.0044043641537427902222
									28:leaf=0.0019582016393542289734
						16:[VOL<32] yes=17,no=18,missing=17
							17:leaf=-0.0089549934491515159607
							18:leaf=-0.00086970801930874586105
				8:[4_CVTE:RACE.3<9.5376873016357421875] yes=19,no=20,missing=19
					19:leaf=-0.00065228209132328629494
					20:leaf=0.0022879533935338258743
			6:[3_CVTE:GLEASON.3<9.7797632217407226562] yes=21,no=22,missing=21
				21:leaf=0.0051637808792293071747
				22:leaf=-0.0013550606090575456619
		4:leaf=-0.0079939523711800575256
booster[41]:
0:[6_RACE<0.5] yes=1,no=2,missing=1
	1:leaf=-0.019307130947709083557
	2:[1_CVTE:DCAPS.3<9.521411895751953125] yes=3,no=4,missing=3
		3:[8_CVTE:DCAPS.3<9.551082611083984375] yes=5,no=6,missing=5
			5:[2_CVTE:DPROS.3<9.6769933700561523438] yes=7,no=8,missing=7
				7:leaf=0.00067960948217660188675
				8:leaf=0.0035840559285134077072
			6:[4_CVTE:RACE.3<9.594661712646484375] yes=9,no=10,missing=9
				9:[3_CVTE:GLEASON.3<9.4912691116333007812] yes=11,no=12,missing=11
					11:leaf=-0.0042611658573150634766
					12:[PSA<6.8000001907348632812] yes=13,no=14,missing=13
						13:leaf=0.0055600539781153202057
						14:leaf=-0.0013644100399687886238
				10:leaf=-0.0094110192731022834778
		4:[PSA<16.799999237060546875] yes=15,no=16,missing=15
			15:[PSA<7.5] yes=17,no=18,missing=17
				17:[8_CVTE:DCAPS.3<9.4667644500732421875] yes=21,no=22,missing=21
					21:[10_ClusterTE:ClusterID94:DCAPS:VOL.3<9.3652019500732421875] yes=23,no=24,missing=23
						23:leaf=-0.0034338941331952810287
						24:leaf=0.0055660717189311981201
					22:[0_CVTE:CAPSULE.3<9.5475091934204101562] yes=29,no=30,missing=29
						29:leaf=-0.0054282932542264461517
						30:leaf=-0.00067594711435958743095
				18:leaf=0.0020485806744545698166
			16:[4_CVTE:RACE.3<9.5197210311889648438] yes=19,no=20,missing=19
				19:leaf=-0.0088094649836421012878
				20:[VOL<32.799999237060546875] yes=25,no=26,missing=25
					25:[8_CVTE:DCAPS.3<9.551082611083984375] yes=27,no=28,missing=27
						27:leaf=-0.004924979526549577713
						28:leaf=0.0021079117432236671448
					26:leaf=0.0036787213757634162903
booster[42]:
0:[1_CVTE:DCAPS.3<9.521411895751953125] yes=1,no=2,missing=1
	1:[10_ClusterTE:ClusterID94:DCAPS:VOL.3<9.3652019500732421875] yes=9,no=10,missing=9
		9:leaf=0.0045861420221626758575
		10:[VOL<44.200000762939453125] yes=11,no=12,missing=11
			11:[VOL<29.899999618530273438] yes=23,no=24,missing=23
				23:[VOL<27.5] yes=25,no=26,missing=25
					25:leaf=0.00050046388059854507446
					26:leaf=0.0080716013908386230469
				24:leaf=-0.0019637241493910551071
			12:leaf=0.0051707699894905090332
	2:[VOL<4.5999999046325683594] yes=3,no=4,missing=3
		3:[PSA<28] yes=5,no=6,missing=5
			5:[PSA<7.5] yes=7,no=8,missing=7
				7:[2_CVTE:DPROS.3<9.7367162704467773438] yes=13,no=14,missing=13
					13:leaf=-0.0073997527360916137695
					14:[11_NumCatTE:CAPSULE:DCAPS.3<9.5647649765014648438] yes=29,no=30,missing=29
						29:leaf=0.0017593710217624902725
						30:leaf=-0.004882942885160446167
				8:[PSA<7.9000000953674316406] yes=19,no=20,missing=19
					19:leaf=0.0070590702816843986511
					20:[13_InteractionAdd:CAPSULE:GLEASON.3<7.5] yes=21,no=22,missing=21
						21:leaf=-0.0029521824326366186142
						22:[8_CVTE:DCAPS.3<9.4667644500732421875] yes=27,no=28,missing=27
							27:leaf=-0.0037664540577679872513
							28:leaf=0.0038620627019554376602
			6:leaf=-0.0074412948451936244965
		4:[2_CVTE:DPROS.3<9.307483673095703125] yes=15,no=16,missing=15
			15:leaf=0.0043153739534318447113
			16:[VOL<16.5] yes=17,no=18,missing=17
				17:leaf=0.0037247466389089822769
				18:leaf=-0.0013641547411680221558
booster[43]:
0:[6_RACE<0.5] yes=1,no=2,missing=1
	1:leaf=-0.019210595637559890747
	2:[1_CVTE:DCAPS.3<9.477985382080078125] yes=3,no=4,missing=3
		3:[10_ClusterTE:ClusterID94:DCAPS:VOL.3<9.3652019500732421875] yes=15,no=16,missing=15
			15:leaf=0.0051907491870224475861
			16:[VOL<14.100000381469726562] yes=17,no=18,missing=17
				17:leaf=-0.0010783826000988483429
				18:[12_TruncSVD:CAPSULE:DCAPS:VOL.7<0.64773666858673095703] yes=29,no=30,missing=29
					29:leaf=0.003578135976567864418
					30:leaf=-0.0017691698158159852028
		4:[10_ClusterTE:ClusterID94:DCAPS:VOL.3<9.4654083251953125] yes=5,no=6,missing=5
			5:[PSA<20.600000381469726562] yes=7,no=8,missing=7
				7:[PSA<7.8000001907348632812] yes=9,no=10,missing=9
					9:[14_CVTE:CAPSULE:DCAPS.3<9.54552459716796875] yes=13,no=14,missing=13
						13:leaf=-0.0064761363901197910309
						14:[0_CVTE:CAPSULE.3<9.5705242156982421875] yes=27,no=28,missing=27
							27:leaf=0.001852064044214785099
							28:leaf=-0.0038412928115576505661
					10:[13_InteractionAdd:CAPSULE:GLEASON.3<5.5] yes=11,no=12,missing=11
						11:leaf=-0.0055716810747981071472
						12:leaf=0.0026019983924925327301
				8:[2_CVTE:DPROS.3<9.49092864990234375] yes=25,no=26,missing=25
					25:leaf=-2.0394325474626384676e-05
					26:leaf=-0.0083088902756571769714
			6:[11_NumCatTE:CAPSULE:DCAPS.3<9.621608734130859375] yes=19,no=20,missing=19
				19:leaf=0.00044813388376496732235
				20:[VOL<22.799999237060546875] yes=21,no=22,missing=21
					21:[0_CVTE:CAPSULE.3<9.5475091934204101562] yes=23,no=24,missing=23
						23:leaf=-0.0054507874883711338043
						24:leaf=0.0057221413590013980865
					22:leaf=-0.0090534379705786705017
booster[44]:
0:[3_CVTE:GLEASON.3<9.547893524169921875] yes=1,no=2,missing=1
	1:[4_CVTE:RACE.3<9.5727252960205078125] yes=5,no=6,missing=5
		5:leaf=-0.00017860412481240928173
		6:[8_CVTE:DCAPS.3<9.5127096176147460938] yes=7,no=8,missing=7
			7:leaf=-0.00095852621598169207573
			8:[12_TruncSVD:CAPSULE:DCAPS:VOL.7<0.26865279674530029297] yes=9,no=10,missing=9
				9:leaf=0.0045289420522749423981
				10:leaf=-0.011044879443943500519
	2:[14_CVTE:CAPSULE:DCAPS.3<9.5938177108764648438] yes=3,no=4,missing=3
		3:[PSA<6.8000001907348632812] yes=13,no=14,missing=13
			13:leaf=0.0039809513837099075317
			14:[4_CVTE:RACE.3<9.5376873016357421875] yes=15,no=16,missing=15
				15:[2_CVTE:DPROS.3<9.3391332626342773438] yes=27,no=28,missing=27
					27:leaf=0.0017725388752296566963
					28:[0_CVTE:CAPSULE.3<9.5229310989379882812] yes=29,no=30,missing=29
						29:leaf=-0.0062838550657033920288
						30:leaf=-0.00012965289351996034384
				16:[3_CVTE:GLEASON.3<9.7797632217407226562] yes=19,no=20,missing=19
					19:[VOL<27.5] yes=21,no=22,missing=21
						21:[VOL<21.200000762939453125] yes=23,no=24,missing=23
							23:leaf=0.0026264500338584184647
							24:leaf=-0.0058445292524993419647
						22:leaf=0.0060775703750550746918
					20:leaf=-0.0021021231077611446381
		4:[9_CVCatNumEnc:CAPSULE:DCAPS:PSA.amin.3<0.35000002384185791016] yes=11,no=12,missing=11
			11:[8_CVTE:DCAPS.3<9.4775295257568359375] yes=25,no=26,missing=25
				25:leaf=0.0004075016477145254612
				26:leaf=-0.0062667746096849441528
			12:[VOL<27] yes=17,no=18,missing=17
				17:leaf=0.0047521800734102725983
				18:leaf=-0.0071770604699850082397
booster[45]:
0:[6_RACE<0.5] yes=1,no=2,missing=1
	1:leaf=-0.019163820892572402954
	2:[3_CVTE:GLEASON.3<9.5476713180541992188] yes=3,no=4,missing=3
		3:[8_CVTE:DCAPS.3<9.4667644500732421875] yes=5,no=6,missing=5
			5:[11_NumCatTE:CAPSULE:DCAPS.3<9.456409454345703125] yes=17,no=18,missing=17
				17:[0_CVTE:CAPSULE.3<9.3965396881103515625] yes=29,no=30,missing=29
					29:leaf=0.004346477799117565155
					30:leaf=-0.005483954213559627533
				18:leaf=0.0034975253511220216751
			6:[4_CVTE:RACE.3<9.5727252960205078125] yes=7,no=8,missing=7
				7:leaf=-0.00084536289796233177185
				8:[12_TruncSVD:CAPSULE:DCAPS:VOL.7<0.26865279674530029297] yes=9,no=10,missing=9
					9:leaf=0.0017426508711650967598
					10:[2_CVTE:DPROS.3<9.307483673095703125] yes=19,no=20,missing=19
						19:leaf=0.00021616458252537995577
						20:leaf=-0.008873201906681060791
		4:[3_CVTE:GLEASON.3<9.7430105209350585938] yes=11,no=12,missing=11
			11:[4_CVTE:RACE.3<9.5727252960205078125] yes=15,no=16,missing=15
				15:leaf=0.00059878453612327575684
				16:leaf=0.0042430241592228412628
			12:[2_CVTE:DPROS.3<9.6769933700561523438] yes=13,no=14,missing=13
				13:[VOL<29.799999237060546875] yes=21,no=22,missing=21
					21:leaf=-0.0021042115986347198486
					22:[14_CVTE:CAPSULE:DCAPS.3<9.610858917236328125] yes=27,no=28,missing=27
						27:leaf=0.0045472206547856330872
						28:leaf=-0.0035798868630081415176
				14:[1_CVTE:DCAPS.3<9.521411895751953125] yes=23,no=24,missing=23
					23:[8_CVTE:DCAPS.3<9.551082611083984375] yes=25,no=26,missing=25
						25:leaf=0.0042827404104173183441
						26:leaf=-0.0030315385665744543076
					24:leaf=-0.0010713037336245179176
booster[46]:
0:[6_RACE<0.5] yes=1,no=2,missing=1
	1:leaf=-0.019115464761853218079
	2:[3_CVTE:GLEASON.3<9.5476713180541992188] yes=3,no=4,missing=3
		3:[3_CVTE:GLEASON.3<9.2134637832641601562] yes=5,no=6,missing=5
			5:[4_CVTE:RACE.3<9.5727252960205078125] yes=7,no=8,missing=7
				7:leaf=0.0031260624527931213379
				8:[12_TruncSVD:CAPSULE:DCAPS:VOL.7<0.24975775182247161865] yes=9,no=10,missing=9
					9:leaf=0.0031865248456597328186
					10:[1_CVTE:DCAPS.3<9.5512294769287109375] yes=21,no=22,missing=21
						21:leaf=-0.0077677508816123008728
						22:leaf=0.0045954012311995029449
			6:[10_ClusterTE:ClusterID94:DCAPS:VOL.3<9.342006683349609375] yes=19,no=20,missing=19
				19:leaf=-0.012409438379108905792
				20:[8_CVTE:DCAPS.3<9.4667644500732421875] yes=29,no=30,missing=29
					29:leaf=0.0011004495900124311447
					30:leaf=-0.0025062155909836292267
		4:[PSA<6.5] yes=11,no=12,missing=11
			11:leaf=0.0034584286622703075409
			12:[0_CVTE:CAPSULE.3<9.5229310989379882812] yes=13,no=14,missing=13
				13:[3_CVTE:GLEASON.3<9.744770050048828125] yes=15,no=16,missing=15
					15:leaf=0.00073278706986457109451
					16:[0_CVTE:CAPSULE.3<9.3965396881103515625] yes=17,no=18,missing=17
						17:[10_ClusterTE:ClusterID94:DCAPS:VOL.3<9.5083637237548828125] yes=23,no=24,missing=23
							23:leaf=0.0045132185332477092743
							24:leaf=-0.0049477289430797100067
						18:leaf=-0.0065385028719902038574
				14:[9_CVCatNumEnc:CAPSULE:DCAPS:PSA.amin.3<0.35000002384185791016] yes=25,no=26,missing=25
					25:[VOL<44.200000762939453125] yes=27,no=28,missing=27
						27:leaf=0.00018369653844274580479
						28:leaf=0.0057655721902847290039
					26:leaf=0.0056082420051097869873
booster[47]:
0:[6_RACE<0.5] yes=1,no=2,missing=1
	1:leaf=-0.019115464761853218079
	2:[1_CVTE:DCAPS.3<9.5512294769287109375] yes=3,no=4,missing=3
		3:[3_CVTE:GLEASON.3<9.4550380706787109375] yes=5,no=6,missing=5
			5:[4_CVTE:RACE.3<9.5727252960205078125] yes=7,no=8,missing=7
				7:[3_CVTE:GLEASON.3<9.2134637832641601562] yes=11,no=12,missing=11
					11:leaf=0.0035010664723813533783
					12:leaf=-0.00080833956599235534668
				8:[12_TruncSVD:CAPSULE:DCAPS:VOL.7<0.24975775182247161865] yes=9,no=10,missing=9
					9:leaf=0.002543629845604300499
					10:[2_CVTE:DPROS.3<9.307483673095703125] yes=27,no=28,missing=27
						27:leaf=0.00033219455508515238762
						28:[1_CVTE:DCAPS.3<9.4411172866821289062] yes=29,no=30,missing=29
							29:leaf=0.00063921604305505752563
							30:leaf=-0.0079810600727796554565
			6:[2_CVTE:DPROS.3<9.6769933700561523438] yes=13,no=14,missing=13
				13:[3_CVTE:GLEASON.3<9.7685461044311523438] yes=17,no=18,missing=17
					17:[12_TruncSVD:CAPSULE:DCAPS:VOL.6<0.037871863692998886108] yes=23,no=24,missing=23
						23:leaf=-0.0013689725892618298531
						24:[0_CVTE:CAPSULE.3<9.35811614990234375] yes=25,no=26,missing=25
							25:leaf=-0.0027203925419598817825
							26:leaf=0.0030929578933864831924
					18:[2_CVTE:DPROS.3<9.3348255157470703125] yes=19,no=20,missing=19
						19:leaf=0.00087595195509493350983
						20:leaf=-0.0059029720723628997803
				14:[PSA<64.3000030517578125] yes=15,no=16,missing=15
					15:leaf=0.004128661472350358963
					16:leaf=-0.0028107608668506145477
		4:[10_ClusterTE:ClusterID94:DCAPS:VOL.3<9.342006683349609375] yes=21,no=22,missing=21
			21:leaf=-0.007661656942218542099
			22:leaf=-0.0012543356278911232948
booster[48]:
0:[6_RACE<0.5] yes=1,no=2,missing=1
	1:leaf=-0.01901988685131072998
	2:[3_CVTE:GLEASON.3<9.5476713180541992188] yes=3,no=4,missing=3
		3:[10_ClusterTE:ClusterID94:DCAPS:VOL.3<9.342006683349609375] yes=5,no=6,missing=5
			5:leaf=-0.012359261512756347656
			6:[PSA<2.4000000953674316406] yes=11,no=12,missing=11
				11:leaf=0.0025223379489034414291
				12:[4_CVTE:RACE.3<9.5727252960205078125] yes=15,no=16,missing=15
					15:[3_CVTE:GLEASON.3<9.2134637832641601562] yes=21,no=22,missing=21
						21:leaf=0.0018149396637454628944
						22:[2_CVTE:DPROS.3<9.8428316116333007812] yes=29,no=30,missing=29
							29:leaf=-0.0025779092684388160706
							30:leaf=0.0030359202064573764801
					16:[12_TruncSVD:CAPSULE:DCAPS:VOL.7<0.24975775182247161865] yes=17,no=18,missing=17
						17:leaf=0.0029021771624684333801
						18:[3_CVTE:GLEASON.3<9.3089017868041992188] yes=19,no=20,missing=19
							19:leaf=-0.0083050150424242019653
							20:[2_CVTE:DPROS.3<9.3391332626342773438] yes=25,no=26,missing=25
								25:leaf=0.0045256246812641620636
								26:leaf=-0.0044869119301438331604
		4:[2_CVTE:DPROS.3<9.6769933700561523438] yes=7,no=8,missing=7
			7:[3_CVTE:GLEASON.3<9.7430105209350585938] yes=9,no=10,missing=9
				9:leaf=0.0021022565197199583054
				10:[1_CVTE:DCAPS.3<9.5512294769287109375] yes=23,no=24,missing=23
					23:leaf=-0.00023567122116219252348
					24:leaf=-0.0040063601918518543243
			8:[4_CVTE:RACE.3<9.5727252960205078125] yes=13,no=14,missing=13
				13:[8_CVTE:DCAPS.3<9.5127096176147460938] yes=27,no=28,missing=27
					27:leaf=0.0025380980223417282104
					28:leaf=-0.0017386666731908917427
				14:leaf=0.0051584988832473754883
booster[49]:
0:[6_RACE<0.5] yes=1,no=2,missing=1
	1:leaf=-0.01901988685131072998
	2:[14_CVTE:CAPSULE:DCAPS.3<9.610858917236328125] yes=3,no=4,missing=3
		3:[1_CVTE:DCAPS.3<9.521411895751953125] yes=9,no=10,missing=9
			9:[10_ClusterTE:ClusterID94:DCAPS:VOL.3<9.3652019500732421875] yes=21,no=22,missing=21
				21:leaf=0.0045498190447688102722
				22:[12_TruncSVD:CAPSULE:DCAPS:VOL.7<0.6120967864990234375] yes=23,no=24,missing=23
					23:leaf=0.0025413429830223321915
					24:[4_CVTE:RACE.3<9.5727252960205078125] yes=25,no=26,missing=25
						25:leaf=0.0011145950993523001671
						26:[PSA<5.5] yes=27,no=28,missing=27
							27:leaf=0.0011330690467730164528
							28:[PSA<12.699999809265136719] yes=29,no=30,missing=29
								29:leaf=-0.0084592308849096298218
								30:leaf=-0.0010956048499792814255
			10:[10_ClusterTE:ClusterID94:DCAPS:VOL.3<9.3652019500732421875] yes=11,no=12,missing=11
				11:[0_CVTE:CAPSULE.3<9.35811614990234375] yes=15,no=16,missing=15
					15:leaf=0.0061168051324784755707
					16:[11_NumCatTE:CAPSULE:DCAPS.3<9.485157012939453125] yes=17,no=18,missing=17
						17:[PSA<7.9000000953674316406] yes=19,no=20,missing=19
							19:leaf=-0.0055875289253890514374
							20:leaf=0.0060678888112306594849
						18:leaf=-0.0076824375428259372711
				12:[2_CVTE:DPROS.3<9.307483673095703125] yes=13,no=14,missing=13
					13:leaf=0.004539500456303358078
					14:leaf=-0.00045996429980732500553
		4:[8_CVTE:DCAPS.3<9.551082611083984375] yes=5,no=6,missing=5
			5:leaf=-0.00073652155697345733643
			6:[4_CVTE:RACE.3<9.5595645904541015625] yes=7,no=8,missing=7
				7:leaf=0.0002577123523224145174
				8:leaf=-0.010320319794118404388
booster[50]:
0:[6_RACE<0.5] yes=1,no=2,missing=1
	1:leaf=-0.018924785777926445007
	2:[1_CVTE:DCAPS.3<9.521411895751953125] yes=3,no=4,missing=3
		3:[3_CVTE:GLEASON.3<9.4550380706787109375] yes=5,no=6,missing=5
			5:[0_CVTE:CAPSULE.3<9.6127300262451171875] yes=7,no=8,missing=7
				7:leaf=-0.00025127790286205708981
				8:leaf=-0.0082469852641224861145
			6:[2_CVTE:DPROS.3<9.3800210952758789062] yes=13,no=14,missing=13
				13:[PSA<17.700000762939453125] yes=15,no=16,missing=15
					15:[12_TruncSVD:CAPSULE:DCAPS:VOL.6<0.037871863692998886108] yes=17,no=18,missing=17
						17:leaf=-0.0074295299127697944641
						18:[PSA<6.5] yes=25,no=26,missing=25
							25:leaf=0.0025014325510710477829
							26:leaf=-0.0018451280193403363228
					16:leaf=0.0035219867713749408722
				14:leaf=0.0028599586803466081619
		4:[VOL<4.5999999046325683594] yes=9,no=10,missing=9
			9:[13_InteractionAdd:CAPSULE:GLEASON.3<8.5] yes=11,no=12,missing=11
				11:[PSA<7.5] yes=19,no=20,missing=19
					19:[2_CVTE:DPROS.3<9.7367162704467773438] yes=21,no=22,missing=21
						21:leaf=-0.0072706989012658596039
						22:leaf=-0.00014309246034827083349
					20:[PSA<7.9000000953674316406] yes=23,no=24,missing=23
						23:leaf=0.0070127341896295547485
						24:leaf=-0.0014641616726294159889
				12:leaf=-0.010250823572278022766
			10:[13_InteractionAdd:CAPSULE:GLEASON.3<8.5] yes=27,no=28,missing=27
				27:[VOL<25] yes=29,no=30,missing=29
					29:leaf=0.00087390100816264748573
					30:leaf=-0.0025095732416957616806
				28:leaf=0.0041022570803761482239
booster[51]:
0:[6_RACE<0.5] yes=1,no=2,missing=1
	1:leaf=-0.018924785777926445007
	2:[3_CVTE:GLEASON.3<9.5476713180541992188] yes=3,no=4,missing=3
		3:[4_CVTE:RACE.3<9.5727252960205078125] yes=5,no=6,missing=5
			5:[3_CVTE:GLEASON.3<9.2134637832641601562] yes=15,no=16,missing=15
				15:[1_CVTE:DCAPS.3<9.4411172866821289062] yes=27,no=28,missing=27
					27:leaf=-0.0034379868302494287491
					28:leaf=0.0030034291557967662811
				16:leaf=-0.0019278964027762413025
			6:[8_CVTE:DCAPS.3<9.5127096176147460938] yes=7,no=8,missing=7
				7:[10_ClusterTE:ClusterID94:DCAPS:VOL.3<9.3652019500732421875] yes=29,no=30,missing=29
					29:leaf=-0.0063111963681876659393
					30:leaf=-0.00038465450052171945572
				8:[12_TruncSVD:CAPSULE:DCAPS:VOL.7<0.26865279674530029297] yes=9,no=10,missing=9
					9:leaf=0.0025404978077858686447
					10:leaf=-0.010862215422093868256
		4:[2_CVTE:DPROS.3<9.6769933700561523438] yes=11,no=12,missing=11
			11:[3_CVTE:GLEASON.3<9.7685461044311523438] yes=17,no=18,missing=17
				17:[PSA<23.100000381469726562] yes=19,no=20,missing=19
					19:[PSA<13.100000381469726562] yes=21,no=22,missing=21
						21:leaf=0.0012215243186801671982
						22:[12_TruncSVD:CAPSULE:DCAPS:VOL.7<1.2856909036636352539] yes=23,no=24,missing=23
							23:[2_CVTE:DPROS.3<9.3348255157470703125] yes=25,no=26,missing=25
								25:leaf=0.00042679786565713584423
								26:leaf=-0.0085783246904611587524
							24:leaf=0.0028917321469634771347
					20:leaf=0.0043663596734404563904
				18:leaf=-0.0033593396656215190887
			12:[PSA<20.700000762939453125] yes=13,no=14,missing=13
				13:leaf=0.0043229958973824977875
				14:leaf=-0.0009237432386726140976
booster[52]:
0:[6_RACE<0.5] yes=1,no=2,missing=1
	1:leaf=-0.01883016340434551239
	2:[VOL<38.59999847412109375] yes=3,no=4,missing=3
		3:[14_CVTE:CAPSULE:DCAPS.3<9.6855020523071289062] yes=5,no=6,missing=5
			5:[PSA<12.899999618530273438] yes=7,no=8,missing=7
				7:[PSA<7.5] yes=17,no=18,missing=17
					17:[PSA<7] yes=19,no=20,missing=19
						19:[1_CVTE:DCAPS.3<9.4411172866821289062] yes=23,no=24,missing=23
							23:[2_CVTE:DPROS.3<9.7395391464233398438] yes=29,no=30,missing=29
								29:leaf=-0.0042435079813003540039
								30:leaf=0.0040952125564217567444
							24:leaf=0.0013834633864462375641
						20:[0_CVTE:CAPSULE.3<9.5705242156982421875] yes=25,no=26,missing=25
							25:leaf=-0.007795519661158323288
							26:leaf=0.0010569714941084384918
					18:[12_TruncSVD:CAPSULE:DCAPS:VOL.7<0.35775256156921386719] yes=21,no=22,missing=21
						21:[1_CVTE:DCAPS.3<9.521411895751953125] yes=27,no=28,missing=27
							27:leaf=-0.0042029321193695068359
							28:leaf=0.0038309502415359020233
						22:leaf=0.0029669152572751045227
				8:[PSA<13.399999618530273438] yes=9,no=10,missing=9
					9:[0_CVTE:CAPSULE.3<9.5705242156982421875] yes=15,no=16,missing=15
						15:leaf=-0.0016368770739063620567
						16:leaf=-0.011968966573476791382
					10:[1_CVTE:DCAPS.3<9.521411895751953125] yes=11,no=12,missing=11
						11:leaf=0.00081851030699908733368
						12:[8_CVTE:DCAPS.3<9.551082611083984375] yes=13,no=14,missing=13
							13:leaf=-0.0042710718698799610138
							14:leaf=0.002069444628432393074
			6:leaf=-0.005988924764096736908
		4:leaf=0.002988629508763551712
booster[53]:
0:[6_RACE<0.5] yes=1,no=2,missing=1
	1:leaf=-0.01883016340434551239
	2:[14_CVTE:CAPSULE:DCAPS.3<9.6855020523071289062] yes=3,no=4,missing=3
		3:[10_ClusterTE:ClusterID94:DCAPS:VOL.3<9.4654083251953125] yes=5,no=6,missing=5
			5:[0_CVTE:CAPSULE.3<9.4686174392700195312] yes=7,no=8,missing=7
				7:[10_ClusterTE:ClusterID94:DCAPS:VOL.3<9.342006683349609375] yes=19,no=20,missing=19
					19:leaf=0.006350051146000623703
					20:[3_CVTE:GLEASON.3<9.4690723419189453125] yes=21,no=22,missing=21
						21:leaf=-0.0028208850417286157608
						22:leaf=0.0024679594207555055618
				8:[PSA<13] yes=9,no=10,missing=9
					9:[4_CVTE:RACE.3<9.5376873016357421875] yes=11,no=12,missing=11
						11:leaf=0.0035393559373915195465
						12:[2_CVTE:DPROS.3<9.3800210952758789062] yes=13,no=14,missing=13
							13:leaf=-0.0057436865754425525665
							14:[11_NumCatTE:CAPSULE:DCAPS.3<9.521389007568359375] yes=15,no=16,missing=15
								15:leaf=0.0030706573743373155594
								16:leaf=-0.0026561194099485874176
					10:[PSA<13.399999618530273438] yes=25,no=26,missing=25
						25:leaf=-0.010106341913342475891
						26:leaf=-0.0029351406265050172806
			6:[8_CVTE:DCAPS.3<9.4667644500732421875] yes=17,no=18,missing=17
				17:[4_CVTE:RACE.3<9.2124881744384765625] yes=23,no=24,missing=23
					23:leaf=-0.0020444816909730434418
					24:leaf=0.0040969112887978553772
				18:[2_CVTE:DPROS.3<9.49092864990234375] yes=27,no=28,missing=27
					27:leaf=-0.00050369009841233491898
					28:[4_CVTE:RACE.3<9.5595645904541015625] yes=29,no=30,missing=29
						29:leaf=-0.00064876390388235449791
						30:leaf=0.0034014936536550521851
		4:leaf=-0.0077736005187034606934
booster[54]:
0:[6_RACE<0.5] yes=1,no=2,missing=1
	1:leaf=-0.018736012279987335205
	2:[1_CVTE:DCAPS.3<9.5512294769287109375] yes=3,no=4,missing=3
		3:[2_CVTE:DPROS.3<9.6769933700561523438] yes=5,no=6,missing=5
			5:[2_CVTE:DPROS.3<9.49092864990234375] yes=7,no=8,missing=7
				7:[3_CVTE:GLEASON.3<9.744770050048828125] yes=29,no=30,missing=29
					29:leaf=0.00096453103469684720039
					30:leaf=-0.001727186376228928566
				8:[3_CVTE:GLEASON.3<9.3958368301391601562] yes=9,no=10,missing=9
					9:leaf=-0.0092652095481753349304
					10:[3_CVTE:GLEASON.3<9.74788665771484375] yes=11,no=12,missing=11
						11:leaf=0.0029789686668664216995
						12:leaf=-0.0052097570151090621948
			6:[3_CVTE:GLEASON.3<9.5908346176147460938] yes=25,no=26,missing=25
				25:leaf=5.0215883675264194608e-05
				26:[14_CVTE:CAPSULE:DCAPS.3<9.4400730133056640625] yes=27,no=28,missing=27
					27:leaf=-0.00019794669060502201319
					28:leaf=0.0043573016300797462463
		4:[11_NumCatTE:CAPSULE:DCAPS.3<9.485157012939453125] yes=13,no=14,missing=13
			13:[4_CVTE:RACE.3<9.5595645904541015625] yes=15,no=16,missing=15
				15:[14_CVTE:CAPSULE:DCAPS.3<9.4778461456298828125] yes=23,no=24,missing=23
					23:leaf=-0.0063165621832013130188
					24:leaf=-0.00035622596624307334423
				16:leaf=0.00219939439557492733
			14:[3_CVTE:GLEASON.3<9.744770050048828125] yes=17,no=18,missing=17
				17:[2_CVTE:DPROS.3<9.8428316116333007812] yes=19,no=20,missing=19
					19:[12_TruncSVD:CAPSULE:DCAPS:VOL.6<0.037871863692998886108] yes=21,no=22,missing=21
						21:leaf=0.00099661352578550577164
						22:leaf=-0.0088374996557831764221
					20:leaf=0.0034092187415808439255
				18:leaf=-0.0010687183821573853493
booster[55]:
0:[6_RACE<0.5] yes=1,no=2,missing=1
	1:leaf=-0.018736012279987335205
	2:[3_CVTE:GLEASON.3<9.4550380706787109375] yes=3,no=4,missing=3
		3:[12_TruncSVD:CAPSULE:DCAPS:VOL.7<0.79920625686645507812] yes=5,no=6,missing=5
			5:[PSA<1.7000000476837158203] yes=9,no=10,missing=9
				9:leaf=0.0063878404907882213593
				10:leaf=4.4116973185737151653e-06
			6:[2_CVTE:DPROS.3<9.3095941543579101562] yes=11,no=12,missing=11
				11:[8_CVTE:DCAPS.3<9.4667644500732421875] yes=15,no=16,missing=15
					15:leaf=0.0060503184795379638672
					16:leaf=-0.0023399372585117816925
				12:[1_CVTE:DCAPS.3<9.477985382080078125] yes=13,no=14,missing=13
					13:leaf=-0.00054122786968946456909
					14:leaf=-0.007285994943231344223
		4:[4_CVTE:RACE.3<9.5197210311889648438] yes=7,no=8,missing=7
			7:[13_InteractionAdd:CAPSULE:GLEASON.3<6.5] yes=17,no=18,missing=17
				17:leaf=0.0025760317221283912659
				18:[8_CVTE:DCAPS.3<9.551082611083984375] yes=23,no=24,missing=23
					23:leaf=-0.0052554104477167129517
					24:leaf=0.002169114304706454277
			8:[VOL<26.299999237060546875] yes=19,no=20,missing=19
				19:[2_CVTE:DPROS.3<9.3800210952758789062] yes=25,no=26,missing=25
					25:[12_TruncSVD:CAPSULE:DCAPS:VOL.6<0.037871863692998886108] yes=27,no=28,missing=27
						27:[PSA<18.100000381469726562] yes=29,no=30,missing=29
							29:leaf=-0.0079129058867692947388
							30:leaf=0.0016652476042509078979
						28:leaf=0.0010293530067428946495
					26:leaf=0.0021813160274177789688
				20:[3_CVTE:GLEASON.3<9.7797632217407226562] yes=21,no=22,missing=21
					21:leaf=0.0048855124041438102722
					22:leaf=-7.4590680014807730913e-05
booster[56]:
0:[6_RACE<0.5] yes=1,no=2,missing=1
	1:leaf=-0.018642332404851913452
	2:[3_CVTE:GLEASON.3<9.5476713180541992188] yes=3,no=4,missing=3
		3:[4_CVTE:RACE.3<9.5727252960205078125] yes=5,no=6,missing=5
			5:leaf=0.00025260358233936131001
			6:[12_TruncSVD:CAPSULE:DCAPS:VOL.7<0.24975775182247161865] yes=9,no=10,missing=9
				9:leaf=0.0025021927431225776672
				10:[PSA<2.7000000476837158203] yes=11,no=12,missing=11
					11:leaf=0.00052410125499591231346
					12:[2_CVTE:DPROS.3<9.3391332626342773438] yes=13,no=14,missing=13
						13:[0_CVTE:CAPSULE.3<9.4686174392700195312] yes=17,no=18,missing=17
							17:leaf=0.0045237303711473941803
							18:leaf=-0.0042719361372292041779
						14:[12_TruncSVD:CAPSULE:DCAPS:VOL.7<0.48249220848083496094] yes=29,no=30,missing=29
							29:leaf=-0.00066670257365331053734
							30:leaf=-0.010135923512279987335
		4:[2_CVTE:DPROS.3<9.6769933700561523438] yes=7,no=8,missing=7
			7:[3_CVTE:GLEASON.3<9.7430105209350585938] yes=15,no=16,missing=15
				15:[PSA<13.100000381469726562] yes=19,no=20,missing=19
					19:[10_ClusterTE:ClusterID94:DCAPS:VOL.3<9.5121393203735351562] yes=25,no=26,missing=25
						25:leaf=0.004367406945675611496
						26:leaf=-0.0017081478144973516464
					20:[10_ClusterTE:ClusterID94:DCAPS:VOL.3<9.5069370269775390625] yes=21,no=22,missing=21
						21:leaf=0.0024579800665378570557
						22:[2_CVTE:DPROS.3<9.3348255157470703125] yes=23,no=24,missing=23
							23:leaf=0.0026848374400287866592
							24:leaf=-0.0081119863316416740417
				16:leaf=-0.0011133641237393021584
			8:[4_CVTE:RACE.3<9.5595645904541015625] yes=27,no=28,missing=27
				27:leaf=0.00083860871382057666779
				28:leaf=0.0041085835546255111694
booster[57]:
0:[3_CVTE:GLEASON.3<9.5476713180541992188] yes=1,no=2,missing=1
	1:[8_CVTE:DCAPS.3<9.4667644500732421875] yes=5,no=6,missing=5
		5:leaf=0.0013884723884984850883
		6:[4_CVTE:RACE.3<9.5727252960205078125] yes=7,no=8,missing=7
			7:[3_CVTE:GLEASON.3<9.2833509445190429688] yes=29,no=30,missing=29
				29:leaf=0.00083958898903802037239
				30:leaf=-0.0026740895118564367294
			8:[2_CVTE:DPROS.3<9.3563251495361328125] yes=9,no=10,missing=9
				9:leaf=0.0010433602146804332733
				10:leaf=-0.0085164448246359825134
	2:[2_CVTE:DPROS.3<9.6769933700561523438] yes=3,no=4,missing=3
		3:[14_CVTE:CAPSULE:DCAPS.3<9.5938177108764648438] yes=13,no=14,missing=13
			13:[VOL<41.799999237060546875] yes=15,no=16,missing=15
				15:[8_CVTE:DCAPS.3<9.449573516845703125] yes=17,no=18,missing=17
					17:leaf=-0.0041818469762802124023
					18:[12_TruncSVD:CAPSULE:DCAPS:VOL.7<0.29835271835327148438] yes=19,no=20,missing=19
						19:leaf=-0.0061454307287931442261
						20:leaf=0.0013146820710971951485
				16:leaf=0.0062413541600108146667
			14:[8_CVTE:DCAPS.3<9.5127096176147460938] yes=21,no=22,missing=21
				21:[2_CVTE:DPROS.3<9.4060573577880859375] yes=23,no=24,missing=23
					23:leaf=-0.0033407297451049089432
					24:leaf=0.0041526183485984802246
				22:[0_CVTE:CAPSULE.3<9.5705242156982421875] yes=25,no=26,missing=25
					25:leaf=-0.0010864892974495887756
					26:[PSA<40.40000152587890625] yes=27,no=28,missing=27
						27:leaf=-0.011908280663192272186
						28:leaf=0.00095606327522546052933
		4:[PSA<20.399999618530273438] yes=11,no=12,missing=11
			11:leaf=0.0041438592597842216492
			12:leaf=0.00014385103713721036911
booster[58]:
0:[6_RACE<0.5] yes=1,no=2,missing=1
	1:leaf=-0.018589040264487266541
	2:[3_CVTE:GLEASON.3<9.547893524169921875] yes=3,no=4,missing=3
		3:[8_CVTE:DCAPS.3<9.4667644500732421875] yes=7,no=8,missing=7
			7:leaf=0.001693025464192032814
			8:[4_CVTE:RACE.3<9.5727252960205078125] yes=9,no=10,missing=9
				9:leaf=-0.00071549403946846723557
				10:[2_CVTE:DPROS.3<9.307483673095703125] yes=11,no=12,missing=11
					11:leaf=0.0017599629936739802361
					12:leaf=-0.0066272555850446224213
		4:[3_CVTE:GLEASON.3<9.7430105209350585938] yes=5,no=6,missing=5
			5:[4_CVTE:RACE.3<9.5595645904541015625] yes=29,no=30,missing=29
				29:leaf=8.9099645265378057957e-05
				30:leaf=0.0034851415548473596573
			6:[2_CVTE:DPROS.3<9.6769933700561523438] yes=13,no=14,missing=13
				13:[VOL<4.5999999046325683594] yes=17,no=18,missing=17
					17:[0_CVTE:CAPSULE.3<9.3965396881103515625] yes=21,no=22,missing=21
						21:leaf=0.0041945870034396648407
						22:[4_CVTE:RACE.3<9.5376873016357421875] yes=23,no=24,missing=23
							23:leaf=0.00044197763781994581223
							24:[1_CVTE:DCAPS.3<9.477985382080078125] yes=25,no=26,missing=25
								25:leaf=-0.010169941000640392303
								26:[1_CVTE:DCAPS.3<9.521411895751953125] yes=27,no=28,missing=27
									27:leaf=0.0017156724352389574051
									28:leaf=-0.0051743201911449432373
					18:[2_CVTE:DPROS.3<9.4060573577880859375] yes=19,no=20,missing=19
						19:leaf=0.0011521915439516305923
						20:leaf=-0.0054064719006419181824
				14:[PSA<63.299999237060546875] yes=15,no=16,missing=15
					15:leaf=0.0024353540502488613129
					16:leaf=-0.007170850411057472229
booster[59]:
0:[6_RACE<0.5] yes=1,no=2,missing=1
	1:leaf=-0.018589040264487266541
	2:[3_CVTE:GLEASON.3<9.5476713180541992188] yes=3,no=4,missing=3
		3:[8_CVTE:DCAPS.3<9.4667644500732421875] yes=7,no=8,missing=7
			7:[VOL<20.299999237060546875] yes=15,no=16,missing=15
				15:leaf=0.0040295314975082874298
				16:leaf=-0.0038674774114042520523
			8:[VOL<16.100000381469726562] yes=9,no=10,missing=9
				9:[1_CVTE:DCAPS.3<9.477985382080078125] yes=25,no=26,missing=25
					25:[VOL<11.5] yes=27,no=28,missing=27
						27:leaf=0.0012815450318157672882
						28:leaf=-0.0075509618036448955536
					26:leaf=-0.0057176435366272926331
				10:[11_NumCatTE:CAPSULE:DCAPS.3<9.5647649765014648438] yes=23,no=24,missing=23
					23:leaf=0.0013528328854590654373
					24:leaf=-0.0033588458318263292313
		4:[4_CVTE:RACE.3<9.5197210311889648438] yes=5,no=6,missing=5
			5:[PSA<14.300000190734863281] yes=13,no=14,missing=13
				13:leaf=0.0027096525300294160843
				14:[1_CVTE:DCAPS.3<9.521411895751953125] yes=17,no=18,missing=17
					17:leaf=-0.00042713232687674462795
					18:leaf=-0.0085945213213562965393
			6:[2_CVTE:DPROS.3<9.49092864990234375] yes=11,no=12,missing=11
				11:[9_CVCatNumEnc:CAPSULE:DCAPS:RACE.amin.0<0.5] yes=19,no=20,missing=19
					19:[10_ClusterTE:ClusterID94:DCAPS:VOL.3<9.5069370269775390625] yes=21,no=22,missing=21
						21:leaf=-0.0052280402742326259613
						22:[VOL<27] yes=29,no=30,missing=29
							29:leaf=0.0030321951489895582199
							30:leaf=-0.005737933330237865448
					20:leaf=0.0016367603093385696411
				12:leaf=0.0032661168370395898819
booster[60]:
0:[6_RACE<0.5] yes=1,no=2,missing=1
	1:leaf=-0.018496096134185791016
	2:[1_CVTE:DCAPS.3<9.51831817626953125] yes=3,no=4,missing=3
		3:[10_ClusterTE:ClusterID94:DCAPS:VOL.3<9.3652019500732421875] yes=5,no=6,missing=5
			5:leaf=0.0050724702887237071991
			6:[10_ClusterTE:ClusterID94:DCAPS:VOL.3<9.384166717529296875] yes=7,no=8,missing=7
				7:[0_CVTE:CAPSULE.3<9.5705242156982421875] yes=9,no=10,missing=9
					9:leaf=-0.00022877729497849941254
					10:leaf=-0.0094493133947253227234
				8:[2_CVTE:DPROS.3<9.3391332626342773438] yes=11,no=12,missing=11
					11:[3_CVTE:GLEASON.3<9.744770050048828125] yes=19,no=20,missing=19
						19:leaf=0.0010210894979536533356
						20:leaf=-0.0043157930485904216766
					12:[8_CVTE:DCAPS.3<9.5127096176147460938] yes=13,no=14,missing=13
						13:[3_CVTE:GLEASON.3<9.3089017868041992188] yes=21,no=22,missing=21
							21:[10_ClusterTE:ClusterID94:DCAPS:VOL.3<9.5069370269775390625] yes=23,no=24,missing=23
								23:leaf=0.0041617066599428653717
								24:leaf=-0.0024572289548814296722
							22:[14_CVTE:CAPSULE:DCAPS.3<9.3952131271362304688] yes=25,no=26,missing=25
								25:leaf=-0.0011753726284950971603
								26:leaf=0.0054889624007046222687
						14:[PSA<6.8000001907348632812] yes=15,no=16,missing=15
							15:leaf=0.0060230521485209465027
							16:[PSA<17.200000762939453125] yes=17,no=18,missing=17
								17:leaf=-0.0061519150622189044952
								18:leaf=0.0012339968234300613403
		4:[9_CVCatNumEnc:CAPSULE:DCAPS:PSA.amin.3<4.4499998092651367188] yes=27,no=28,missing=27
