Version 0.1.0
num_output_group: 1
base_margin: 8.6563777923583984375

booster[0]:
0:[0_CVTE:CAPSULE.2<8.6646575927734375] yes=1,no=2,missing=1
	1:[2_CVTE:DPROS.2<8.636260986328125] yes=3,no=4,missing=3
		3:[2_CVTE:DPROS.2<8.3061208724975585938] yes=7,no=8,missing=7
			7:[0_CVTE:CAPSULE.2<8.5991725921630859375] yes=15,no=16,missing=15
				15:leaf=0.0025033480487763881683
				16:leaf=0.0083328904584050178528
			8:[4_CVTE:RACE.2<8.6727838516235351562] yes=17,no=18,missing=17
				17:leaf=-0.0012621756177395582199
				18:leaf=-0.0089279022067785263062
		4:[12_TruncSVD:CAPSULE:DCAPS:VOL.5<-0.26601630449295043945] yes=9,no=10,missing=9
			9:[8_CVTE:DCAPS.2<8.649066925048828125] yes=19,no=20,missing=19
				19:leaf=0.0011500739492475986481
				20:leaf=-0.0063918041996657848358
			10:[12_TruncSVD:CAPSULE:DCAPS:VOL.5<0.46407845616340637207] yes=21,no=22,missing=21
				21:leaf=0.0068386262282729148865
				22:leaf=0.0027273963205516338348
	2:[3_CVTE:GLEASON.2<8.5928440093994140625] yes=5,no=6,missing=5
		5:[3_CVTE:GLEASON.2<8.439586639404296875] yes=11,no=12,missing=11
			11:[10_ClusterTE:ClusterID94:DCAPS:VOL.2<8.6113796234130859375] yes=23,no=24,missing=23
				23:leaf=0.00065063318470492959023
				24:leaf=-0.0045367348939180374146
			12:[14_CVTE:CAPSULE:DCAPS.2<8.6482982635498046875] yes=25,no=26,missing=25
				25:leaf=-0.01220371294766664505
				26:leaf=-0.0023852372542023658752
		6:[10_ClusterTE:ClusterID94:DCAPS:VOL.2<8.655902862548828125] yes=13,no=14,missing=13
			13:[3_CVTE:GLEASON.2<8.816192626953125] yes=27,no=28,missing=27
				27:leaf=0.0024452642537653446198
				28:leaf=-0.0040675508789718151093
			14:[3_CVTE:GLEASON.2<8.8150768280029296875] yes=29,no=30,missing=29
				29:leaf=-0.0019646889995783567429
				30:leaf=0.0040832925587892532349
booster[1]:
0:[3_CVTE:GLEASON.2<8.5928440093994140625] yes=1,no=2,missing=1
	1:[0_CVTE:CAPSULE.2<8.65424346923828125] yes=3,no=4,missing=3
		3:[3_CVTE:GLEASON.2<8.245208740234375] yes=7,no=8,missing=7
			7:[PSA<4.9000000953674316406] yes=15,no=16,missing=15
				15:leaf=-0.00028780140564776957035
				16:leaf=0.006119219120591878891
			8:[10_ClusterTE:ClusterID94:DCAPS:VOL.2<8.6563673019409179688] yes=17,no=18,missing=17
				17:leaf=-0.0030721509829163551331
				18:leaf=0.0018534304108470678329
		4:[3_CVTE:GLEASON.2<8.439586639404296875] yes=9,no=10,missing=9
			9:[12_TruncSVD:CAPSULE:DCAPS:VOL.4<0.064516946673393249512] yes=19,no=20,missing=19
				19:leaf=0.0018039976712316274643
				20:leaf=-0.0049721961840987205505
			10:[PSA<3.7000000476837158203] yes=21,no=22,missing=21
				21:leaf=-0.0040644234977662563324
				22:leaf=-0.013102209195494651794
	2:[2_CVTE:DPROS.2<8.6085252761840820312] yes=5,no=6,missing=5
		5:[2_CVTE:DPROS.2<8.4407405853271484375] yes=11,no=12,missing=11
			11:[12_TruncSVD:CAPSULE:DCAPS:VOL.5<1.3508353233337402344] yes=23,no=24,missing=23
				23:leaf=0.00093436584575101733208
				24:leaf=0.0064199808984994888306
			12:[PSA<7.9000000953674316406] yes=25,no=26,missing=25
				25:leaf=-0.0079500032588839530945
				26:leaf=-0.0014659368898719549179
		6:[8_CVTE:DCAPS.2<8.649066925048828125] yes=13,no=14,missing=13
			13:[2_CVTE:DPROS.2<9.0914049148559570312] yes=27,no=28,missing=27
				27:leaf=0.0046288454905152320862
				28:leaf=-0.0035196649841964244843
			14:[12_TruncSVD:CAPSULE:DCAPS:VOL.5<0.72421860694885253906] yes=29,no=30,missing=29
				29:leaf=-0.005837626289576292038
				30:leaf=0.004378590267151594162
booster[2]:
0:[0_CVTE:CAPSULE.2<8.72168731689453125] yes=1,no=2,missing=1
	1:[3_CVTE:GLEASON.2<8.5928440093994140625] yes=3,no=4,missing=3
		3:[0_CVTE:CAPSULE.2<8.65424346923828125] yes=7,no=8,missing=7
			7:[1_CVTE:DCAPS.2<8.6377277374267578125] yes=15,no=16,missing=15
				15:leaf=0.0037185384426265954971
				16:leaf=-0.00076544238254427909851
			8:[10_ClusterTE:ClusterID94:DCAPS:VOL.2<8.5186624526977539062] yes=17,no=18,missing=17
				17:leaf=0.0039134393446147441864
				18:leaf=-0.0052721262909471988678
		4:[2_CVTE:DPROS.2<8.70258331298828125] yes=9,no=10,missing=9
			9:[2_CVTE:DPROS.2<8.4407405853271484375] yes=19,no=20,missing=19
				19:leaf=0.0036298953928053379059
				20:leaf=-0.00083557417383417487144
			10:[8_CVTE:DCAPS.2<8.649066925048828125] yes=21,no=22,missing=21
				21:leaf=0.0052051544189453125
				22:leaf=0.0010741327423602342606
	2:[3_CVTE:GLEASON.2<8.5928440093994140625] yes=5,no=6,missing=5
		5:[11_NumCatTE:CAPSULE:DCAPS.2<8.642391204833984375] yes=11,no=12,missing=11
			11:[10_ClusterTE:ClusterID94:DCAPS:VOL.2<8.6745243072509765625] yes=23,no=24,missing=23
				23:leaf=0.0031256976071745157242
				24:leaf=-0.0062818997539579868317
			12:[8_CVTE:DCAPS.2<8.649066925048828125] yes=25,no=26,missing=25
				25:leaf=-0.011896169744431972504
				26:leaf=-0.001349390251561999321
		6:[10_ClusterTE:ClusterID94:DCAPS:VOL.2<8.655902862548828125] yes=13,no=14,missing=13
			13:[10_ClusterTE:ClusterID94:DCAPS:VOL.2<8.5186624526977539062] yes=27,no=28,missing=27
				27:leaf=0.0012921749148517847061
				28:leaf=-0.0077034244313836097717
			14:[14_CVTE:CAPSULE:DCAPS.2<8.6141576766967773438] yes=29,no=30,missing=29
				29:leaf=-0.0021521779708564281464
				30:leaf=0.0041835275478661060333
booster[3]:
0:[3_CVTE:GLEASON.2<8.5928440093994140625] yes=1,no=2,missing=1
	1:[3_CVTE:GLEASON.2<8.3749132156372070312] yes=3,no=4,missing=3
		3:[2_CVTE:DPROS.2<8.98834228515625] yes=7,no=8,missing=7
			7:[14_CVTE:CAPSULE:DCAPS.2<8.59905242919921875] yes=15,no=16,missing=15
				15:leaf=-0.003374614054337143898
				16:leaf=0.0029271964449435472488
			8:[0_CVTE:CAPSULE.2<8.5312957763671875] yes=17,no=18,missing=17
				17:leaf=0.00042139846482314169407
				18:leaf=-0.0071853282861411571503
		4:[10_ClusterTE:ClusterID94:DCAPS:VOL.2<8.4513072967529296875] yes=9,no=10,missing=9
			9:leaf=-0.019762290641665458679
			10:[12_TruncSVD:CAPSULE:DCAPS:VOL.5<-0.23007845878601074219] yes=19,no=20,missing=19
				19:leaf=0.0066365459933876991272
				20:leaf=-0.0047835735604166984558
	2:[2_CVTE:DPROS.2<8.70258331298828125] yes=5,no=6,missing=5
		5:[2_CVTE:DPROS.2<8.4407405853271484375] yes=11,no=12,missing=11
			11:[12_TruncSVD:CAPSULE:DCAPS:VOL.4<0.03668931126594543457] yes=21,no=22,missing=21
				21:leaf=-0.0025578718632459640503
				22:leaf=0.0043204352259635925293
			12:[10_ClusterTE:ClusterID94:DCAPS:VOL.2<8.65728759765625] yes=23,no=24,missing=23
				23:leaf=-0.0027919532731175422668
				24:leaf=0.0039992863312363624573
		6:[9_CVCatNumEnc:CAPSULE:DCAPS:PSA.amin.2<1.6499999761581420898] yes=13,no=14,missing=13
			13:[11_NumCatTE:CAPSULE:DCAPS.2<8.697185516357421875] yes=25,no=26,missing=25
				25:leaf=0.0031759187113493680954
				26:leaf=-0.002077070530503988266
			14:[PSA<37.700000762939453125] yes=27,no=28,missing=27
				27:leaf=0.0079394197091460227966
				28:leaf=0.0024506186600774526596
booster[4]:
0:[3_CVTE:GLEASON.2<8.5928440093994140625] yes=1,no=2,missing=1
	1:[0_CVTE:CAPSULE.2<8.65424346923828125] yes=3,no=4,missing=3
		3:[3_CVTE:GLEASON.2<8.439586639404296875] yes=7,no=8,missing=7
			7:[VOL<43] yes=15,no=16,missing=15
				15:leaf=0.0043492601253092288971
				16:leaf=-0.0026453079190105199814
			8:[2_CVTE:DPROS.2<8.636260986328125] yes=17,no=18,missing=17
				17:leaf=-0.00270983879454433918
				18:leaf=0.0027701710350811481476
		4:[3_CVTE:GLEASON.2<8.439586639404296875] yes=9,no=10,missing=9
			9:[1_CVTE:DCAPS.2<8.6377277374267578125] yes=19,no=20,missing=19
				19:leaf=-0.00050609331810846924782
				20:leaf=-0.0055452422238886356354
			10:[2_CVTE:DPROS.2<8.8030233383178710938] yes=21,no=22,missing=21
				21:leaf=-0.012609057128429412842
				22:leaf=-0.0033846795558929443359
	2:[2_CVTE:DPROS.2<8.70258331298828125] yes=5,no=6,missing=5
		5:[2_CVTE:DPROS.2<8.4407405853271484375] yes=11,no=12,missing=11
			11:[14_CVTE:CAPSULE:DCAPS.2<8.5992860794067382812] yes=23,no=24,missing=23
				23:leaf=0.0014941083500161767006
				24:leaf=0.0048756198957562446594
			12:[3_CVTE:GLEASON.2<9.3637952804565429688] yes=25,no=26,missing=25
				25:leaf=0.00020405225222930312157
				26:leaf=-0.0073798182420432567596
		6:[3_CVTE:GLEASON.2<8.8150768280029296875] yes=13,no=14,missing=13
			13:[12_TruncSVD:CAPSULE:DCAPS:VOL.5<0.74721372127532958984] yes=27,no=28,missing=27
				27:leaf=-0.0031333090737462043762
				28:leaf=0.0044533987529575824738
			14:[2_CVTE:DPROS.2<9.0914049148559570312] yes=29,no=30,missing=29
				29:leaf=0.0054439925588667392731
				30:leaf=5.1307146350154653192e-05
booster[5]:
0:[3_CVTE:GLEASON.2<8.5928440093994140625] yes=1,no=2,missing=1
	1:[0_CVTE:CAPSULE.2<8.6646575927734375] yes=3,no=4,missing=3
		3:[3_CVTE:GLEASON.2<8.3749132156372070312] yes=7,no=8,missing=7
			7:[14_CVTE:CAPSULE:DCAPS.2<8.59905242919921875] yes=15,no=16,missing=15
				15:leaf=-0.0036829637829214334488
				16:leaf=0.0049063405022025108337
			8:[VOL<40] yes=17,no=18,missing=17
				17:leaf=-0.002780474955216050148
				18:leaf=0.0046007586643099784851
		4:[3_CVTE:GLEASON.2<8.439586639404296875] yes=9,no=10,missing=9
			9:[10_ClusterTE:ClusterID94:DCAPS:VOL.2<8.6463346481323242188] yes=19,no=20,missing=19
				19:leaf=0.00087160326074808835983
				20:leaf=-0.0047716507688164710999
			10:[11_NumCatTE:CAPSULE:DCAPS.2<8.642391204833984375] yes=21,no=22,missing=21
				21:leaf=0.0030874204821884632111
				22:leaf=-0.012760002166032791138
	2:[PSA<2] yes=5,no=6,missing=5
		5:[2_CVTE:DPROS.2<8.5926685333251953125] yes=11,no=12,missing=11
			11:leaf=-0.011933740228414535522
			12:[0_CVTE:CAPSULE.2<8.6828470230102539062] yes=23,no=24,missing=23
				23:leaf=0.0020252871327102184296
				24:leaf=-0.0014465642161667346954
		6:[VOL<47] yes=13,no=14,missing=13
			13:[2_CVTE:DPROS.2<8.636260986328125] yes=25,no=26,missing=25
				25:leaf=0.0001398229942424222827
				26:leaf=0.0033105092588812112808
			14:[14_CVTE:CAPSULE:DCAPS.2<8.6482982635498046875] yes=27,no=28,missing=27
				27:leaf=0.0082010217010974884033
				28:leaf=0.0033843873534351587296
booster[6]:
0:[3_CVTE:GLEASON.2<8.5928440093994140625] yes=1,no=2,missing=1
	1:[3_CVTE:GLEASON.2<8.439586639404296875] yes=3,no=4,missing=3
		3:[0_CVTE:CAPSULE.2<8.65424346923828125] yes=7,no=8,missing=7
			7:[14_CVTE:CAPSULE:DCAPS.2<8.59905242919921875] yes=15,no=16,missing=15
				15:leaf=-0.0027800777461379766464
				16:leaf=0.00398574071004986763
			8:[10_ClusterTE:ClusterID94:DCAPS:VOL.2<8.6463346481323242188] yes=17,no=18,missing=17
				17:leaf=0.0025196734350174665451
				18:leaf=-0.0043190596625208854675
		4:[0_CVTE:CAPSULE.2<8.65424346923828125] yes=9,no=10,missing=9
			9:[12_TruncSVD:CAPSULE:DCAPS:VOL.5<-0.23007845878601074219] yes=19,no=20,missing=19
				19:leaf=0.0065940665081143379211
				20:leaf=-0.0032938965596258640289
			10:[12_TruncSVD:CAPSULE:DCAPS:VOL.4<29.9239349365234375] yes=21,no=22,missing=21
				21:leaf=-0.012591999024152755737
				22:leaf=0.00095894013065844774246
	2:[PSA<2] yes=5,no=6,missing=5
		5:[3_CVTE:GLEASON.2<8.6823530197143554688] yes=11,no=12,missing=11
			11:[8_CVTE:DCAPS.2<8.6255674362182617188] yes=23,no=24,missing=23
				23:leaf=-0.0011021279497072100639
				24:leaf=0.0039911982603371143341
			12:[1_CVTE:DCAPS.2<8.6377277374267578125] yes=25,no=26,missing=25
				25:leaf=-0.010929891839623451233
				26:leaf=-0.0026466606650501489639
		6:[11_NumCatTE:CAPSULE:DCAPS.2<8.72891998291015625] yes=13,no=14,missing=13
			13:[PSA<21.600000381469726562] yes=27,no=28,missing=27
				27:leaf=0.00086115510202944278717
				28:leaf=0.0041317557916045188904
			14:[2_CVTE:DPROS.2<8.636260986328125] yes=29,no=30,missing=29
				29:leaf=-0.0056936633773148059845
				30:leaf=0.0010852959239855408669
booster[7]:
0:[3_CVTE:GLEASON.2<8.5928440093994140625] yes=1,no=2,missing=1
	1:[0_CVTE:CAPSULE.2<8.65424346923828125] yes=3,no=4,missing=3
		3:[3_CVTE:GLEASON.2<8.245208740234375] yes=7,no=8,missing=7
			7:[2_CVTE:DPROS.2<9.0089178085327148438] yes=15,no=16,missing=15
				15:leaf=0.0061644241213798522949
				16:leaf=-0.001918821246363222599
			8:[10_ClusterTE:ClusterID94:DCAPS:VOL.2<8.6563673019409179688] yes=17,no=18,missing=17
				17:leaf=-0.002639768645167350769
				18:leaf=0.0021567039657384157181
		4:[3_CVTE:GLEASON.2<8.439586639404296875] yes=9,no=10,missing=9
			9:[10_ClusterTE:ClusterID94:DCAPS:VOL.2<8.6463346481323242188] yes=19,no=20,missing=19
				19:leaf=0.0016963268863037228584
				20:leaf=-0.0044845798984169960022
			10:[12_TruncSVD:CAPSULE:DCAPS:VOL.4<29.9239349365234375] yes=21,no=22,missing=21
				21:leaf=-0.0125469183549284935
				22:leaf=-0.00022586225531995296478
	2:[11_NumCatTE:CAPSULE:DCAPS.2<8.72891998291015625] yes=5,no=6,missing=5
		5:[PSA<25.100000381469726562] yes=11,no=12,missing=11
			11:[2_CVTE:DPROS.2<8.70258331298828125] yes=23,no=24,missing=23
				23:leaf=-0.00012844400771427899599
				24:leaf=0.0033135409466922283173
			12:[12_TruncSVD:CAPSULE:DCAPS:VOL.4<0.064516946673393249512] yes=25,no=26,missing=25
				25:leaf=0.0019695656374096870422
				26:leaf=0.0070586153306066989899
		6:[8_CVTE:DCAPS.2<8.595806121826171875] yes=13,no=14,missing=13
			13:[1_CVTE:DCAPS.2<8.6377277374267578125] yes=27,no=28,missing=27
				27:leaf=0.0046890461817383766174
				28:leaf=-0.00084640737622976303101
			14:[2_CVTE:DPROS.2<8.9520082473754882812] yes=29,no=30,missing=29
				29:leaf=-0.005219416692852973938
				30:leaf=0.0026168168988078832626
booster[8]:
0:[3_CVTE:GLEASON.2<8.5928440093994140625] yes=1,no=2,missing=1
	1:[0_CVTE:CAPSULE.2<8.65424346923828125] yes=3,no=4,missing=3
		3:[10_ClusterTE:ClusterID94:DCAPS:VOL.2<8.6563673019409179688] yes=7,no=8,missing=7
			7:[2_CVTE:DPROS.2<8.4311084747314453125] yes=15,no=16,missing=15
				15:leaf=0.005356485024094581604
				16:leaf=-0.0030055176466703414917
			8:[12_TruncSVD:CAPSULE:DCAPS:VOL.5<0.25281885266304016113] yes=17,no=18,missing=17
				17:leaf=-0.0016233742935582995415
				18:leaf=0.0041365157812833786011
		4:[3_CVTE:GLEASON.2<8.439586639404296875] yes=9,no=10,missing=9
			9:[10_ClusterTE:ClusterID94:DCAPS:VOL.2<8.6463346481323242188] yes=19,no=20,missing=19
				19:leaf=0.0016768675995990633965
				20:leaf=-0.0050339321605861186981
			10:[PSA<3.7000000476837158203] yes=21,no=22,missing=21
				21:leaf=0.00019031405099667608738
				22:leaf=-0.013931146822869777679
	2:[2_CVTE:DPROS.2<8.70258331298828125] yes=5,no=6,missing=5
		5:[PSA<21.600000381469726562] yes=11,no=12,missing=11
			11:[3_CVTE:GLEASON.2<8.816192626953125] yes=23,no=24,missing=23
				23:leaf=0.0028449650853872299194
				24:leaf=-0.0026042978279292583466
			12:[11_NumCatTE:CAPSULE:DCAPS.2<8.72891998291015625] yes=25,no=26,missing=25
				25:leaf=0.0058190128766000270844
				26:leaf=-0.0047529083676636219025
		6:[3_CVTE:GLEASON.2<8.7020854949951171875] yes=13,no=14,missing=13
			13:[VOL<16.399999618530273438] yes=27,no=28,missing=27
				27:leaf=0.0041727344505488872528
				28:leaf=-0.0039083068259060382843
			14:[2_CVTE:DPROS.2<9.0914049148559570312] yes=29,no=30,missing=29
				29:leaf=0.0050798379816114902496
				30:leaf=-0.00020561635028570890427
booster[9]:
0:[3_CVTE:GLEASON.2<8.5928440093994140625] yes=1,no=2,missing=1
	1:[0_CVTE:CAPSULE.2<8.5991725921630859375] yes=3,no=4,missing=3
		3:[12_TruncSVD:CAPSULE:DCAPS:VOL.4<0.055655267089605331421] yes=7,no=8,missing=7
			7:[2_CVTE:DPROS.2<9.0914049148559570312] yes=15,no=16,missing=15
				15:leaf=-0.0019627213478088378906
				16:leaf=0.0015790731413289904594
			8:[PSA<8.3999996185302734375] yes=17,no=18,missing=17
				17:leaf=0.007534025236964225769
				18:leaf=0.0029799677431583404541
		4:[3_CVTE:GLEASON.2<8.439586639404296875] yes=9,no=10,missing=9
			9:[1_CVTE:DCAPS.2<8.6806211471557617188] yes=19,no=20,missing=19
				19:leaf=0.00097903853747993707657
				20:leaf=-0.0053834966383874416351
			10:[0_CVTE:CAPSULE.2<8.7773876190185546875] yes=21,no=22,missing=21
				21:leaf=-0.0063122427091002464294
				22:leaf=-0.017443133518099784851
	2:[1_CVTE:DCAPS.2<8.5940799713134765625] yes=5,no=6,missing=5
		5:[VOL<29.100000381469726562] yes=11,no=12,missing=11
			11:[2_CVTE:DPROS.2<8.8852872848510742188] yes=23,no=24,missing=23
				23:leaf=0.0011518104001879692078
				24:leaf=0.0052291285246610641479
			12:[2_CVTE:DPROS.2<8.8852872848510742188] yes=25,no=26,missing=25
				25:leaf=0.0084126116707921028137
				26:leaf=0.0018346452852711081505
		6:[13_InteractionAdd:CAPSULE:GLEASON.2<5.5] yes=13,no=14,missing=13
			13:[14_CVTE:CAPSULE:DCAPS.2<8.792705535888671875] yes=27,no=28,missing=27
				27:leaf=-2.8469146855059079826e-05
				28:leaf=-0.010617630556225776672
			14:[6_RACE<1.5] yes=29,no=30,missing=29
				29:leaf=0.0028233304619789123535
				30:leaf=-0.0037829875946044921875
booster[10]:
0:[12_TruncSVD:CAPSULE:DCAPS:VOL.5<-0.23007845878601074219] yes=1,no=2,missing=1
	1:[8_CVTE:DCAPS.2<8.649066925048828125] yes=3,no=4,missing=3
		3:[2_CVTE:DPROS.2<8.8030233383178710938] yes=7,no=8,missing=7
			7:leaf=0.007431325037032365799
			8:[4_CVTE:RACE.2<8.6618404388427734375] yes=15,no=16,missing=15
				15:leaf=0.00039849118911661207676
				16:leaf=0.0055600614286959171295
		4:[4_CVTE:RACE.2<8.6618404388427734375] yes=9,no=10,missing=9
			9:leaf=0.003983799368143081665
			10:[0_CVTE:CAPSULE.2<8.6646575927734375] yes=17,no=18,missing=17
				17:leaf=-0.0040360973216593265533
				18:leaf=-0.00013293266238179057837
	2:[0_CVTE:CAPSULE.2<8.6646575927734375] yes=5,no=6,missing=5
		5:[2_CVTE:DPROS.2<8.70258331298828125] yes=11,no=12,missing=11
			11:[2_CVTE:DPROS.2<8.4407405853271484375] yes=19,no=20,missing=19
				19:leaf=0.003102632937952876091
				20:leaf=-0.0023054338525980710983
			12:[2_CVTE:DPROS.2<8.8950328826904296875] yes=21,no=22,missing=21
				21:leaf=0.0059695681557059288025
				22:leaf=0.0024823688436299562454
		6:[3_CVTE:GLEASON.2<8.5928440093994140625] yes=13,no=14,missing=13
			13:[3_CVTE:GLEASON.2<8.258831024169921875] yes=23,no=24,missing=23
				23:leaf=-0.0012483298778533935547
				24:leaf=-0.0084463525563478469849
			14:[1_CVTE:DCAPS.2<8.5940799713134765625] yes=25,no=26,missing=25
				25:leaf=0.0027924515306949615479
				26:leaf=-0.00080331688513979315758
booster[11]:
0:[3_CVTE:GLEASON.2<8.5928440093994140625] yes=1,no=2,missing=1
	1:[3_CVTE:GLEASON.2<8.3749132156372070312] yes=3,no=4,missing=3
		3:[PSA<4.9000000953674316406] yes=7,no=8,missing=7
			7:[0_CVTE:CAPSULE.2<8.5312957763671875] yes=15,no=16,missing=15
				15:leaf=0.0017710649408400058746
				16:leaf=-0.006996653042733669281
			8:[PSA<8.1999998092651367188] yes=17,no=18,missing=17
				17:leaf=0.0030172546394169330597
				18:leaf=-0.00089906394714489579201
		4:[0_CVTE:CAPSULE.2<8.65424346923828125] yes=9,no=10,missing=9
			9:[2_CVTE:DPROS.2<8.636260986328125] yes=19,no=20,missing=19
				19:leaf=-0.0056671295315027236938
				20:leaf=0.0007470941636711359024
			10:[11_NumCatTE:CAPSULE:DCAPS.2<8.6653881072998046875] yes=21,no=22,missing=21
				21:leaf=-0.0064600841142237186432
				22:leaf=-0.016922216862440109253
	2:[11_NumCatTE:CAPSULE:DCAPS.2<8.72891998291015625] yes=5,no=6,missing=5
		5:[PSA<2] yes=11,no=12,missing=11
			11:[14_CVTE:CAPSULE:DCAPS.2<8.792705535888671875] yes=23,no=24,missing=23
				23:leaf=-0.00066702708136290311813
				24:leaf=-0.011833323165774345398
			12:[VOL<44.200000762939453125] yes=25,no=26,missing=25
				25:leaf=0.0013921072240918874741
				26:leaf=0.0059120212681591510773
		6:[14_CVTE:CAPSULE:DCAPS.2<8.5919513702392578125] yes=13,no=14,missing=13
			13:[4_CVTE:RACE.2<8.6618404388427734375] yes=27,no=28,missing=27
				27:leaf=0.0029443588573485612869
				28:leaf=-0.0037145866081118583679
			14:[10_ClusterTE:ClusterID94:DCAPS:VOL.2<8.655902862548828125] yes=29,no=30,missing=29
				29:leaf=-0.01013940759003162384
				30:leaf=-0.0017345587257295846939
booster[12]:
0:[3_CVTE:GLEASON.2<8.5928440093994140625] yes=1,no=2,missing=1
	1:[0_CVTE:CAPSULE.2<8.65424346923828125] yes=3,no=4,missing=3
		3:[14_CVTE:CAPSULE:DCAPS.2<8.59905242919921875] yes=7,no=8,missing=7
			7:[14_CVTE:CAPSULE:DCAPS.2<8.506793975830078125] yes=15,no=16,missing=15
				15:leaf=0.0033195908181369304657
				16:leaf=-0.0050464705564081668854
			8:[14_CVTE:CAPSULE:DCAPS.2<8.6332073211669921875] yes=17,no=18,missing=17
				17:leaf=0.006328539922833442688
				18:leaf=0.0015112115070223808289
		4:[10_ClusterTE:ClusterID94:DCAPS:VOL.2<8.4513072967529296875] yes=9,no=10,missing=9
			9:leaf=-0.019386401399970054626
			10:[12_TruncSVD:CAPSULE:DCAPS:VOL.5<-0.067683465778827667236] yes=19,no=20,missing=19
				19:leaf=0.0015038006240501999855
				20:leaf=-0.0053661260753870010376
	2:[11_NumCatTE:CAPSULE:DCAPS.2<8.72891998291015625] yes=5,no=6,missing=5
		5:[PSA<2] yes=11,no=12,missing=11
			11:[3_CVTE:GLEASON.2<8.6823530197143554688] yes=21,no=22,missing=21
				21:leaf=0.0024953125976026058197
				22:leaf=-0.0097312219440937042236
			12:[PSA<25.100000381469726562] yes=23,no=24,missing=23
				23:leaf=0.0018879396375268697739
				24:leaf=0.0061421445570886135101
		6:[3_CVTE:GLEASON.2<8.8988170623779296875] yes=13,no=14,missing=13
			13:[VOL<24.600000381469726562] yes=25,no=26,missing=25
				25:leaf=0.0028480060864239931107
				26:leaf=-0.0027052473742514848709
			14:[2_CVTE:DPROS.2<8.4407405853271484375] yes=27,no=28,missing=27
				27:leaf=0.0030225801747292280197
				28:leaf=-0.0068721603602170944214
booster[13]:
0:[3_CVTE:GLEASON.2<8.5928440093994140625] yes=1,no=2,missing=1
	1:[3_CVTE:GLEASON.2<8.245208740234375] yes=3,no=4,missing=3
		3:[14_CVTE:CAPSULE:DCAPS.2<8.6482982635498046875] yes=7,no=8,missing=7
			7:[2_CVTE:DPROS.2<9.0089178085327148438] yes=15,no=16,missing=15
				15:leaf=0.0049291527830064296722
				16:leaf=-0.0022450312972068786621
			8:[12_TruncSVD:CAPSULE:DCAPS:VOL.5<1.7674784660339355469] yes=17,no=18,missing=17
				17:leaf=-0.00054882239783182740211
				18:leaf=-0.0079219220206141471863
		4:[0_CVTE:CAPSULE.2<8.65424346923828125] yes=9,no=10,missing=9
			9:[10_ClusterTE:ClusterID94:DCAPS:VOL.2<8.6563673019409179688] yes=19,no=20,missing=19
				19:leaf=-0.0038327521178871393204
				20:leaf=0.0018926226766780018806
			10:[11_NumCatTE:CAPSULE:DCAPS.2<8.6653881072998046875] yes=21,no=22,missing=21
				21:leaf=-0.0041797216981649398804
				22:leaf=-0.013477872125804424286
	2:[PSA<2] yes=5,no=6,missing=5
		5:[14_CVTE:CAPSULE:DCAPS.2<8.792705535888671875] yes=11,no=12,missing=11
			11:[4_CVTE:RACE.2<8.6618404388427734375] yes=23,no=24,missing=23
				23:leaf=0.0039966502226889133453
				24:leaf=-0.0040511572733521461487
			12:leaf=-0.011794690042734146118
		6:[11_NumCatTE:CAPSULE:DCAPS.2<8.72891998291015625] yes=13,no=14,missing=13
			13:[2_CVTE:DPROS.2<9.0914049148559570312] yes=25,no=26,missing=25
				25:leaf=0.0027163149788975715637
				26:leaf=-0.0024693529121577739716
			14:[2_CVTE:DPROS.2<8.8997392654418945312] yes=27,no=28,missing=27
				27:leaf=-0.003335225861519575119
				28:leaf=0.0048779952339828014374
booster[14]:
0:[3_CVTE:GLEASON.2<8.5928440093994140625] yes=1,no=2,missing=1
	1:[3_CVTE:GLEASON.2<8.439586639404296875] yes=3,no=4,missing=3
		3:[1_CVTE:DCAPS.2<8.6806211471557617188] yes=7,no=8,missing=7
			7:[14_CVTE:CAPSULE:DCAPS.2<8.59905242919921875] yes=15,no=16,missing=15
				15:leaf=-0.0033942561130970716476
				16:leaf=0.0022667138837277889252
			8:[4_CVTE:RACE.2<8.6618404388427734375] yes=17,no=18,missing=17
				17:leaf=0.00046572776045650243759
				18:leaf=-0.0068641444668173789978
		4:[0_CVTE:CAPSULE.2<8.7773876190185546875] yes=9,no=10,missing=9
			9:[10_ClusterTE:ClusterID94:DCAPS:VOL.2<8.5186624526977539062] yes=19,no=20,missing=19
				19:leaf=0.0030556069687008857727
				20:leaf=-0.0050021857023239135742
			10:leaf=-0.017167810350656509399
	2:[PSA<2] yes=5,no=6,missing=5
		5:[3_CVTE:GLEASON.2<8.6823530197143554688] yes=11,no=12,missing=11
			11:[1_CVTE:DCAPS.2<8.5724458694458007812] yes=21,no=22,missing=21
				21:leaf=-0.00022757053375244140625
				22:leaf=0.0039380812086164951324
			12:[1_CVTE:DCAPS.2<8.6377277374267578125] yes=23,no=24,missing=23
				23:leaf=-0.010778250172734260559
				24:leaf=-0.0025950074195861816406
		6:[VOL<44.200000762939453125] yes=13,no=14,missing=13
			13:[12_TruncSVD:CAPSULE:DCAPS:VOL.5<0.72421860694885253906] yes=25,no=26,missing=25
				25:leaf=-0.00089927564840763807297
				26:leaf=0.0024109277874231338501
			14:[11_NumCatTE:CAPSULE:DCAPS.2<8.6537637710571289062] yes=27,no=28,missing=27
				27:leaf=0.007880060933530330658
				28:leaf=0.0030965129844844341278
booster[15]:
0:[12_TruncSVD:CAPSULE:DCAPS:VOL.5<-0.013070082291960716248] yes=1,no=2,missing=1
	1:[8_CVTE:DCAPS.2<8.649066925048828125] yes=3,no=4,missing=3
		3:[PSA<3.2000000476837158203] yes=7,no=8,missing=7
			7:leaf=-0.0020614622626453638077
			8:[2_CVTE:DPROS.2<8.8030233383178710938] yes=15,no=16,missing=15
				15:leaf=0.0071647316217422485352
				16:leaf=0.0026925210841000080109
		4:[0_CVTE:CAPSULE.2<8.6646575927734375] yes=9,no=10,missing=9
			9:[2_CVTE:DPROS.2<8.98834228515625] yes=17,no=18,missing=17
				17:leaf=-0.0058964947238564491272
				18:leaf=0.0019701670389622449875
			10:[3_CVTE:GLEASON.2<8.9281339645385742188] yes=19,no=20,missing=19
				19:leaf=5.6943892559502273798e-05
				20:leaf=0.0039330292493104934692
	2:[0_CVTE:CAPSULE.2<8.6646575927734375] yes=5,no=6,missing=5
		5:[2_CVTE:DPROS.2<8.70258331298828125] yes=11,no=12,missing=11
			11:[2_CVTE:DPROS.2<8.4407405853271484375] yes=21,no=22,missing=21
				21:leaf=0.0030204467475414276123
				22:leaf=-0.0027369635645300149918
			12:[4_CVTE:RACE.2<8.654811859130859375] yes=23,no=24,missing=23
				23:leaf=0.0022998549975454807281
				24:leaf=0.0059301247820258140564
		6:[3_CVTE:GLEASON.2<8.5928440093994140625] yes=13,no=14,missing=13
			13:[11_NumCatTE:CAPSULE:DCAPS.2<8.6653881072998046875] yes=25,no=26,missing=25
				25:leaf=-0.0046959682367742061615
				26:leaf=-0.013806434348225593567
			14:[2_CVTE:DPROS.2<8.8950328826904296875] yes=27,no=28,missing=27
				27:leaf=-0.0021218992769718170166
				28:leaf=0.0026237783022224903107
booster[16]:
0:[12_TruncSVD:CAPSULE:DCAPS:VOL.5<-0.23007845878601074219] yes=1,no=2,missing=1
	1:[PSA<63.299999237060546875] yes=3,no=4,missing=3
		3:[12_TruncSVD:CAPSULE:DCAPS:VOL.5<-0.61094295978546142578] yes=7,no=8,missing=7
			7:[VOL<65.59999847412109375] yes=13,no=14,missing=13
				13:leaf=0.00068637944059446454048
				14:leaf=0.0054232035763561725616
			8:leaf=0.0073677017353475093842
		4:leaf=-0.0055028637871146202087
	2:[0_CVTE:CAPSULE.2<8.6646575927734375] yes=5,no=6,missing=5
		5:[2_CVTE:DPROS.2<8.70258331298828125] yes=9,no=10,missing=9
			9:[2_CVTE:DPROS.2<8.4407405853271484375] yes=15,no=16,missing=15
				15:leaf=0.0025991040747612714767
				16:leaf=-0.0022755127865821123123
			10:[PSA<29.100000381469726562] yes=17,no=18,missing=17
				17:leaf=0.0044440771453082561493
				18:leaf=0.00087570451432839035988
		6:[3_CVTE:GLEASON.2<8.5928440093994140625] yes=11,no=12,missing=11
			11:[11_NumCatTE:CAPSULE:DCAPS.2<8.6653881072998046875] yes=19,no=20,missing=19
				19:leaf=-0.0028543008957058191299
				20:leaf=-0.011431970633566379547
			12:[2_CVTE:DPROS.2<8.8950328826904296875] yes=21,no=22,missing=21
				21:leaf=-0.0012227172264829277992
				22:leaf=0.0028582855593413114548
booster[17]:
0:[0_CVTE:CAPSULE.2<8.6646575927734375] yes=1,no=2,missing=1
	1:[8_CVTE:DCAPS.2<8.6255674362182617188] yes=3,no=4,missing=3
		3:[PSA<11.199999809265136719] yes=7,no=8,missing=7
			7:[11_NumCatTE:CAPSULE:DCAPS.2<8.72891998291015625] yes=15,no=16,missing=15
				15:leaf=0.0062343054451048374176
				16:leaf=0.0019904652144759893417
			8:[11_NumCatTE:CAPSULE:DCAPS.2<8.598270416259765625] yes=17,no=18,missing=17
				17:leaf=0.0058616837486624717712
				18:leaf=0.00034487820812501013279
		4:[0_CVTE:CAPSULE.2<8.5312957763671875] yes=9,no=10,missing=9
			9:[14_CVTE:CAPSULE:DCAPS.2<8.6194858551025390625] yes=19,no=20,missing=19
				19:leaf=0.0082137584686279296875
				20:leaf=0.0028406372293829917908
			10:[2_CVTE:DPROS.2<8.70258331298828125] yes=21,no=22,missing=21
				21:leaf=-0.0022451530676335096359
				22:leaf=0.0024907144252210855484
	2:[VOL<35] yes=5,no=6,missing=5
		5:[3_CVTE:GLEASON.2<8.5928440093994140625] yes=11,no=12,missing=11
			11:[3_CVTE:GLEASON.2<8.439586639404296875] yes=23,no=24,missing=23
				23:leaf=-0.002844492672011256218
				24:leaf=-0.010035395622253417969
			12:[2_CVTE:DPROS.2<8.8950328826904296875] yes=25,no=26,missing=25
				25:leaf=-0.0017651150701567530632
				26:leaf=0.0034319693222641944885
		6:[2_CVTE:DPROS.2<8.8950328826904296875] yes=13,no=14,missing=13
			13:[3_CVTE:GLEASON.2<8.5928440093994140625] yes=27,no=28,missing=27
				27:leaf=0.0014740800252184271812
				28:leaf=0.0064319353550672531128
			14:[0_CVTE:CAPSULE.2<8.72168731689453125] yes=29,no=30,missing=29
				29:leaf=0.00065724016167223453522
				30:leaf=-0.0040796063840389251709
booster[18]:
0:[0_CVTE:CAPSULE.2<8.5991725921630859375] yes=1,no=2,missing=1
	1:[10_ClusterTE:ClusterID94:DCAPS:VOL.2<8.6984767913818359375] yes=3,no=4,missing=3
		3:[2_CVTE:DPROS.2<8.5926685333251953125] yes=7,no=8,missing=7
			7:[VOL<26.200000762939453125] yes=15,no=16,missing=15
				15:leaf=0.0029915561899542808533
				16:leaf=-0.0013873035786673426628
			8:[12_TruncSVD:CAPSULE:DCAPS:VOL.4<0.064516946673393249512] yes=17,no=18,missing=17
				17:leaf=0.0013900769408792257309
				18:leaf=0.0057310443371534347534
		4:[0_CVTE:CAPSULE.2<8.5312957763671875] yes=9,no=10,missing=9
			9:leaf=-0.012209508568048477173
			10:leaf=-0.00036648748209699988365
	2:[3_CVTE:GLEASON.2<8.5928440093994140625] yes=5,no=6,missing=5
		5:[3_CVTE:GLEASON.2<8.4836893081665039062] yes=11,no=12,missing=11
			11:[0_CVTE:CAPSULE.2<8.65424346923828125] yes=19,no=20,missing=19
				19:leaf=0.001115427468903362751
				20:leaf=-0.0040865452028810977936
			12:[4_CVTE:RACE.2<8.6727838516235351562] yes=21,no=22,missing=21
				21:leaf=-0.0070571694523096084595
				22:leaf=-0.018266176804900169373
		6:[VOL<35] yes=13,no=14,missing=13
			13:[2_CVTE:DPROS.2<8.70258331298828125] yes=23,no=24,missing=23
				23:leaf=-0.0021679613273590803146
				24:leaf=0.0023125698789954185486
			14:[8_CVTE:DCAPS.2<8.649066925048828125] yes=25,no=26,missing=25
				25:leaf=0.0065157269127666950226
				26:leaf=-0.0023192295338958501816
booster[19]:
0:[3_CVTE:GLEASON.2<8.5928440093994140625] yes=1,no=2,missing=1
	1:[0_CVTE:CAPSULE.2<8.65424346923828125] yes=3,no=4,missing=3
		3:[3_CVTE:GLEASON.2<8.245208740234375] yes=7,no=8,missing=7
			7:[12_TruncSVD:CAPSULE:DCAPS:VOL.5<0.88373923301696777344] yes=15,no=16,missing=15
				15:leaf=0.0073589049279689788818
				16:leaf=0.0011433846084401011467
			8:[2_CVTE:DPROS.2<8.4311084747314453125] yes=17,no=18,missing=17
				17:leaf=-0.0073769418522715568542
				18:leaf=3.0938186682760715485e-05
		4:[3_CVTE:GLEASON.2<8.3749132156372070312] yes=9,no=10,missing=9
			9:[10_ClusterTE:ClusterID94:DCAPS:VOL.2<8.6463346481323242188] yes=19,no=20,missing=19
				19:leaf=0.0021171744447201490402
				20:leaf=-0.0036277798935770988464
			10:[12_TruncSVD:CAPSULE:DCAPS:VOL.4<29.9239349365234375] yes=21,no=22,missing=21
				21:leaf=-0.011074745096266269684
				22:leaf=-3.6602017644327133894e-05
	2:[2_CVTE:DPROS.2<8.70258331298828125] yes=5,no=6,missing=5
		5:[2_CVTE:DPROS.2<8.4407405853271484375] yes=11,no=12,missing=11
			11:[PSA<6.9000000953674316406] yes=23,no=24,missing=23
				23:leaf=0.0051952321082353591919
				24:leaf=0.0016140443040058016777
			12:[11_NumCatTE:CAPSULE:DCAPS.2<8.72891998291015625] yes=25,no=26,missing=25
				25:leaf=-0.00055432686349377036095
				26:leaf=-0.0064220405183732509613
		6:[12_TruncSVD:CAPSULE:DCAPS:VOL.5<0.44108334183692932129] yes=13,no=14,missing=13
			13:[8_CVTE:DCAPS.2<8.649066925048828125] yes=27,no=28,missing=27
				27:leaf=0.0030223925132304430008
				28:leaf=-0.0051088323816657066345
			14:[14_CVTE:CAPSULE:DCAPS.2<8.506793975830078125] yes=29,no=30,missing=29
				29:leaf=-0.0016357135027647018433
				30:leaf=0.0046704206615686416626
booster[20]:
0:[0_CVTE:CAPSULE.2<8.6646575927734375] yes=1,no=2,missing=1
	1:[2_CVTE:DPROS.2<8.636260986328125] yes=3,no=4,missing=3
		3:[2_CVTE:DPROS.2<8.4407405853271484375] yes=7,no=8,missing=7
			7:[VOL<37] yes=15,no=16,missing=15
				15:leaf=0.0033084615133702754974
				16:leaf=-0.004855709616094827652
			8:[0_CVTE:CAPSULE.2<8.638797760009765625] yes=17,no=18,missing=17
				17:leaf=-0.00037518204771913588047
				18:leaf=-0.0063112382777035236359
		4:[12_TruncSVD:CAPSULE:DCAPS:VOL.5<-0.31631010770797729492] yes=9,no=10,missing=9
			9:[1_CVTE:DCAPS.2<8.6377277374267578125] yes=19,no=20,missing=19
				19:leaf=0.0028213562909513711929
				20:leaf=-0.0036790065933018922806
			10:[12_TruncSVD:CAPSULE:DCAPS:VOL.5<0.46407845616340637207] yes=21,no=22,missing=21
				21:leaf=0.0062816911377012729645
				22:leaf=0.0029198825359344482422
	2:[3_CVTE:GLEASON.2<8.5928440093994140625] yes=5,no=6,missing=5
		5:[11_NumCatTE:CAPSULE:DCAPS.2<8.642391204833984375] yes=11,no=12,missing=11
			11:[10_ClusterTE:ClusterID94:DCAPS:VOL.2<8.6745243072509765625] yes=23,no=24,missing=23
				23:leaf=0.0051775197498500347137
				24:leaf=-0.0075744376517832279205
			12:[VOL<33.09999847412109375] yes=25,no=26,missing=25
				25:leaf=-0.0095150163397192955017
				26:leaf=0.00029019927023909986019
		6:[VOL<47] yes=13,no=14,missing=13
			13:[2_CVTE:DPROS.2<8.8950328826904296875] yes=27,no=28,missing=27
				27:leaf=-0.0019421348115429282188
				28:leaf=0.0027993011754006147385
			14:[3_CVTE:GLEASON.2<8.643157958984375] yes=29,no=30,missing=29
				29:leaf=0.00023424148093909025192
				30:leaf=0.0067072645761072635651
booster[21]:
0:[3_CVTE:GLEASON.2<8.5928440093994140625] yes=1,no=2,missing=1
	1:[3_CVTE:GLEASON.2<8.4836893081665039062] yes=3,no=4,missing=3
		3:[0_CVTE:CAPSULE.2<8.65424346923828125] yes=7,no=8,missing=7
			7:[VOL<43] yes=15,no=16,missing=15
				15:leaf=0.0029010551515966653824
				16:leaf=-0.0054141548462212085724
			8:[10_ClusterTE:ClusterID94:DCAPS:VOL.2<8.6463346481323242188] yes=17,no=18,missing=17
				17:leaf=0.00060363340890035033226
				18:leaf=-0.0041859741322696208954
		4:[10_ClusterTE:ClusterID94:DCAPS:VOL.2<8.4513072967529296875] yes=9,no=10,missing=9
			9:leaf=-0.019098777323961257935
			10:[0_CVTE:CAPSULE.2<8.638797760009765625] yes=19,no=20,missing=19
				19:leaf=-0.0005940294358879327774
				20:leaf=-0.0068171047605574131012
	2:[2_CVTE:DPROS.2<8.70258331298828125] yes=5,no=6,missing=5
		5:[2_CVTE:DPROS.2<8.4407405853271484375] yes=11,no=12,missing=11
			11:[13_InteractionAdd:CAPSULE:GLEASON.2<5.5] yes=21,no=22,missing=21
				21:leaf=-0.0010418465826660394669
				22:leaf=0.0035319142043590545654
			12:[14_CVTE:CAPSULE:DCAPS.2<8.792705535888671875] yes=23,no=24,missing=23
				23:leaf=-0.00084753683768212795258
				24:leaf=-0.0074743893928825855255
		6:[3_CVTE:GLEASON.2<8.7020854949951171875] yes=13,no=14,missing=13
			13:[11_NumCatTE:CAPSULE:DCAPS.2<8.642391204833984375] yes=25,no=26,missing=25
				25:leaf=-0.0089732166379690170288
				26:leaf=0.0015221942448988556862
			14:[PSA<20.399999618530273438] yes=27,no=28,missing=27
				27:leaf=0.0057343021035194396973
				28:leaf=0.00087561091640964150429
booster[22]:
0:[3_CVTE:GLEASON.2<8.5928440093994140625] yes=1,no=2,missing=1
	1:[3_CVTE:GLEASON.2<8.439586639404296875] yes=3,no=4,missing=3
		3:[2_CVTE:DPROS.2<8.3061208724975585938] yes=7,no=8,missing=7
			7:[8_CVTE:DCAPS.2<8.595806121826171875] yes=15,no=16,missing=15
				15:leaf=-0.0018766426946967840195
				16:leaf=0.0078865364193916320801
			8:[0_CVTE:CAPSULE.2<8.5312957763671875] yes=17,no=18,missing=17
				17:leaf=0.0043389829806983470917
				18:leaf=-0.00062830996466800570488
		4:[4_CVTE:RACE.2<8.6727838516235351562] yes=9,no=10,missing=9
			9:[0_CVTE:CAPSULE.2<8.6511678695678710938] yes=19,no=20,missing=19
				19:leaf=-0.00030341971432790160179
				20:leaf=-0.0058975019492208957672
			10:[14_CVTE:CAPSULE:DCAPS.2<8.792705535888671875] yes=21,no=22,missing=21
				21:leaf=-0.018712967634201049805
				22:leaf=0.0013365125050768256187
	2:[11_NumCatTE:CAPSULE:DCAPS.2<8.72891998291015625] yes=5,no=6,missing=5
		5:[PSA<2.5] yes=11,no=12,missing=11
			11:[14_CVTE:CAPSULE:DCAPS.2<8.792705535888671875] yes=23,no=24,missing=23
				23:leaf=0.00086112617282196879387
				24:leaf=-0.010709313675761222839
			12:[VOL<47] yes=25,no=26,missing=25
				25:leaf=0.0021958632860332727432
				26:leaf=0.0064736991189420223236
		6:[9_CVCatNumEnc:CAPSULE:DCAPS:PSA.amin.2<3.6500000953674316406] yes=13,no=14,missing=13
			13:[8_CVTE:DCAPS.2<8.595806121826171875] yes=27,no=28,missing=27
				27:leaf=0.0026637862902134656906
				28:leaf=-0.0059622251428663730621
			14:leaf=0.0055290032178163528442
booster[23]:
0:[10_ClusterTE:ClusterID94:DCAPS:VOL.2<8.4513072967529296875] yes=1,no=2,missing=1
	1:[PSA<18.5] yes=3,no=4,missing=3
		3:[11_NumCatTE:CAPSULE:DCAPS.2<8.6537637710571289062] yes=7,no=8,missing=7
			7:[9_CVCatNumEnc:CAPSULE:DCAPS:PSA.amin.2<0.40000000596046447754] yes=15,no=16,missing=15
				15:leaf=0.00067569373641163110733
				16:leaf=0.0050469487905502319336
			8:leaf=0.0092749111354351043701
		4:[0_CVTE:CAPSULE.2<8.65424346923828125] yes=9,no=10,missing=9
			9:[1_CVTE:DCAPS.2<8.5724458694458007812] yes=17,no=18,missing=17
				17:leaf=-0.0022114943712949752808
				18:leaf=-1.7522175767226144671e-05
			10:leaf=0.0032705958001315593719
	2:[0_CVTE:CAPSULE.2<8.6511678695678710938] yes=5,no=6,missing=5
		5:[10_ClusterTE:ClusterID94:DCAPS:VOL.2<8.6984767913818359375] yes=11,no=12,missing=11
			11:[6_RACE<1.5] yes=19,no=20,missing=19
				19:leaf=0.0024787771981209516525
				20:leaf=-0.0040880884043872356415
			12:[0_CVTE:CAPSULE.2<8.5312957763671875] yes=21,no=22,missing=21
				21:leaf=-0.012157973833382129669
				22:leaf=-0.00039344787364825606346
		6:[12_TruncSVD:CAPSULE:DCAPS:VOL.5<-0.076306633651256561279] yes=13,no=14,missing=13
			13:[PSA<4.5] yes=23,no=24,missing=23
				23:leaf=-0.0039361072704195976257
				24:leaf=0.0048917275853455066681
			14:[3_CVTE:GLEASON.2<8.5928440093994140625] yes=25,no=26,missing=25
				25:leaf=-0.0039861048571765422821
				26:leaf=-0.00046546626253984868526
booster[24]:
0:[3_CVTE:GLEASON.2<8.5928440093994140625] yes=1,no=2,missing=1
	1:[0_CVTE:CAPSULE.2<8.6511678695678710938] yes=3,no=4,missing=3
		3:[11_NumCatTE:CAPSULE:DCAPS.2<8.598270416259765625] yes=7,no=8,missing=7
			7:leaf=-0.0046931407414376735687
			8:[11_NumCatTE:CAPSULE:DCAPS.2<8.697185516357421875] yes=15,no=16,missing=15
				15:leaf=0.0030059644486755132675
				16:leaf=-0.00018940838344860821962
		4:[3_CVTE:GLEASON.2<8.4836893081665039062] yes=9,no=10,missing=9
			9:[8_CVTE:DCAPS.2<8.6255674362182617188] yes=17,no=18,missing=17
				17:leaf=-0.0048195426352322101593
				18:leaf=-1.9568460629670880735e-05
			10:[8_CVTE:DCAPS.2<8.595806121826171875] yes=19,no=20,missing=19
				19:leaf=0.0020823956001549959183
				20:leaf=-0.011411464773118495941
	2:[PSA<3.4000000953674316406] yes=5,no=6,missing=5
		5:[14_CVTE:CAPSULE:DCAPS.2<8.792705535888671875] yes=11,no=12,missing=11
			11:[8_CVTE:DCAPS.2<8.6325359344482421875] yes=21,no=22,missing=21
				21:leaf=0.0035772647242993116379
				22:leaf=-0.0057805902324616909027
			12:leaf=-0.010652792640030384064
		6:[13_InteractionAdd:CAPSULE:GLEASON.2<5.5] yes=13,no=14,missing=13
			13:[14_CVTE:CAPSULE:DCAPS.2<8.792705535888671875] yes=23,no=24,missing=23
				23:leaf=0.0009192370343953371048
				24:leaf=-0.010494066402316093445
			14:[4_CVTE:RACE.2<8.6557159423828125] yes=25,no=26,missing=25
				25:leaf=-0.0001208084213430993259
				26:leaf=0.0043791262432932853699
booster[25]:
0:[3_CVTE:GLEASON.2<8.5928440093994140625] yes=1,no=2,missing=1
	1:[3_CVTE:GLEASON.2<8.3749132156372070312] yes=3,no=4,missing=3
		3:[1_CVTE:DCAPS.2<8.6806211471557617188] yes=7,no=8,missing=7
			7:[14_CVTE:CAPSULE:DCAPS.2<8.59905242919921875] yes=15,no=16,missing=15
				15:leaf=-0.0015424544690176844597
				16:leaf=0.0033057439140975475311
			8:[0_CVTE:CAPSULE.2<8.638797760009765625] yes=17,no=18,missing=17
				17:leaf=0.0031924429349601268768
				18:leaf=-0.0051112356595695018768
		4:[0_CVTE:CAPSULE.2<8.65424346923828125] yes=9,no=10,missing=9
			9:[9_CVCatNumEnc:CAPSULE:DCAPS:PSA.amin.2<1.6499999761581420898] yes=19,no=20,missing=19
				19:leaf=5.3310734074329957366e-05
				20:leaf=-0.0048391073942184448242
			10:[11_NumCatTE:CAPSULE:DCAPS.2<8.6653881072998046875] yes=21,no=22,missing=21
				21:leaf=-0.0053218011744320392609
				22:leaf=-0.014672338962554931641
	2:[11_NumCatTE:CAPSULE:DCAPS.2<8.72891998291015625] yes=5,no=6,missing=5
		5:[13_InteractionAdd:CAPSULE:GLEASON.2<5.5] yes=11,no=12,missing=11
			11:[4_CVTE:RACE.2<8.6576709747314453125] yes=23,no=24,missing=23
				23:leaf=0.004016226157546043396
				24:leaf=-0.0036915636155754327774
			12:[13_InteractionAdd:CAPSULE:GLEASON.2<8.5] yes=25,no=26,missing=25
				25:leaf=0.0021513376850634813309
				26:leaf=0.0053400509059429168701
		6:[14_CVTE:CAPSULE:DCAPS.2<8.5992860794067382812] yes=13,no=14,missing=13
			13:[VOL<26.299999237060546875] yes=27,no=28,missing=27
				27:leaf=0.00095007097115740180016
				28:leaf=-0.0067191007547080516815
			14:[9_CVCatNumEnc:CAPSULE:DCAPS:RACE.amin.0<0.5] yes=29,no=30,missing=29
				29:leaf=-0.0094604017212986946106
				30:leaf=-0.0017183653544634580612
booster[26]:
0:[3_CVTE:GLEASON.2<8.5928440093994140625] yes=1,no=2,missing=1
	1:[3_CVTE:GLEASON.2<8.3749132156372070312] yes=3,no=4,missing=3
		3:[1_CVTE:DCAPS.2<8.6377277374267578125] yes=7,no=8,missing=7
			7:[2_CVTE:DPROS.2<8.3061208724975585938] yes=15,no=16,missing=15
				15:leaf=0.0085246637463569641113
				16:leaf=0.0012640459463000297546
			8:[PSA<4.9000000953674316406] yes=17,no=18,missing=17
				17:leaf=-0.0055841421708464622498
				18:leaf=-0.00056858820607885718346
		4:[0_CVTE:CAPSULE.2<8.65424346923828125] yes=9,no=10,missing=9
			9:[12_TruncSVD:CAPSULE:DCAPS:VOL.5<-0.23007845878601074219] yes=19,no=20,missing=19
				19:leaf=0.0064795827493071556091
				20:leaf=-0.0029462382663041353226
			10:[12_TruncSVD:CAPSULE:DCAPS:VOL.4<29.9239349365234375] yes=21,no=22,missing=21
				21:leaf=-0.012363916262984275818
				22:leaf=0.00010789036605274304748
	2:[11_NumCatTE:CAPSULE:DCAPS.2<8.72891998291015625] yes=5,no=6,missing=5
		5:[13_InteractionAdd:CAPSULE:GLEASON.2<8.5] yes=11,no=12,missing=11
			11:[VOL<44.200000762939453125] yes=23,no=24,missing=23
				23:leaf=0.001026767888106405735
				24:leaf=0.0052684848196804523468
			12:[2_CVTE:DPROS.2<8.9520082473754882812] yes=25,no=26,missing=25
				25:leaf=0.0069728586822748184204
				26:leaf=0.0015608100220561027527
		6:[2_CVTE:DPROS.2<8.8997392654418945312] yes=13,no=14,missing=13
			13:[2_CVTE:DPROS.2<8.4407405853271484375] yes=27,no=28,missing=27
				27:leaf=0.0017314576543867588043
				28:leaf=-0.0056420927867293357849
			14:[12_TruncSVD:CAPSULE:DCAPS:VOL.5<0.72709298133850097656] yes=29,no=30,missing=29
				29:leaf=-0.0034118650946766138077
				30:leaf=0.0047992859035730361938
booster[27]:
0:[12_TruncSVD:CAPSULE:DCAPS:VOL.5<-0.013070082291960716248] yes=1,no=2,missing=1
	1:[8_CVTE:DCAPS.2<8.649066925048828125] yes=3,no=4,missing=3
		3:[2_CVTE:DPROS.2<8.636260986328125] yes=7,no=8,missing=7
			7:[8_CVTE:DCAPS.2<8.595806121826171875] yes=15,no=16,missing=15
				15:leaf=0.0035044106189161539078
				16:leaf=0.0080369524657726287842
			8:[1_CVTE:DCAPS.2<8.6806211471557617188] yes=17,no=18,missing=17
				17:leaf=0.0043067117221653461456
				18:leaf=-0.0019628608133643865585
		4:[0_CVTE:CAPSULE.2<8.6646575927734375] yes=9,no=10,missing=9
			9:[2_CVTE:DPROS.2<8.98834228515625] yes=19,no=20,missing=19
				19:leaf=-0.0057996236719191074371
				20:leaf=0.0018984484486281871796
			10:[3_CVTE:GLEASON.2<8.9281339645385742188] yes=21,no=22,missing=21
				21:leaf=0.00023335266450885683298
				22:leaf=0.0038229727651923894882
	2:[0_CVTE:CAPSULE.2<8.638797760009765625] yes=5,no=6,missing=5
		5:[VOL<38.90000152587890625] yes=11,no=12,missing=11
			11:[PSA<3.7000000476837158203] yes=23,no=24,missing=23
				23:leaf=-0.0040509295649826526642
				24:leaf=0.0030247701797634363174
			12:leaf=-0.0088790319859981536865
		6:[3_CVTE:GLEASON.2<8.5928440093994140625] yes=13,no=14,missing=13
			13:[3_CVTE:GLEASON.2<8.439586639404296875] yes=25,no=26,missing=25
				25:leaf=-0.001262714853510260582
				26:leaf=-0.0081169046461582183838
			14:[2_CVTE:DPROS.2<8.8997392654418945312] yes=27,no=28,missing=27
				27:leaf=-0.0017971834167838096619
				28:leaf=0.0034061779733747243881
booster[28]:
0:[3_CVTE:GLEASON.2<9.1947088241577148438] yes=1,no=2,missing=1
	1:[0_CVTE:CAPSULE.2<8.72168731689453125] yes=3,no=4,missing=3
		3:[8_CVTE:DCAPS.2<8.649066925048828125] yes=7,no=8,missing=7
			7:[12_TruncSVD:CAPSULE:DCAPS:VOL.5<-0.013070082291960716248] yes=13,no=14,missing=13
				13:leaf=0.005248114466667175293
				14:leaf=0.00056629325263202190399
			8:[10_ClusterTE:ClusterID94:DCAPS:VOL.2<8.655902862548828125] yes=15,no=16,missing=15
				15:leaf=0.00065119779901579022408
				16:leaf=-0.0040650609880685806274
		4:[VOL<14] yes=9,no=10,missing=9
			9:[13_InteractionAdd:CAPSULE:GLEASON.2<9.5] yes=17,no=18,missing=17
				17:leaf=-0.004253453575074672699
				18:leaf=-0.017678434029221534729
			10:[8_CVTE:DCAPS.2<8.6255674362182617188] yes=19,no=20,missing=19
				19:leaf=-0.0058241635560989379883
				20:leaf=0.0011236132122576236725
	2:[4_CVTE:RACE.2<8.5986146926879882812] yes=5,no=6,missing=5
		5:leaf=-0.0060822782106697559357
		6:[2_CVTE:DPROS.2<8.9520082473754882812] yes=11,no=12,missing=11
			11:leaf=0.0073507078923285007477
			12:[1_CVTE:DCAPS.2<8.7439975738525390625] yes=21,no=22,missing=21
				21:leaf=0.00023005723778624087572
				22:leaf=0.0034841117449104785919
booster[29]:
0:[PSA<3.2999999523162841797] yes=1,no=2,missing=1
	1:[8_CVTE:DCAPS.2<8.595806121826171875] yes=3,no=4,missing=3
		3:[0_CVTE:CAPSULE.2<8.6828470230102539062] yes=7,no=8,missing=7
			7:leaf=-0.00087698933202773332596
			8:leaf=0.0036556394770741462708
		4:[4_CVTE:RACE.2<8.6618404388427734375] yes=9,no=10,missing=9
			9:[3_CVTE:GLEASON.2<8.6823530197143554688] yes=15,no=16,missing=15
				15:leaf=0.00039281128556467592716
				16:leaf=-0.0059073111042380332947
			10:[2_CVTE:DPROS.2<8.3061208724975585938] yes=17,no=18,missing=17
				17:leaf=0.00022695779625792056322
				18:leaf=-0.012311697006225585938
	2:[0_CVTE:CAPSULE.2<8.5991725921630859375] yes=5,no=6,missing=5
		5:[VOL<38.90000152587890625] yes=11,no=12,missing=11
			11:[2_CVTE:DPROS.2<8.4311084747314453125] yes=19,no=20,missing=19
				19:leaf=0.0010800800519064068794
				20:leaf=0.0051432703621685504913
			12:[VOL<43.5] yes=21,no=22,missing=21
				21:leaf=-0.0076290010474622249603
				22:leaf=0.0018127469811588525772
		6:[3_CVTE:GLEASON.2<8.5928440093994140625] yes=13,no=14,missing=13
			13:[3_CVTE:GLEASON.2<8.439586639404296875] yes=23,no=24,missing=23
				23:leaf=0.00028358327108435332775
				24:leaf=-0.006708318367600440979
			14:[VOL<41.200000762939453125] yes=25,no=26,missing=25
				25:leaf=0.00021904034656472504139
				26:leaf=0.0057505229488015174866
booster[30]:
0:[3_CVTE:GLEASON.2<8.5928440093994140625] yes=1,no=2,missing=1
	1:[0_CVTE:CAPSULE.2<8.65424346923828125] yes=3,no=4,missing=3
		3:[3_CVTE:GLEASON.2<8.245208740234375] yes=7,no=8,missing=7
			7:[PSA<4.9000000953674316406] yes=15,no=16,missing=15
				15:leaf=-0.00039081095019355416298
				16:leaf=0.0051700323820114135742
			8:[9_CVCatNumEnc:CAPSULE:DCAPS:PSA.amin.2<0.94999998807907104492] yes=17,no=18,missing=17
				17:leaf=0.0019968543201684951782
				18:leaf=-0.0018620801856741309166
		4:[10_ClusterTE:ClusterID94:DCAPS:VOL.2<8.4513072967529296875] yes=9,no=10,missing=9
			9:leaf=-0.017617467790842056274
			10:[VOL<29.899999618530273438] yes=19,no=20,missing=19
				19:leaf=-0.0050792330875992774963
				20:leaf=-0.00042938080150634050369
	2:[PSA<2] yes=5,no=6,missing=5
		5:[2_CVTE:DPROS.2<8.70258331298828125] yes=11,no=12,missing=11
			11:[1_CVTE:DCAPS.2<8.6377277374267578125] yes=21,no=22,missing=21
				21:leaf=-0.010545544326305389404
				22:leaf=-0.0025411699898540973663
			12:[1_CVTE:DCAPS.2<8.5940799713134765625] yes=23,no=24,missing=23
				23:leaf=0.0039234277792274951935
				24:leaf=-0.0014922118280082941055
		6:[6_RACE<1.5] yes=13,no=14,missing=13
			13:[VOL<44.200000762939453125] yes=25,no=26,missing=25
				25:leaf=0.0015076417475938796997
				26:leaf=0.0056072752922773361206
			14:[PSA<16.799999237060546875] yes=27,no=28,missing=27
				27:leaf=0.0013384972698986530304
				28:leaf=-0.0093292417004704475403
booster[31]:
0:[3_CVTE:GLEASON.2<8.5928440093994140625] yes=1,no=2,missing=1
	1:[3_CVTE:GLEASON.2<8.439586639404296875] yes=3,no=4,missing=3
		3:[10_ClusterTE:ClusterID94:DCAPS:VOL.2<8.6113796234130859375] yes=7,no=8,missing=7
			7:[2_CVTE:DPROS.2<8.5926685333251953125] yes=15,no=16,missing=15
				15:leaf=0.0069635193794965744019
				16:leaf=0.00053877232130616903305
			8:[0_CVTE:CAPSULE.2<8.65424346923828125] yes=17,no=18,missing=17
				17:leaf=0.0017594031523913145065
				18:leaf=-0.003817147575318813324
		4:[12_TruncSVD:CAPSULE:DCAPS:VOL.5<-0.23007845878601074219] yes=9,no=10,missing=9
			9:leaf=0.0064304429106414318085
			10:[0_CVTE:CAPSULE.2<8.6511678695678710938] yes=19,no=20,missing=19
				19:leaf=-0.0014520139666274189949
				20:leaf=-0.0070623033680021762848
	2:[2_CVTE:DPROS.2<8.70258331298828125] yes=5,no=6,missing=5
		5:[2_CVTE:DPROS.2<8.4407405853271484375] yes=11,no=12,missing=11
			11:[12_TruncSVD:CAPSULE:DCAPS:VOL.4<0.03668931126594543457] yes=21,no=22,missing=21
				21:leaf=-0.0023043947294354438782
				22:leaf=0.0044859247282147407532
			12:[12_TruncSVD:CAPSULE:DCAPS:VOL.5<0.10765424370765686035] yes=23,no=24,missing=23
				23:leaf=0.0034599474165588617325
				24:leaf=-0.0031682392582297325134
		6:[3_CVTE:GLEASON.2<8.7020854949951171875] yes=13,no=14,missing=13
			13:[12_TruncSVD:CAPSULE:DCAPS:VOL.5<0.74721372127532958984] yes=25,no=26,missing=25
				25:leaf=-0.0032366875093430280685
				26:leaf=0.0037473493721336126328
			14:[PSA<20.399999618530273438] yes=27,no=28,missing=27
				27:leaf=0.0058643524535000324249
				28:leaf=0.0019385133637115359306
booster[32]:
0:[3_CVTE:GLEASON.2<8.5928440093994140625] yes=1,no=2,missing=1
	1:[0_CVTE:CAPSULE.2<8.65424346923828125] yes=3,no=4,missing=3
		3:[3_CVTE:GLEASON.2<8.245208740234375] yes=7,no=8,missing=7
			7:[11_NumCatTE:CAPSULE:DCAPS.2<8.6566143035888671875] yes=15,no=16,missing=15
				15:leaf=0.0017308441456407308578
				16:leaf=0.0059028184041380882263
			8:[2_CVTE:DPROS.2<8.636260986328125] yes=17,no=18,missing=17
				17:leaf=-0.0028332048095762729645
				18:leaf=0.0017998683033511042595
		4:[3_CVTE:GLEASON.2<8.439586639404296875] yes=9,no=10,missing=9
			9:[10_ClusterTE:ClusterID94:DCAPS:VOL.2<8.6113796234130859375] yes=19,no=20,missing=19
				19:leaf=0.0027274226304143667221
				20:leaf=-0.0044236043468117713928
			10:[14_CVTE:CAPSULE:DCAPS.2<8.6482982635498046875] yes=21,no=22,missing=21
				21:leaf=-0.013056206516921520233
				22:leaf=-0.001552938949316740036
	2:[PSA<2.5] yes=5,no=6,missing=5
		5:[14_CVTE:CAPSULE:DCAPS.2<8.792705535888671875] yes=11,no=12,missing=11
			11:[4_CVTE:RACE.2<8.6618404388427734375] yes=23,no=24,missing=23
				23:leaf=0.0010391449322924017906
				24:leaf=-0.0042492086067795753479
			12:leaf=-0.010542144998908042908
		6:[6_RACE<1.5] yes=13,no=14,missing=13
			13:[8_CVTE:DCAPS.2<8.6255674362182617188] yes=25,no=26,missing=25
				25:leaf=0.0037234826013445854187
				26:leaf=0.00071695051155984401703
			14:[3_CVTE:GLEASON.2<8.8988170623779296875] yes=27,no=28,missing=27
				27:leaf=0.0031238773372024297714
				28:leaf=-0.0075268470682203769684
booster[33]:
0:[3_CVTE:GLEASON.2<8.5928440093994140625] yes=1,no=2,missing=1
	1:[3_CVTE:GLEASON.2<8.245208740234375] yes=3,no=4,missing=3
		3:[0_CVTE:CAPSULE.2<8.6646575927734375] yes=7,no=8,missing=7
			7:[PSA<8.8999996185302734375] yes=15,no=16,missing=15
				15:leaf=0.0072656306438148021698
				16:leaf=0.0040919785387814044952
			8:[VOL<31.200000762939453125] yes=17,no=18,missing=17
				17:leaf=-0.0027239697519689798355
				18:leaf=0.0023480439558625221252
		4:[0_CVTE:CAPSULE.2<8.6646575927734375] yes=9,no=10,missing=9
			9:[10_ClusterTE:ClusterID94:DCAPS:VOL.2<8.6563673019409179688] yes=19,no=20,missing=19
				19:leaf=-0.0037185808178037405014
				20:leaf=0.00049030873924493789673
			10:[11_NumCatTE:CAPSULE:DCAPS.2<8.6653881072998046875] yes=21,no=22,missing=21
				21:leaf=-0.0052949828095734119415
				22:leaf=-0.016031425446271896362
	2:[2_CVTE:DPROS.2<8.70258331298828125] yes=5,no=6,missing=5
		5:[2_CVTE:DPROS.2<8.4407405853271484375] yes=11,no=12,missing=11
			11:[12_TruncSVD:CAPSULE:DCAPS:VOL.4<0.03668931126594543457] yes=23,no=24,missing=23
				23:leaf=-0.0019458410097286105156
				24:leaf=0.0036875414662063121796
			12:[2_CVTE:DPROS.2<8.6085252761840820312] yes=25,no=26,missing=25
				25:leaf=-0.0045566232874989509583
				26:leaf=0.00093983742408454418182
		6:[2_CVTE:DPROS.2<9.0089178085327148438] yes=13,no=14,missing=13
			13:[12_TruncSVD:CAPSULE:DCAPS:VOL.5<0.77308320999145507812] yes=27,no=28,missing=27
				27:leaf=0.0016022705240175127983
				28:leaf=0.0053674085065722465515
			14:[11_NumCatTE:CAPSULE:DCAPS.2<8.6537637710571289062] yes=29,no=30,missing=29
				29:leaf=0.0027871425263583660126
				30:leaf=-0.0024432325735688209534
booster[34]:
0:[13_InteractionAdd:CAPSULE:GLEASON.2<9.5] yes=1,no=2,missing=1
	1:[0_CVTE:CAPSULE.2<8.5991725921630859375] yes=3,no=4,missing=3
		3:[10_ClusterTE:ClusterID94:DCAPS:VOL.2<8.6984767913818359375] yes=7,no=8,missing=7
			7:[2_CVTE:DPROS.2<8.8950328826904296875] yes=15,no=16,missing=15
				15:leaf=0.003812618553638458252
				16:leaf=-0.00026899389922618865967
			8:[0_CVTE:CAPSULE.2<8.5312957763671875] yes=17,no=18,missing=17
				17:leaf=-0.01195599045604467392
				18:leaf=-0.00046715734060853719711
		4:[13_InteractionAdd:CAPSULE:GLEASON.2<6.5] yes=9,no=10,missing=9
			9:[14_CVTE:CAPSULE:DCAPS.2<8.6911983489990234375] yes=19,no=20,missing=19
				19:leaf=-0.0013348872307687997818
				20:leaf=-0.0049909469671547412872
			10:[2_CVTE:DPROS.2<8.4407405853271484375] yes=21,no=22,missing=21
				21:leaf=0.0039299102500081062317
				22:leaf=-0.00023790034174453467131
	2:[2_CVTE:DPROS.2<8.9520082473754882812] yes=5,no=6,missing=5
		5:[PSA<28.5] yes=11,no=12,missing=11
			11:leaf=-0.015311680734157562256
			12:[1_CVTE:DCAPS.2<8.9181423187255859375] yes=23,no=24,missing=23
				23:leaf=-0.0032471918966621160507
				24:leaf=-0.00031983613735064864159
		6:[0_CVTE:CAPSULE.2<8.65424346923828125] yes=13,no=14,missing=13
			13:leaf=0.0019497059984132647514
			14:leaf=0.00015437841648235917091
booster[35]:
0:[2_CVTE:DPROS.2<8.70258331298828125] yes=1,no=2,missing=1
	1:[12_TruncSVD:CAPSULE:DCAPS:VOL.5<-0.0015725273406133055687] yes=3,no=4,missing=3
		3:[8_CVTE:DCAPS.2<8.649066925048828125] yes=7,no=8,missing=7
			7:[0_CVTE:CAPSULE.2<8.72168731689453125] yes=15,no=16,missing=15
				15:leaf=0.0066419518552720546722
				16:leaf=0.00023914655321277678013
			8:[0_CVTE:CAPSULE.2<8.5991725921630859375] yes=17,no=18,missing=17
				17:leaf=-0.0013400935567915439606
				18:leaf=-0.0056479517370462417603
		4:[2_CVTE:DPROS.2<8.265155792236328125] yes=9,no=10,missing=9
			9:[10_ClusterTE:ClusterID94:DCAPS:VOL.2<8.6463346481323242188] yes=19,no=20,missing=19
				19:leaf=0.0059592192992568016052
				20:leaf=0.00020771422714460641146
			10:[VOL<36.799999237060546875] yes=21,no=22,missing=21
				21:leaf=-0.0022772818338125944138
				22:leaf=-0.010839876718819141388
	2:[0_CVTE:CAPSULE.2<8.6646575927734375] yes=5,no=6,missing=5
		5:[2_CVTE:DPROS.2<8.8950328826904296875] yes=11,no=12,missing=11
			11:[12_TruncSVD:CAPSULE:DCAPS:VOL.4<0.03668931126594543457] yes=23,no=24,missing=23
				23:leaf=0.00072598323458805680275
				24:leaf=0.005675317719578742981
			12:[4_CVTE:RACE.2<8.6727838516235351562] yes=25,no=26,missing=25
				25:leaf=0.001310780760832130909
				26:leaf=0.0056097856722772121429
		6:[3_CVTE:GLEASON.2<8.5928440093994140625] yes=13,no=14,missing=13
			13:[2_CVTE:DPROS.2<8.98834228515625] yes=27,no=28,missing=27
				27:leaf=-0.00052217411575838923454
				28:leaf=-0.0086158774793148040771
			14:[12_TruncSVD:CAPSULE:DCAPS:VOL.5<0.61499184370040893555] yes=29,no=30,missing=29
				29:leaf=-0.0019120549550279974937
				30:leaf=0.003723371308296918869
booster[36]:
0:[3_CVTE:GLEASON.2<8.5928440093994140625] yes=1,no=2,missing=1
	1:[3_CVTE:GLEASON.2<8.439586639404296875] yes=3,no=4,missing=3
		3:[PSA<4.4000000953674316406] yes=7,no=8,missing=7
			7:[12_TruncSVD:CAPSULE:DCAPS:VOL.4<0.03668931126594543457] yes=15,no=16,missing=15
				15:leaf=0.0018264572136104106903
				16:leaf=-0.0064225695095956325531
			8:[12_TruncSVD:CAPSULE:DCAPS:VOL.5<1.7976675033569335938] yes=17,no=18,missing=17
				17:leaf=0.0014814945170655846596
				18:leaf=-0.005927857477217912674
		4:[10_ClusterTE:ClusterID94:DCAPS:VOL.2<8.4513072967529296875] yes=9,no=10,missing=9
			9:leaf=-0.018571885302662849426
			10:[12_TruncSVD:CAPSULE:DCAPS:VOL.5<-0.23007845878601074219] yes=19,no=20,missing=19
				19:leaf=0.0063839843496680259705
				20:leaf=-0.0052944235503673553467
	2:[13_InteractionAdd:CAPSULE:GLEASON.2<5.5] yes=5,no=6,missing=5
		5:[3_CVTE:GLEASON.2<8.816192626953125] yes=11,no=12,missing=11
			11:[11_NumCatTE:CAPSULE:DCAPS.2<8.642391204833984375] yes=21,no=22,missing=21
				21:leaf=-0.004061459563672542572
				22:leaf=0.0015444715972989797592
			12:[2_CVTE:DPROS.2<8.70258331298828125] yes=23,no=24,missing=23
				23:leaf=-0.0096900695934891700745
				24:leaf=0.0040053646080195903778
		6:[6_RACE<1.5] yes=13,no=14,missing=13
			13:[11_NumCatTE:CAPSULE:DCAPS.2<8.72891998291015625] yes=25,no=26,missing=25
				25:leaf=0.0031922832131385803223
				26:leaf=-0.00086827902123332023621
			14:[11_NumCatTE:CAPSULE:DCAPS.2<8.6500492095947265625] yes=27,no=28,missing=27
				27:leaf=0.0026664386969059705734
				28:leaf=-0.0080400286242365837097
booster[37]:
0:[2_CVTE:DPROS.2<8.70258331298828125] yes=1,no=2,missing=1
	1:[0_CVTE:CAPSULE.2<8.6511678695678710938] yes=3,no=4,missing=3
		3:[10_ClusterTE:ClusterID94:DCAPS:VOL.2<8.6984767913818359375] yes=7,no=8,missing=7
			7:[11_NumCatTE:CAPSULE:DCAPS.2<8.6653881072998046875] yes=15,no=16,missing=15
				15:leaf=0.0029304029885679483414
				16:leaf=-0.0019187517464160919189
			8:[0_CVTE:CAPSULE.2<8.5312957763671875] yes=17,no=18,missing=17
				17:leaf=-0.011920406483113765717
				18:leaf=-0.00035352227860130369663
		4:[12_TruncSVD:CAPSULE:DCAPS:VOL.5<-0.076306633651256561279] yes=9,no=10,missing=9
			9:[8_CVTE:DCAPS.2<8.649066925048828125] yes=19,no=20,missing=19
				19:leaf=0.0066469544544816017151
				20:leaf=-0.0013821923639625310898
			10:[1_CVTE:DCAPS.2<8.6377277374267578125] yes=21,no=22,missing=21
				21:leaf=-0.0011711822589859366417
				22:leaf=-0.00495260581374168396
	2:[3_CVTE:GLEASON.2<8.7020854949951171875] yes=5,no=6,missing=5
		5:[2_CVTE:DPROS.2<8.8852872848510742188] yes=11,no=12,missing=11
			11:[0_CVTE:CAPSULE.2<8.72168731689453125] yes=23,no=24,missing=23
				23:leaf=0.004844004753977060318
				24:leaf=0.00015892076771706342697
			12:[0_CVTE:CAPSULE.2<8.6646575927734375] yes=25,no=26,missing=25
				25:leaf=0.0012313504703342914581
				26:leaf=-0.0036692791618406772614
		6:[PSA<20.399999618530273438] yes=13,no=14,missing=13
			13:[8_CVTE:DCAPS.2<8.595806121826171875] yes=27,no=28,missing=27
				27:leaf=0.00096167495939880609512
				28:leaf=0.0060826186090707778931
			14:[0_CVTE:CAPSULE.2<8.5991725921630859375] yes=29,no=30,missing=29
				29:leaf=0.0068250447511672973633
				30:leaf=2.189412589359562844e-05
booster[38]:
0:[3_CVTE:GLEASON.2<8.5928440093994140625] yes=1,no=2,missing=1
	1:[3_CVTE:GLEASON.2<8.439586639404296875] yes=3,no=4,missing=3
		3:[2_CVTE:DPROS.2<8.3061208724975585938] yes=7,no=8,missing=7
			7:[8_CVTE:DCAPS.2<8.595806121826171875] yes=15,no=16,missing=15
				15:leaf=-0.0018242764053866267204
				16:leaf=0.0078170495107769966125
			8:[0_CVTE:CAPSULE.2<8.65424346923828125] yes=17,no=18,missing=17
				17:leaf=0.001302904798649251461
				18:leaf=-0.0020169613417237997055
		4:[10_ClusterTE:ClusterID94:DCAPS:VOL.2<8.4513072967529296875] yes=9,no=10,missing=9
			9:leaf=-0.018495608121156692505
			10:[14_CVTE:CAPSULE:DCAPS.2<8.5919513702392578125] yes=19,no=20,missing=19
				19:leaf=0.0022467740345746278763
				20:leaf=-0.005653847474604845047
	2:[6_RACE<1.5] yes=5,no=6,missing=5
		5:[VOL<38.59999847412109375] yes=11,no=12,missing=11
			11:[13_InteractionAdd:CAPSULE:GLEASON.2<5.5] yes=21,no=22,missing=21
				21:leaf=-0.0017455685883760452271
				22:leaf=0.00198599998839199543
			12:[0_CVTE:CAPSULE.2<8.5312957763671875] yes=23,no=24,missing=23
				23:leaf=0.0012871248181909322739
				24:leaf=0.0062250634655356407166
		6:[14_CVTE:CAPSULE:DCAPS.2<8.6446313858032226562] yes=13,no=14,missing=13
			13:[0_CVTE:CAPSULE.2<8.6828470230102539062] yes=25,no=26,missing=25
				25:leaf=-0.0085829449817538261414
				26:leaf=-0.00022344112221617251635
			14:[3_CVTE:GLEASON.2<8.6823530197143554688] yes=27,no=28,missing=27
				27:leaf=0.00036011217162013053894
				28:leaf=0.0029450256843119859695
booster[39]:
0:[3_CVTE:GLEASON.2<8.5928440093994140625] yes=1,no=2,missing=1
	1:[0_CVTE:CAPSULE.2<8.638797760009765625] yes=3,no=4,missing=3
		3:[3_CVTE:GLEASON.2<8.439586639404296875] yes=7,no=8,missing=7
			7:[VOL<43] yes=15,no=16,missing=15
				15:leaf=0.0040106992237269878387
				16:leaf=-0.0040324409492313861847
			8:[14_CVTE:CAPSULE:DCAPS.2<8.5919513702392578125] yes=17,no=18,missing=17
				17:leaf=0.0037188171409070491791
				18:leaf=-0.0026819831691682338715
		4:[3_CVTE:GLEASON.2<8.4836893081665039062] yes=9,no=10,missing=9
			9:[10_ClusterTE:ClusterID94:DCAPS:VOL.2<8.6463346481323242188] yes=19,no=20,missing=19
				19:leaf=0.0010998153593391180038
				20:leaf=-0.003586672712117433548
			10:[9_CVCatNumEnc:CAPSULE:DCAPS:PSA.amin.2<0.40000000596046447754] yes=21,no=22,missing=21
				21:leaf=0.00043702792027033865452
				22:leaf=-0.012252782471477985382
	2:[11_NumCatTE:CAPSULE:DCAPS.2<8.72891998291015625] yes=5,no=6,missing=5
		5:[PSA<2.2999999523162841797] yes=11,no=12,missing=11
			11:[4_CVTE:RACE.2<8.6618404388427734375] yes=23,no=24,missing=23
				23:leaf=0.0040089604444801807404
				24:leaf=-0.0078620202839374542236
			12:[VOL<44.200000762939453125] yes=25,no=26,missing=25
				25:leaf=0.0016492462018504738808
				26:leaf=0.0063287722878158092499
		6:[2_CVTE:DPROS.2<8.8852872848510742188] yes=13,no=14,missing=13
			13:[2_CVTE:DPROS.2<8.4407405853271484375] yes=27,no=28,missing=27
				27:leaf=0.001667990698479115963
				28:leaf=-0.0063257580623030662537
			14:[12_TruncSVD:CAPSULE:DCAPS:VOL.5<0.72709298133850097656] yes=29,no=30,missing=29
				29:leaf=-0.0041168341413140296936
				30:leaf=0.0055189868435263633728
booster[40]:
0:[2_CVTE:DPROS.2<8.70258331298828125] yes=1,no=2,missing=1
	1:[2_CVTE:DPROS.2<8.4407405853271484375] yes=3,no=4,missing=3
		3:[3_CVTE:GLEASON.2<8.5928440093994140625] yes=7,no=8,missing=7
			7:[10_ClusterTE:ClusterID94:DCAPS:VOL.2<8.535572052001953125] yes=15,no=16,missing=15
				15:leaf=0.0044116638600826263428
				16:leaf=-0.0039474717341363430023
			8:[13_InteractionAdd:CAPSULE:GLEASON.2<5.5] yes=17,no=18,missing=17
				17:leaf=-0.0010905438102781772614
				18:leaf=0.0039940578863024711609
		4:[3_CVTE:GLEASON.2<8.3749132156372070312] yes=9,no=10,missing=9
			9:[11_NumCatTE:CAPSULE:DCAPS.2<8.6566143035888671875] yes=19,no=20,missing=19
				19:leaf=-0.0013455734588205814362
				20:leaf=0.0031363640446215867996
			10:[PSA<23.399999618530273438] yes=21,no=22,missing=21
				21:leaf=-0.0044228327460587024689
				22:leaf=0.0016980139771476387978
	2:[PSA<7.5] yes=5,no=6,missing=5
		5:[0_CVTE:CAPSULE.2<8.6646575927734375] yes=11,no=12,missing=11
			11:[12_TruncSVD:CAPSULE:DCAPS:VOL.5<0.57043081521987915039] yes=23,no=24,missing=23
				23:leaf=0.0035423277877271175385
				24:leaf=-0.00018120622553396970034
			12:[2_CVTE:DPROS.2<8.98834228515625] yes=25,no=26,missing=25
				25:leaf=-0.001353181665763258934
				26:leaf=-0.0091995401307940483093
		6:[12_TruncSVD:CAPSULE:DCAPS:VOL.5<0.44108334183692932129] yes=13,no=14,missing=13
			13:[PSA<11.300000190734863281] yes=27,no=28,missing=27
				27:leaf=-0.0048842653632164001465
				28:leaf=0.0030543596949428319931
			14:[PSA<18.5] yes=29,no=30,missing=29
				29:leaf=0.0059844413772225379944
				30:leaf=0.0017228927463293075562
booster[41]:
0:[3_CVTE:GLEASON.2<8.5928440093994140625] yes=1,no=2,missing=1
	1:[3_CVTE:GLEASON.2<8.439586639404296875] yes=3,no=4,missing=3
		3:[0_CVTE:CAPSULE.2<8.65424346923828125] yes=7,no=8,missing=7
			7:[14_CVTE:CAPSULE:DCAPS.2<8.59905242919921875] yes=15,no=16,missing=15
				15:leaf=-0.0027729105204343795776
				16:leaf=0.0044477018527686595917
			8:[10_ClusterTE:ClusterID94:DCAPS:VOL.2<8.6463346481323242188] yes=17,no=18,missing=17
				17:leaf=0.0023473650217056274414
				18:leaf=-0.0033005562145262956619
		4:[0_CVTE:CAPSULE.2<8.65424346923828125] yes=9,no=10,missing=9
			9:[12_TruncSVD:CAPSULE:DCAPS:VOL.5<-0.23007845878601074219] yes=19,no=20,missing=19
				19:leaf=0.0063850623555481433868
				20:leaf=-0.0031404606997966766357
			10:[VOL<29.899999618530273438] yes=21,no=22,missing=21
				21:leaf=-0.012712866067886352539
				22:leaf=0.0002609634248074144125
	2:[VOL<44.200000762939453125] yes=5,no=6,missing=5
		5:[2_CVTE:DPROS.2<8.70258331298828125] yes=11,no=12,missing=11
			11:[2_CVTE:DPROS.2<8.4407405853271484375] yes=23,no=24,missing=23
				23:leaf=0.0019855236168950796127
				24:leaf=-0.0023763726931065320969
			12:[12_TruncSVD:CAPSULE:DCAPS:VOL.5<0.61499184370040893555] yes=25,no=26,missing=25
				25:leaf=-0.00024569957167841494083
				26:leaf=0.0040241871029138565063
		6:[2_CVTE:DPROS.2<8.8030233383178710938] yes=13,no=14,missing=13
			13:leaf=0.0074035315774381160736
			14:[0_CVTE:CAPSULE.2<8.6828470230102539062] yes=27,no=28,missing=27
				27:leaf=0.0040873894467949867249
				28:leaf=7.9183577327057719231e-05
booster[42]:
0:[3_CVTE:GLEASON.2<8.5928440093994140625] yes=1,no=2,missing=1
	1:[3_CVTE:GLEASON.2<8.439586639404296875] yes=3,no=4,missing=3
		3:[PSA<4.9000000953674316406] yes=7,no=8,missing=7
			7:[12_TruncSVD:CAPSULE:DCAPS:VOL.4<0.03668931126594543457] yes=15,no=16,missing=15
				15:leaf=0.0016243266873061656952
				16:leaf=-0.0074304752051830291748
			8:[10_ClusterTE:ClusterID94:DCAPS:VOL.2<8.6113796234130859375] yes=17,no=18,missing=17
				17:leaf=0.0051656598225235939026
				18:leaf=-0.000588647439144551754
		4:[10_ClusterTE:ClusterID94:DCAPS:VOL.2<8.4513072967529296875] yes=9,no=10,missing=9
			9:leaf=-0.018346237018704414368
			10:[12_TruncSVD:CAPSULE:DCAPS:VOL.5<-0.23007845878601074219] yes=19,no=20,missing=19
				19:leaf=0.0063644531182944774628
				20:leaf=-0.0050180605612695217133
	2:[PSA<2.5] yes=5,no=6,missing=5
		5:[14_CVTE:CAPSULE:DCAPS.2<8.792705535888671875] yes=11,no=12,missing=11
			11:[4_CVTE:RACE.2<8.6618404388427734375] yes=21,no=22,missing=21
				21:leaf=0.0030811226461082696915
				22:leaf=-0.0041792932897806167603
			12:leaf=-0.010369918309152126312
		6:[11_NumCatTE:CAPSULE:DCAPS.2<8.72891998291015625] yes=13,no=14,missing=13
			13:[VOL<38.59999847412109375] yes=23,no=24,missing=23
				23:leaf=0.0013837805017828941345
				24:leaf=0.0058100288733839988708
			14:[2_CVTE:DPROS.2<8.636260986328125] yes=25,no=26,missing=25
				25:leaf=-0.0046292576007544994354
				26:leaf=0.0012512614484876394272
booster[43]:
0:[3_CVTE:GLEASON.2<8.5928440093994140625] yes=1,no=2,missing=1
	1:[0_CVTE:CAPSULE.2<8.65424346923828125] yes=3,no=4,missing=3
		3:[3_CVTE:GLEASON.2<8.5105724334716796875] yes=7,no=8,missing=7
			7:[VOL<43] yes=15,no=16,missing=15
				15:leaf=0.0034649278968572616577
				16:leaf=-0.0037394582759588956833
			8:[12_TruncSVD:CAPSULE:DCAPS:VOL.5<0.70395457744598388672] yes=17,no=18,missing=17
				17:leaf=0.0017380666686221957207
				18:leaf=-0.0065733157098293304443
		4:[3_CVTE:GLEASON.2<8.3749132156372070312] yes=9,no=10,missing=9
			9:[PSA<5.8000001907348632812] yes=19,no=20,missing=19
				19:leaf=-0.0062354169785976409912
				20:leaf=-8.9850027507054619491e-06
			10:[10_ClusterTE:ClusterID94:DCAPS:VOL.2<8.4513072967529296875] yes=21,no=22,missing=21
				21:leaf=-0.018346237018704414368
				22:leaf=-0.0067329392768442630768
	2:[2_CVTE:DPROS.2<8.70258331298828125] yes=5,no=6,missing=5
		5:[2_CVTE:DPROS.2<8.4407405853271484375] yes=11,no=12,missing=11
			11:[3_CVTE:GLEASON.2<9.1947088241577148438] yes=23,no=24,missing=23
				23:leaf=0.0012269614962860941887
				24:leaf=0.0068144714459776878357
			12:[14_CVTE:CAPSULE:DCAPS.2<8.5992860794067382812] yes=25,no=26,missing=25
				25:leaf=0.0011069562751799821854
				26:leaf=-0.0040717530064284801483
		6:[12_TruncSVD:CAPSULE:DCAPS:VOL.5<0.72709298133850097656] yes=13,no=14,missing=13
			13:[11_NumCatTE:CAPSULE:DCAPS.2<8.72891998291015625] yes=27,no=28,missing=27
				27:leaf=0.0023020585067570209503
				28:leaf=-0.0057509713806211948395
			14:[14_CVTE:CAPSULE:DCAPS.2<8.506793975830078125] yes=29,no=30,missing=29
				29:leaf=-0.0029423236846923828125
				30:leaf=0.0043957792222499847412
booster[44]:
0:[3_CVTE:GLEASON.2<8.5928440093994140625] yes=1,no=2,missing=1
	1:[0_CVTE:CAPSULE.2<8.5312957763671875] yes=3,no=4,missing=3
		3:[11_NumCatTE:CAPSULE:DCAPS.2<8.6537637710571289062] yes=7,no=8,missing=7
			7:[PSA<11.5] yes=15,no=16,missing=15
				15:leaf=-0.0016083240043371915817
				16:leaf=0.0024041198194026947021
			8:[PSA<10.800000190734863281] yes=17,no=18,missing=17
				17:leaf=0.0069402777589857578278
				18:leaf=-0.00018030405044555664062
		4:[3_CVTE:GLEASON.2<8.4836893081665039062] yes=9,no=10,missing=9
			9:[3_CVTE:GLEASON.2<8.222339630126953125] yes=19,no=20,missing=19
				19:leaf=0.0015484798932448029518
				20:leaf=-0.0025983857922255992889
			10:[0_CVTE:CAPSULE.2<8.6511678695678710938] yes=21,no=22,missing=21
				21:leaf=-0.00022108935809228569269
				22:leaf=-0.010772936977446079254
	2:[11_NumCatTE:CAPSULE:DCAPS.2<8.72891998291015625] yes=5,no=6,missing=5
		5:[13_InteractionAdd:CAPSULE:GLEASON.2<5.5] yes=11,no=12,missing=11
			11:[14_CVTE:CAPSULE:DCAPS.2<8.792705535888671875] yes=23,no=24,missing=23
				23:leaf=0.0013519932981580495834
				24:leaf=-0.0061422213912010192871
			12:[4_CVTE:RACE.2<8.6557159423828125] yes=25,no=26,missing=25
				25:leaf=0.00096150417812168598175
				26:leaf=0.0040510981343686580658
		6:[12_TruncSVD:CAPSULE:DCAPS:VOL.5<0.72421860694885253906] yes=13,no=14,missing=13
			13:leaf=-0.0070672146975994110107
			14:[10_ClusterTE:ClusterID94:DCAPS:VOL.2<8.655902862548828125] yes=27,no=28,missing=27
				27:leaf=-0.0053453180007636547089
				28:leaf=0.0035559025127440690994
booster[45]:
0:[3_CVTE:GLEASON.2<8.5928440093994140625] yes=1,no=2,missing=1
	1:[0_CVTE:CAPSULE.2<8.65424346923828125] yes=3,no=4,missing=3
		3:[3_CVTE:GLEASON.2<8.245208740234375] yes=7,no=8,missing=7
			7:[1_CVTE:DCAPS.2<8.6377277374267578125] yes=15,no=16,missing=15
				15:leaf=0.0063835750333964824677
				16:leaf=0.0022502476349472999573
			8:[10_ClusterTE:ClusterID94:DCAPS:VOL.2<8.6563673019409179688] yes=17,no=18,missing=17
				17:leaf=-0.00428351573646068573
				18:leaf=0.0014790650457143783569
		4:[3_CVTE:GLEASON.2<8.439586639404296875] yes=9,no=10,missing=9
			9:[1_CVTE:DCAPS.2<8.6806211471557617188] yes=19,no=20,missing=19
				19:leaf=-0.00064770161407068371773
				20:leaf=-0.0068599912337958812714
			10:[14_CVTE:CAPSULE:DCAPS.2<8.6482982635498046875] yes=21,no=22,missing=21
				21:leaf=-0.011842275969684123993
				22:leaf=-0.0013367875944823026657
	2:[3_CVTE:GLEASON.2<9.1947088241577148438] yes=5,no=6,missing=5
		5:[10_ClusterTE:ClusterID94:DCAPS:VOL.2<8.4513072967529296875] yes=11,no=12,missing=11
			11:[11_NumCatTE:CAPSULE:DCAPS.2<8.642391204833984375] yes=23,no=24,missing=23
				23:leaf=0.00018331169849261641502
				24:leaf=0.0065431231632828712463
			12:[3_CVTE:GLEASON.2<9.0069408416748046875] yes=25,no=26,missing=25
				25:leaf=0.00079515244578942656517
				26:leaf=-0.0032280806917697191238
		6:[10_ClusterTE:ClusterID94:DCAPS:VOL.2<8.5186624526977539062] yes=13,no=14,missing=13
			13:[2_CVTE:DPROS.2<9.0089178085327148438] yes=27,no=28,missing=27
				27:leaf=0.0025802610907703638077
				28:leaf=0.00010180949902860447764
			14:[1_CVTE:DCAPS.2<9.003894805908203125] yes=29,no=30,missing=29
				29:leaf=0.0075525781139731407166
				30:leaf=0.0029755751602351665497
booster[46]:
0:[12_TruncSVD:CAPSULE:DCAPS:VOL.5<-0.23007845878601074219] yes=1,no=2,missing=1
	1:[PSA<3.2000000476837158203] yes=3,no=4,missing=3
		3:leaf=-0.0038914664182811975479
		4:[0_CVTE:CAPSULE.2<8.5312957763671875] yes=7,no=8,missing=7
			7:[3_CVTE:GLEASON.2<8.8988170623779296875] yes=13,no=14,missing=13
				13:leaf=0.0042387512512505054474
				14:leaf=-0.0012548959348350763321
			8:[3_CVTE:GLEASON.2<8.439586639404296875] yes=15,no=16,missing=15
				15:leaf=-3.7655830965377390385e-05
				16:leaf=0.0073711276054382324219
	2:[13_InteractionAdd:CAPSULE:GLEASON.2<6.5] yes=5,no=6,missing=5
		5:[14_CVTE:CAPSULE:DCAPS.2<8.6911983489990234375] yes=9,no=10,missing=9
			9:[VOL<26.600000381469726562] yes=17,no=18,missing=17
				17:leaf=0.00066272116964682936668
				18:leaf=-0.0044488017447292804718
			10:[PSA<6.0999999046325683594] yes=19,no=20,missing=19
				19:leaf=-0.012539358809590339661
				20:leaf=-0.0031041463371366262436
		6:[2_CVTE:DPROS.2<8.8030233383178710938] yes=11,no=12,missing=11
			11:[2_CVTE:DPROS.2<8.57172393798828125] yes=21,no=22,missing=21
				21:leaf=0.0017177162226289510727
				22:leaf=-0.0023693568073213100433
			12:[PSA<7.9000000953674316406] yes=23,no=24,missing=23
				23:leaf=0.00018126307986676692963
				24:leaf=0.003499495331197977066
booster[47]:
0:[3_CVTE:GLEASON.2<8.5928440093994140625] yes=1,no=2,missing=1
	1:[3_CVTE:GLEASON.2<8.3749132156372070312] yes=3,no=4,missing=3
		3:[0_CVTE:CAPSULE.2<8.65424346923828125] yes=7,no=8,missing=7
			7:[14_CVTE:CAPSULE:DCAPS.2<8.59905242919921875] yes=15,no=16,missing=15
				15:leaf=-0.0025312548968940973282
				16:leaf=0.0042129051871597766876
			8:[10_ClusterTE:ClusterID94:DCAPS:VOL.2<8.6463346481323242188] yes=17,no=18,missing=17
				17:leaf=0.0025916718877851963043
				18:leaf=-0.0044252816587686538696
		4:[12_TruncSVD:CAPSULE:DCAPS:VOL.5<-0.23007845878601074219] yes=9,no=10,missing=9
			9:leaf=0.0063224011100828647614
			10:[0_CVTE:CAPSULE.2<8.6511678695678710938] yes=19,no=20,missing=19
				19:leaf=-0.0017116713570430874825
				20:leaf=-0.0087411887943744659424
	2:[VOL<44.200000762939453125] yes=5,no=6,missing=5
		5:[2_CVTE:DPROS.2<8.70258331298828125] yes=11,no=12,missing=11
			11:[2_CVTE:DPROS.2<8.4407405853271484375] yes=21,no=22,missing=21
				21:leaf=0.002164226258173584938
				22:leaf=-0.0018727955175563693047
			12:[0_CVTE:CAPSULE.2<8.6646575927734375] yes=23,no=24,missing=23
				23:leaf=0.0044553349725902080536
				24:leaf=0.0007448514224961400032
		6:[3_CVTE:GLEASON.2<8.643157958984375] yes=13,no=14,missing=13
			13:leaf=5.6722161389188840985e-05
			14:[2_CVTE:DPROS.2<8.98834228515625] yes=25,no=26,missing=25
				25:leaf=0.0062520331703126430511
				26:leaf=0.0017674708506092429161
booster[48]:
0:[3_CVTE:GLEASON.2<8.5928440093994140625] yes=1,no=2,missing=1
	1:[0_CVTE:CAPSULE.2<8.65424346923828125] yes=3,no=4,missing=3
		3:[3_CVTE:GLEASON.2<8.5105724334716796875] yes=7,no=8,missing=7
			7:[VOL<43] yes=15,no=16,missing=15
				15:leaf=0.0034767175093293190002
				16:leaf=-0.0037100603803992271423
			8:[0_CVTE:CAPSULE.2<8.638797760009765625] yes=17,no=18,missing=17
				17:leaf=0.00063115532975643873215
				18:leaf=-0.0060122590512037277222
		4:[2_CVTE:DPROS.2<8.265155792236328125] yes=9,no=10,missing=9
			9:leaf=0.0074177915230393409729
			10:[10_ClusterTE:ClusterID94:DCAPS:VOL.2<8.4513072967529296875] yes=19,no=20,missing=19
				19:leaf=-0.01812129095196723938
				20:leaf=-0.0043281214311718940735
	2:[11_NumCatTE:CAPSULE:DCAPS.2<8.72891998291015625] yes=5,no=6,missing=5
		5:[PSA<2.5] yes=11,no=12,missing=11
			11:[14_CVTE:CAPSULE:DCAPS.2<8.792705535888671875] yes=21,no=22,missing=21
				21:leaf=0.00082618772285059094429
				22:leaf=-0.010241665877401828766
			12:[VOL<38.59999847412109375] yes=23,no=24,missing=23
				23:leaf=0.0019749167840927839279
				24:leaf=0.0060055414214730262756
		6:[2_CVTE:DPROS.2<8.636260986328125] yes=13,no=14,missing=13
			13:[2_CVTE:DPROS.2<8.4407405853271484375] yes=25,no=26,missing=25
				25:leaf=0.0016151678282767534256
				26:leaf=-0.0064233746379613876343
			14:[12_TruncSVD:CAPSULE:DCAPS:VOL.5<0.72421860694885253906] yes=27,no=28,missing=27
				27:leaf=-0.0057301335036754608154
				28:leaf=0.0043549314141273498535
booster[49]:
0:[3_CVTE:GLEASON.2<8.5928440093994140625] yes=1,no=2,missing=1
	1:[0_CVTE:CAPSULE.2<8.65424346923828125] yes=3,no=4,missing=3
		3:[10_ClusterTE:ClusterID94:DCAPS:VOL.2<8.6563673019409179688] yes=7,no=8,missing=7
			7:[3_CVTE:GLEASON.2<8.245208740234375] yes=15,no=16,missing=15
				15:leaf=0.0031115938909351825714
				16:leaf=-0.0037002151366323232651
			8:[14_CVTE:CAPSULE:DCAPS.2<8.6446313858032226562] yes=17,no=18,missing=17
				17:leaf=0.0051247077062726020813
				18:leaf=0.0016372214304283261299
		4:[3_CVTE:GLEASON.2<8.3749132156372070312] yes=9,no=10,missing=9
			9:[2_CVTE:DPROS.2<8.98834228515625] yes=19,no=20,missing=19
				19:leaf=-9.3131369794718921185e-05
				20:leaf=-0.0071571897715330123901
			10:[8_CVTE:DCAPS.2<8.595806121826171875] yes=21,no=22,missing=21
				21:leaf=-0.0021607368253171443939
				22:leaf=-0.010319548659026622772
	2:[11_NumCatTE:CAPSULE:DCAPS.2<8.6653881072998046875] yes=5,no=6,missing=5
		5:[VOL<47] yes=11,no=12,missing=11
			11:[13_InteractionAdd:CAPSULE:GLEASON.2<5.5] yes=23,no=24,missing=23
				23:leaf=0.00036224024370312690735
				24:leaf=0.0027999426238238811493
			12:[0_CVTE:CAPSULE.2<8.5312957763671875] yes=25,no=26,missing=25
				25:leaf=0.0019491290440782904625
				26:leaf=0.0066828904673457145691
		6:[6_RACE<1.5] yes=13,no=14,missing=13
			13:[13_InteractionAdd:CAPSULE:GLEASON.2<5.5] yes=27,no=28,missing=27
				27:leaf=-0.0041538341902196407318
				28:leaf=0.0012777912197634577751
			14:leaf=-0.0081740431487560272217
booster[50]:
0:[3_CVTE:GLEASON.2<8.5928440093994140625] yes=1,no=2,missing=1
	1:[0_CVTE:CAPSULE.2<8.65424346923828125] yes=3,no=4,missing=3
		3:[14_CVTE:CAPSULE:DCAPS.2<8.59905242919921875] yes=7,no=8,missing=7
			7:[11_NumCatTE:CAPSULE:DCAPS.2<8.72891998291015625] yes=15,no=16,missing=15
				15:leaf=-0.0050592711195349693298
				16:leaf=0.0036658158060163259506
			8:[3_CVTE:GLEASON.2<8.439586639404296875] yes=17,no=18,missing=17
				17:leaf=0.004138576798141002655
				18:leaf=-0.00098848389461636543274
		4:[2_CVTE:DPROS.2<8.265155792236328125] yes=9,no=10,missing=9
			9:[4_CVTE:RACE.2<8.6417827606201171875] yes=19,no=20,missing=19
				19:leaf=-0.0017919229576364159584
				20:leaf=0.0073933773674070835114
			10:[12_TruncSVD:CAPSULE:DCAPS:VOL.4<29.9239349365234375] yes=21,no=22,missing=21
				21:leaf=-0.0060041039250791072845
				22:leaf=-0.000191918923519551754
	2:[PSA<2] yes=5,no=6,missing=5
		5:[4_CVTE:RACE.2<8.6618404388427734375] yes=11,no=12,missing=11
			11:leaf=0.0039782221429049968719
			12:[0_CVTE:CAPSULE.2<8.6828470230102539062] yes=23,no=24,missing=23
				23:leaf=-0.010364913381636142731
				24:leaf=-0.0026261648163199424744
		6:[VOL<44.200000762939453125] yes=13,no=14,missing=13
			13:[2_CVTE:DPROS.2<8.4407405853271484375] yes=25,no=26,missing=25
				25:leaf=0.003511969931423664093
				26:leaf=0.00079212751006707549095
			14:[0_CVTE:CAPSULE.2<8.5312957763671875] yes=27,no=28,missing=27
				27:leaf=0.00073990976670756936073
				28:leaf=0.0063007152639329433441
booster[51]:
0:[3_CVTE:GLEASON.2<8.5928440093994140625] yes=1,no=2,missing=1
	1:[3_CVTE:GLEASON.2<8.439586639404296875] yes=3,no=4,missing=3
		3:[14_CVTE:CAPSULE:DCAPS.2<8.6911983489990234375] yes=7,no=8,missing=7
			7:[14_CVTE:CAPSULE:DCAPS.2<8.59905242919921875] yes=15,no=16,missing=15
				15:leaf=-0.0016267296159639954567
				16:leaf=0.0032838922925293445587
			8:[PSA<6.3000001907348632812] yes=17,no=18,missing=17
				17:leaf=-0.008802304975688457489
				18:leaf=-0.00016525946557521820068
		4:[0_CVTE:CAPSULE.2<8.6511678695678710938] yes=9,no=10,missing=9
			9:[1_CVTE:DCAPS.2<8.6806211471557617188] yes=19,no=20,missing=19
				19:leaf=-0.0025375010445713996887
				20:leaf=0.0047504743561148643494
			10:[9_CVCatNumEnc:CAPSULE:DCAPS:PSA.amin.2<0.94999998807907104492] yes=21,no=22,missing=21
				21:leaf=-0.005948382895439863205
				22:leaf=-0.015947733074426651001
	2:[PSA<2] yes=5,no=6,missing=5
		5:[4_CVTE:RACE.2<8.6417827606201171875] yes=11,no=12,missing=11
			11:[0_CVTE:CAPSULE.2<8.6828470230102539062] yes=23,no=24,missing=23
				23:leaf=0.0021439266856759786606
				24:leaf=-0.00025741336867213249207
			12:[2_CVTE:DPROS.2<8.8950328826904296875] yes=25,no=26,missing=25
				25:leaf=-0.0056127482093870639801
				26:leaf=-0.001496365061029791832
		6:[VOL<29.799999237060546875] yes=13,no=14,missing=13
			13:[10_ClusterTE:ClusterID94:DCAPS:VOL.2<8.535572052001953125] yes=27,no=28,missing=27
				27:leaf=0.0032694533001631498337
				28:leaf=0.00014495049254037439823
			14:[11_NumCatTE:CAPSULE:DCAPS.2<8.72891998291015625] yes=29,no=30,missing=29
				29:leaf=0.004143216647207736969
				30:leaf=-0.0053041013889014720917
booster[52]:
0:[10_ClusterTE:ClusterID94:DCAPS:VOL.2<8.4513072967529296875] yes=1,no=2,missing=1
	1:[PSA<3.7000000476837158203] yes=3,no=4,missing=3
		3:leaf=-0.0044949674047529697418
		4:[PSA<18.5] yes=7,no=8,missing=7
			7:[11_NumCatTE:CAPSULE:DCAPS.2<8.6566143035888671875] yes=13,no=14,missing=13
				13:leaf=0.0044519216753542423248
				14:leaf=0.0093786241486668586731
			8:[2_CVTE:DPROS.2<8.98834228515625] yes=15,no=16,missing=15
				15:leaf=-0.0017979557160288095474
				16:leaf=0.0027986275963485240936
	2:[12_TruncSVD:CAPSULE:DCAPS:VOL.5<-0.013070082291960716248] yes=5,no=6,missing=5
		5:[8_CVTE:DCAPS.2<8.649066925048828125] yes=9,no=10,missing=9
			9:[2_CVTE:DPROS.2<8.636260986328125] yes=17,no=18,missing=17
				17:leaf=0.0070895608514547348022
				18:leaf=0.0021990553941577672958
			10:[0_CVTE:CAPSULE.2<8.6646575927734375] yes=19,no=20,missing=19
				19:leaf=-0.0051953108049929141998
				20:leaf=0.0015004603192210197449
		6:[2_CVTE:DPROS.2<8.70258331298828125] yes=11,no=12,missing=11
			11:[VOL<36.799999237060546875] yes=21,no=22,missing=21
				21:leaf=-0.0011849338188767433167
				22:leaf=-0.010569033212959766388
			12:[12_TruncSVD:CAPSULE:DCAPS:VOL.5<0.44108334183692932129] yes=23,no=24,missing=23
				23:leaf=-0.0037776823155581951141
				24:leaf=0.0023303376510739326477
booster[53]:
0:[VOL<44.799999237060546875] yes=1,no=2,missing=1
	1:[0_CVTE:CAPSULE.2<8.638797760009765625] yes=3,no=4,missing=3
		3:[VOL<38.90000152587890625] yes=7,no=8,missing=7
			7:[PSA<3.7000000476837158203] yes=13,no=14,missing=13
				13:leaf=-0.0030093491077423095703
				14:leaf=0.0027493294328451156616
			8:[0_CVTE:CAPSULE.2<8.5312957763671875] yes=15,no=16,missing=15
				15:leaf=-0.0013327677734196186066
				16:leaf=-0.008550211787223815918
		4:[3_CVTE:GLEASON.2<8.5928440093994140625] yes=9,no=10,missing=9
			9:[3_CVTE:GLEASON.2<8.439586639404296875] yes=17,no=18,missing=17
				17:leaf=-0.0013370894594117999077
				18:leaf=-0.009625802747905254364
			10:[2_CVTE:DPROS.2<8.70258331298828125] yes=19,no=20,missing=19
				19:leaf=-0.0021515002008527517319
				20:leaf=0.0021904183086007833481
	2:[PSA<3.2000000476837158203] yes=5,no=6,missing=5
		5:leaf=-0.0037922596093267202377
		6:[2_CVTE:DPROS.2<8.8030233383178710938] yes=11,no=12,missing=11
			11:leaf=0.0067062955349683761597
			12:[PSA<12.300000190734863281] yes=21,no=22,missing=21
				21:leaf=-2.8568903871928341687e-05
				22:leaf=0.0034176339395344257355
booster[54]:
0:[0_CVTE:CAPSULE.2<8.5991725921630859375] yes=1,no=2,missing=1
	1:[PSA<3.2000000476837158203] yes=3,no=4,missing=3
		3:[10_ClusterTE:ClusterID94:DCAPS:VOL.2<8.6984767913818359375] yes=7,no=8,missing=7
			7:[4_CVTE:RACE.2<8.6727838516235351562] yes=15,no=16,missing=15
				15:leaf=-0.0034754865337163209915
				16:leaf=0.0025399981532245874405
			8:leaf=-0.011664736084640026093
		4:[11_NumCatTE:CAPSULE:DCAPS.2<8.72891998291015625] yes=9,no=10,missing=9
			9:[PSA<22.700000762939453125] yes=17,no=18,missing=17
				17:leaf=0.0028492023702710866928
				18:leaf=0.0065321209840476512909
			10:[4_CVTE:RACE.2<8.6417827606201171875] yes=19,no=20,missing=19
				19:leaf=-0.0051644663326442241669
				20:leaf=0.002169553656131029129
	2:[3_CVTE:GLEASON.2<8.5928440093994140625] yes=5,no=6,missing=5
		5:[3_CVTE:GLEASON.2<8.4836893081665039062] yes=11,no=12,missing=11
			11:[PSA<4.9000000953674316406] yes=21,no=22,missing=21
				21:leaf=-0.0046838619746267795563
				22:leaf=-0.00014596674009226262569
			12:[9_CVCatNumEnc:CAPSULE:DCAPS:PSA.amin.2<1.6499999761581420898] yes=23,no=24,missing=23
				23:leaf=-0.0053441463969647884369
				24:leaf=-0.014811231754720211029
		6:[10_ClusterTE:ClusterID94:DCAPS:VOL.2<8.4513072967529296875] yes=13,no=14,missing=13
			13:[PSA<22.100000381469726562] yes=25,no=26,missing=25
				25:leaf=0.0062851756811141967773
				26:leaf=-0.0014619270805269479752
			14:[VOL<35] yes=27,no=28,missing=27
				27:leaf=-0.0010192523477599024773
				28:leaf=0.0035552261397242546082
booster[55]:
0:[VOL<14] yes=1,no=2,missing=1
	1:[0_CVTE:CAPSULE.2<8.6646575927734375] yes=3,no=4,missing=3
		3:[2_CVTE:DPROS.2<8.4407405853271484375] yes=7,no=8,missing=7
			7:[8_CVTE:DCAPS.2<8.6325359344482421875] yes=15,no=16,missing=15
				15:leaf=0.0052082515321671962738
				16:leaf=-0.00035258769639767706394
			8:[2_CVTE:DPROS.2<8.636260986328125] yes=17,no=18,missing=17
				17:leaf=-0.0036937585100531578064
				18:leaf=0.0012036921689286828041
		4:[13_InteractionAdd:CAPSULE:GLEASON.2<9.5] yes=9,no=10,missing=9
			9:[9_CVCatNumEnc:CAPSULE:DCAPS:PSA.amin.2<3.0499999523162841797] yes=19,no=20,missing=19
				19:leaf=-0.0031368609052151441574
				20:leaf=0.0029954432975500822067
			10:leaf=-0.01696759834885597229
	2:[6_RACE<1.5] yes=5,no=6,missing=5
		5:[8_CVTE:DCAPS.2<8.6255674362182617188] yes=11,no=12,missing=11
			11:[3_CVTE:GLEASON.2<9.3637952804565429688] yes=21,no=22,missing=21
				21:leaf=0.0040128068067133426666
				22:leaf=-0.00063773069996386766434
			12:[12_TruncSVD:CAPSULE:DCAPS:VOL.5<-0.26314190030097961426] yes=23,no=24,missing=23
				23:leaf=0.0042252717539668083191
				24:leaf=-0.00018715995247475802898
		6:[11_NumCatTE:CAPSULE:DCAPS.2<8.6500492095947265625] yes=13,no=14,missing=13
			13:[0_CVTE:CAPSULE.2<8.6511678695678710938] yes=25,no=26,missing=25
				25:leaf=-0.0014156531542539596558
				26:leaf=0.0051687383092939853668
			14:[14_CVTE:CAPSULE:DCAPS.2<8.792705535888671875] yes=27,no=28,missing=27
				27:leaf=-0.007971372455358505249
				28:leaf=0.0018666505347937345505
booster[56]:
0:[3_CVTE:GLEASON.2<8.5928440093994140625] yes=1,no=2,missing=1
	1:[3_CVTE:GLEASON.2<8.245208740234375] yes=3,no=4,missing=3
		3:[14_CVTE:CAPSULE:DCAPS.2<8.6482982635498046875] yes=7,no=8,missing=7
			7:[PSA<9.5] yes=15,no=16,missing=15
				15:leaf=0.0061819832772016525269
				16:leaf=0.0016537852352485060692
			8:[PSA<6.3000001907348632812] yes=17,no=18,missing=17
				17:leaf=-0.0062231915071606636047
				18:leaf=-1.9665823856485076249e-05
		4:[0_CVTE:CAPSULE.2<8.72168731689453125] yes=9,no=10,missing=9
			9:[PSA<1.7000000476837158203] yes=19,no=20,missing=19
				19:leaf=0.0043200398795306682587
				20:leaf=-0.0028940855991095304489
			10:[VOL<39.90000152587890625] yes=21,no=22,missing=21
				21:leaf=-0.011500749737024307251
				22:leaf=0.00052614213200286030769
	2:[PSA<2] yes=5,no=6,missing=5
		5:[0_CVTE:CAPSULE.2<8.6828470230102539062] yes=11,no=12,missing=11
			11:leaf=-0.010277053341269493103
			12:[1_CVTE:DCAPS.2<8.5940799713134765625] yes=23,no=24,missing=23
				23:leaf=-0.00024798393133096396923
				24:leaf=-0.0025936807505786418915
		6:[10_ClusterTE:ClusterID94:DCAPS:VOL.2<8.535572052001953125] yes=13,no=14,missing=13
			13:[0_CVTE:CAPSULE.2<8.7773876190185546875] yes=25,no=26,missing=25
				25:leaf=0.003903474658727645874
				26:leaf=-0.0034163473173975944519
			14:[VOL<44.200000762939453125] yes=27,no=28,missing=27
				27:leaf=5.0730537623167037964e-05
				28:leaf=0.003921964205801486969
booster[57]:
0:[0_CVTE:CAPSULE.2<8.6646575927734375] yes=1,no=2,missing=1
	1:[2_CVTE:DPROS.2<8.70258331298828125] yes=3,no=4,missing=3
		3:[2_CVTE:DPROS.2<8.4407405853271484375] yes=7,no=8,missing=7
			7:[VOL<37] yes=15,no=16,missing=15
				15:leaf=0.0041324323974549770355
				16:leaf=-0.0029535433277487754822
			8:[PSA<31.5] yes=17,no=18,missing=17
				17:leaf=-0.0030587881337851285934
				18:leaf=0.004107780754566192627
		4:[4_CVTE:RACE.2<8.65656280517578125] yes=9,no=10,missing=9
			9:[2_CVTE:DPROS.2<8.8950328826904296875] yes=19,no=20,missing=19
				19:leaf=0.0038869720883667469025
				20:leaf=-0.000484696938656270504
			10:[PSA<3.5999999046325683594] yes=21,no=22,missing=21
				21:leaf=-0.0020146393217146396637
				22:leaf=0.0053324298933148384094
	2:[3_CVTE:GLEASON.2<8.5928440093994140625] yes=5,no=6,missing=5
		5:[2_CVTE:DPROS.2<8.8852872848510742188] yes=11,no=12,missing=11
			11:[VOL<20] yes=23,no=24,missing=23
				23:leaf=-0.0046421256847679615021
				24:leaf=0.0011972119100391864777
			12:[4_CVTE:RACE.2<8.6727838516235351562] yes=25,no=26,missing=25
				25:leaf=-0.0066173248924314975739
				26:leaf=-0.016155999153852462769
		6:[12_TruncSVD:CAPSULE:DCAPS:VOL.5<0.41233944892883300781] yes=13,no=14,missing=13
			13:[13_InteractionAdd:CAPSULE:GLEASON.2<6.5] yes=27,no=28,missing=27
				27:leaf=0.00062314292881637811661
				28:leaf=0.0053803864866495132446
			14:[2_CVTE:DPROS.2<8.636260986328125] yes=29,no=30,missing=29
				29:leaf=-0.0042545692995190620422
				30:leaf=0.0014993372606113553047
booster[58]:
0:[0_CVTE:CAPSULE.2<8.6828470230102539062] yes=1,no=2,missing=1
	1:[2_CVTE:DPROS.2<8.70258331298828125] yes=3,no=4,missing=3
		3:[1_CVTE:DCAPS.2<8.5724458694458007812] yes=7,no=8,missing=7
			7:[PSA<2.4000000953674316406] yes=13,no=14,missing=13
				13:leaf=-0.0037559007760137319565
				14:leaf=0.0040280618704855442047
			8:[0_CVTE:CAPSULE.2<8.638797760009765625] yes=15,no=16,missing=15
				15:leaf=0.00081492733443155884743
				16:leaf=-0.0024382839910686016083
		4:[8_CVTE:DCAPS.2<8.649066925048828125] yes=9,no=10,missing=9
			9:[2_CVTE:DPROS.2<9.0914049148559570312] yes=17,no=18,missing=17
				17:leaf=0.004786741454154253006
				18:leaf=-7.5913150794804096222e-05
			10:[14_CVTE:CAPSULE:DCAPS.2<8.6194858551025390625] yes=19,no=20,missing=19
				19:leaf=-0.0031048953533172607422
				20:leaf=0.0023640447761863470078
	2:[13_InteractionAdd:CAPSULE:GLEASON.2<9.5] yes=5,no=6,missing=5
		5:[12_TruncSVD:CAPSULE:DCAPS:VOL.4<31.251209259033203125] yes=11,no=12,missing=11
			11:[2_CVTE:DPROS.2<8.70258331298828125] yes=21,no=22,missing=21
				21:leaf=-0.003110235556960105896
				22:leaf=0.00013938959455117583275
			12:[2_CVTE:DPROS.2<8.8852872848510742188] yes=23,no=24,missing=23
				23:leaf=0.0052223843522369861603
				24:leaf=-0.00045901417615823447704
		6:leaf=-0.016819011420011520386
booster[59]:
0:[3_CVTE:GLEASON.2<8.5928440093994140625] yes=1,no=2,missing=1
	1:[0_CVTE:CAPSULE.2<8.65424346923828125] yes=3,no=4,missing=3
		3:[3_CVTE:GLEASON.2<8.245208740234375] yes=7,no=8,missing=7
			7:[11_NumCatTE:CAPSULE:DCAPS.2<8.6566143035888671875] yes=15,no=16,missing=15
				15:leaf=0.0005217728903517127037
				16:leaf=0.0058340909890830516815
			8:[2_CVTE:DPROS.2<8.636260986328125] yes=17,no=18,missing=17
				17:leaf=-0.0024478621780872344971
				18:leaf=0.0023973807692527770996
		4:[2_CVTE:DPROS.2<8.265155792236328125] yes=9,no=10,missing=9
			9:[4_CVTE:RACE.2<8.6417827606201171875] yes=19,no=20,missing=19
				19:leaf=-0.0017694854177534580231
				20:leaf=0.007326342165470123291
			10:[12_TruncSVD:CAPSULE:DCAPS:VOL.4<29.9239349365234375] yes=21,no=22,missing=21
				21:leaf=-0.005403054412454366684
				22:leaf=-0.00013921808567829430103
	2:[2_CVTE:DPROS.2<8.70258331298828125] yes=5,no=6,missing=5
		5:[2_CVTE:DPROS.2<8.4407405853271484375] yes=11,no=12,missing=11
			11:[12_TruncSVD:CAPSULE:DCAPS:VOL.5<1.3508353233337402344] yes=23,no=24,missing=23
				23:leaf=0.0017866408452391624451
				24:leaf=0.0061577088199555873871
			12:[VOL<37] yes=25,no=26,missing=25
				25:leaf=-0.0026661418378353118896
				26:leaf=0.0053865271620452404022
		6:[PSA<20.399999618530273438] yes=13,no=14,missing=13
			13:[12_TruncSVD:CAPSULE:DCAPS:VOL.5<0.72709298133850097656] yes=27,no=28,missing=27
				27:leaf=0.0016526654362678527832
				28:leaf=0.0059530376456677913666
			14:[0_CVTE:CAPSULE.2<8.5991725921630859375] yes=29,no=30,missing=29
				29:leaf=0.0070558474399149417877
				30:leaf=-0.0012577257584780454636
booster[60]:
0:[3_CVTE:GLEASON.2<8.5928440093994140625] yes=1,no=2,missing=1
	1:[0_CVTE:CAPSULE.2<8.6646575927734375] yes=3,no=4,missing=3
		3:[1_CVTE:DCAPS.2<8.6377277374267578125] yes=7,no=8,missing=7
			7:[3_CVTE:GLEASON.2<8.439586639404296875] yes=15,no=16,missing=15
				15:leaf=0.0041836244054138660431
				16:leaf=-0.0010721642756834626198
			8:[0_CVTE:CAPSULE.2<8.638797760009765625] yes=17,no=18,missing=17
				17:leaf=6.0563084844034165144e-05
				18:leaf=-0.0049972999840974807739
		4:[VOL<31.200000762939453125] yes=9,no=10,missing=9
			9:[3_CVTE:GLEASON.2<8.439586639404296875] yes=19,no=20,missing=19
				19:leaf=-0.0034482043702155351639
				20:leaf=-0.0093094715848565101624
			10:[10_ClusterTE:ClusterID94:DCAPS:VOL.2<8.6984767913818359375] yes=21,no=22,missing=21
				21:leaf=0.0032545318827033042908
				22:leaf=0.00077491125557571649551
	2:[11_NumCatTE:CAPSULE:DCAPS.2<8.72891998291015625] yes=5,no=6,missing=5
		5:[13_InteractionAdd:CAPSULE:GLEASON.2<5.5] yes=11,no=12,missing=11
			11:[4_CVTE:RACE.2<8.6576709747314453125] yes=23,no=24,missing=23
				23:leaf=0.0026572193019092082977
				24:leaf=-0.0025356255937367677689
			12:[4_CVTE:RACE.2<8.654811859130859375] yes=25,no=26,missing=25
				25:leaf=0.001329970196820795536
				26:leaf=0.0034628745634108781815
		6:[8_CVTE:DCAPS.2<8.6255674362182617188] yes=13,no=14,missing=13
			13:[2_CVTE:DPROS.2<8.3061208724975585938] yes=27,no=28,missing=27
				27:leaf=-0.0010430455440655350685
				28:leaf=0.0045957285910844802856
			14:[3_CVTE:GLEASON.2<8.8988170623779296875] yes=29,no=30,missing=29
				29:leaf=0.0010172021575272083282
				30:leaf=-0.0075459149666130542755
booster[61]:
0:[0_CVTE:CAPSULE.2<8.638797760009765625] yes=1,no=2,missing=1
	1:[10_ClusterTE:ClusterID94:DCAPS:VOL.2<8.6984767913818359375] yes=3,no=4,missing=3
		3:[11_NumCatTE:CAPSULE:DCAPS.2<8.72891998291015625] yes=7,no=8,missing=7
			7:[13_InteractionAdd:CAPSULE:GLEASON.2<9.5] yes=15,no=16,missing=15
				15:leaf=0.0032417525071650743484
				16:leaf=-0.0037561326753348112106
			8:[3_CVTE:GLEASON.2<8.8988170623779296875] yes=17,no=18,missing=17
				17:leaf=0.0018089669756591320038
				18:leaf=-0.0077207069844007492065
		4:[0_CVTE:CAPSULE.2<8.5312957763671875] yes=9,no=10,missing=9
			9:leaf=-0.011588370427489280701
			10:leaf=-0.0005993191152811050415
	2:[3_CVTE:GLEASON.2<8.5928440093994140625] yes=5,no=6,missing=5
		5:[3_CVTE:GLEASON.2<8.439586639404296875] yes=11,no=12,missing=11
			11:[14_CVTE:CAPSULE:DCAPS.2<8.5919513702392578125] yes=19,no=20,missing=19
				19:leaf=-0.0082804299890995025635
				20:leaf=2.7737183700082823634e-05
			12:[10_ClusterTE:ClusterID94:DCAPS:VOL.2<8.4513072967529296875] yes=21,no=22,missing=21
				21:leaf=-0.017759718000888824463
				22:leaf=-0.005990246310830116272
		6:[VOL<44.200000762939453125] yes=13,no=14,missing=13
			13:[10_ClusterTE:ClusterID94:DCAPS:VOL.2<8.4513072967529296875] yes=23,no=24,missing=23
				23:leaf=0.0047845295630395412445
				24:leaf=-0.00093401316553354263306
			14:[PSA<4.5999999046325683594] yes=25,no=26,missing=25
				25:leaf=-0.0037599776405841112137
				26:leaf=0.005744653753936290741
booster[62]:
0:[3_CVTE:GLEASON.2<8.5928440093994140625] yes=1,no=2,missing=1
	1:[0_CVTE:CAPSULE.2<8.65424346923828125] yes=3,no=4,missing=3
		3:[10_ClusterTE:ClusterID94:DCAPS:VOL.2<8.6563673019409179688] yes=7,no=8,missing=7
			7:[2_CVTE:DPROS.2<8.636260986328125] yes=15,no=16,missing=15
				15:leaf=-0.0039917710237205028534
				16:leaf=0.0011258274316787719727
			8:[2_CVTE:DPROS.2<8.4311084747314453125] yes=17,no=18,missing=17
				17:leaf=-0.006823832634836435318
				18:leaf=0.0030942752491682767868
		4:[3_CVTE:GLEASON.2<8.439586639404296875] yes=9,no=10,missing=9
			9:[10_ClusterTE:ClusterID94:DCAPS:VOL.2<8.6463346481323242188] yes=19,no=20,missing=19
				19:leaf=0.0027028764598071575165
				20:leaf=-0.0036579351872205734253
			10:[VOL<29.899999618530273438] yes=21,no=22,missing=21
				21:leaf=-0.011221035383641719818
				22:leaf=-0.00056816416326910257339
	2:[PSA<2.5] yes=5,no=6,missing=5
		5:[14_CVTE:CAPSULE:DCAPS.2<8.792705535888671875] yes=11,no=12,missing=11
			11:[4_CVTE:RACE.2<8.6727838516235351562] yes=23,no=24,missing=23
				23:leaf=0.0010097050108015537262
				24:leaf=-0.0025768247433006763458
			12:leaf=-0.010086862370371818542
		6:[11_NumCatTE:CAPSULE:DCAPS.2<8.72891998291015625] yes=13,no=14,missing=13
			13:[VOL<44.200000762939453125] yes=25,no=26,missing=25
				25:leaf=0.0014552572974935173988
				26:leaf=0.0053865164518356323242
			14:[14_CVTE:CAPSULE:DCAPS.2<8.5992860794067382812] yes=27,no=28,missing=27
				27:leaf=0.0017361841164529323578
				28:leaf=-0.0050013246946036815643
booster[63]:
0:[3_CVTE:GLEASON.2<8.5928440093994140625] yes=1,no=2,missing=1
	1:[3_CVTE:GLEASON.2<8.439586639404296875] yes=3,no=4,missing=3
		3:[1_CVTE:DCAPS.2<8.6806211471557617188] yes=7,no=8,missing=7
			7:[2_CVTE:DPROS.2<8.3061208724975585938] yes=15,no=16,missing=15
				15:leaf=0.007836386561393737793
				16:leaf=0.00042113303788937628269
			8:[VOL<23.600000381469726562] yes=17,no=18,missing=17
				17:leaf=-0.0050384895876049995422
				18:leaf=0.0013726877514272928238
		4:[11_NumCatTE:CAPSULE:DCAPS.2<8.6566143035888671875] yes=9,no=10,missing=9
			9:[1_CVTE:DCAPS.2<8.6806211471557617188] yes=19,no=20,missing=19
				19:leaf=-0.004175932612270116806
				20:leaf=0.0038631050847470760345
			10:[4_CVTE:RACE.2<8.6727838516235351562] yes=21,no=22,missing=21
				21:leaf=-0.0049943113699555397034
				22:leaf=-0.016875207424163818359
	2:[11_NumCatTE:CAPSULE:DCAPS.2<8.72891998291015625] yes=5,no=6,missing=5
		5:[3_CVTE:GLEASON.2<9.1947088241577148438] yes=11,no=12,missing=11
			11:[VOL<44.200000762939453125] yes=23,no=24,missing=23
				23:leaf=0.00069803220685571432114
				24:leaf=0.0057944124564528465271
			12:[PSA<37.700000762939453125] yes=25,no=26,missing=25
				25:leaf=0.0069102267734706401825
				26:leaf=0.002662346232682466507
		6:[8_CVTE:DCAPS.2<8.595806121826171875] yes=13,no=14,missing=13
			13:[1_CVTE:DCAPS.2<8.6377277374267578125] yes=27,no=28,missing=27
				27:leaf=0.0048990789800882339478
				28:leaf=-0.0010449599940329790115
			14:[2_CVTE:DPROS.2<8.9520082473754882812] yes=29,no=30,missing=29
				29:leaf=-0.004651382099837064743
				30:leaf=0.0023066853173077106476
booster[64]:
0:[0_CVTE:CAPSULE.2<8.5991725921630859375] yes=1,no=2,missing=1
	1:[PSA<3.7999999523162841797] yes=3,no=4,missing=3
		3:[3_CVTE:GLEASON.2<8.816192626953125] yes=7,no=8,missing=7
			7:[4_CVTE:RACE.2<8.6727838516235351562] yes=15,no=16,missing=15
				15:leaf=-0.0018624984659254550934
				16:leaf=0.0036077282857149839401
			8:leaf=-0.010615372098982334137
		4:[13_InteractionAdd:CAPSULE:GLEASON.2<9.5] yes=9,no=10,missing=9
			9:[2_CVTE:DPROS.2<8.8950328826904296875] yes=17,no=18,missing=17
				17:leaf=0.0046660285443067550659
				18:leaf=0.0010477413889020681381
			10:[1_CVTE:DCAPS.2<8.7439975738525390625] yes=19,no=20,missing=19
				19:leaf=-0.0071755480021238327026
				20:leaf=0.0019152800086885690689
	2:[3_CVTE:GLEASON.2<8.5928440093994140625] yes=5,no=6,missing=5
		5:[3_CVTE:GLEASON.2<8.4836893081665039062] yes=11,no=12,missing=11
			11:[1_CVTE:DCAPS.2<8.6806211471557617188] yes=21,no=22,missing=21
				21:leaf=0.00076264259405434131622
				22:leaf=-0.0034749007318168878555
			12:[14_CVTE:CAPSULE:DCAPS.2<8.5919513702392578125] yes=23,no=24,missing=23
				23:leaf=0.0012704252731055021286
				24:leaf=-0.010806552134454250336
		6:[2_CVTE:DPROS.2<8.70258331298828125] yes=13,no=14,missing=13
			13:[3_CVTE:GLEASON.2<9.3637952804565429688] yes=25,no=26,missing=25
				25:leaf=-0.00051753129810094833374
				26:leaf=-0.0071075153537094593048
			14:[12_TruncSVD:CAPSULE:DCAPS:VOL.5<0.44108334183692932129] yes=27,no=28,missing=27
				27:leaf=-0.0011778933694586157799
				28:leaf=0.0028632516041398048401
booster[65]:
0:[3_CVTE:GLEASON.2<8.5928440093994140625] yes=1,no=2,missing=1
	1:[0_CVTE:CAPSULE.2<8.65424346923828125] yes=3,no=4,missing=3
		3:[3_CVTE:GLEASON.2<8.245208740234375] yes=7,no=8,missing=7
			7:[12_TruncSVD:CAPSULE:DCAPS:VOL.5<0.5560588836669921875] yes=15,no=16,missing=15
				15:leaf=0.0064073181711137294769
				16:leaf=0.0017254709964618086815
			8:[2_CVTE:DPROS.2<8.636260986328125] yes=17,no=18,missing=17
				17:leaf=-0.002898530568927526474
				18:leaf=0.001433086697943508625
		4:[3_CVTE:GLEASON.2<8.439586639404296875] yes=9,no=10,missing=9
