Version 0.1.0
num_output_group: 1
base_margin: 9.6368055343627929688

booster[0]:
0:[6_RACE<0.5] yes=1,no=2,missing=1
	1:[0_CVTE:CAPSULE.0<9.680858612060546875] yes=3,no=4,missing=3
		3:leaf=0.004357502330094575882
		4:leaf=-0.021030152216553688049
	2:[12_TruncSVD:CAPSULE:DCAPS:VOL.1<0.63573694229125976562] yes=5,no=6,missing=5
		5:leaf=0.0014409185387194156647
		6:[10_ClusterTE:ClusterID94:DCAPS:VOL.0<9.5962696075439453125] yes=7,no=8,missing=7
			7:[1_CVTE:DCAPS.0<9.6042928695678710938] yes=13,no=14,missing=13
				13:leaf=0.0047926944680511951447
				14:leaf=-0.0006361082778312265873
			8:[2_CVTE:DPROS.0<9.6816148757934570312] yes=9,no=10,missing=9
				9:[14_CVTE:CAPSULE:DCAPS.0<9.6868448257446289062] yes=11,no=12,missing=11
					11:leaf=-0.0054999492131173610687
					12:leaf=0.0027763610705733299255
				10:leaf=0.00071057275636121630669
booster[1]:
0:[12_TruncSVD:CAPSULE:DCAPS:VOL.1<-0.13664123415946960449] yes=1,no=2,missing=1
	1:leaf=0.0041711013764142990112
	2:[3_CVTE:GLEASON.0<9.698329925537109375] yes=3,no=4,missing=3
		3:[6_RACE<0.5] yes=5,no=6,missing=5
			5:leaf=-0.021030152216553688049
			6:[3_CVTE:GLEASON.0<9.3570604324340820312] yes=7,no=8,missing=7
				7:leaf=0.0025072109419852495193
				8:[VOL<15.090000152587890625] yes=9,no=10,missing=9
					9:leaf=-0.00503691844642162323
					10:leaf=-0.00089311419287696480751
		4:[11_NumCatTE:CAPSULE:DCAPS.0<9.6598453521728515625] yes=11,no=12,missing=11
			11:[2_CVTE:DPROS.0<9.9081506729125976562] yes=13,no=14,missing=13
				13:leaf=0.00015858930419199168682
				14:leaf=0.00485453801229596138
			12:leaf=-0.0016098937485367059708
booster[2]:
0:[VOL<11.800000190734863281] yes=1,no=2,missing=1
	1:[12_TruncSVD:CAPSULE:DCAPS:VOL.1<0.63871908187866210938] yes=3,no=4,missing=3
		3:leaf=-0.012846317142248153687
		4:[1_CVTE:DCAPS.0<9.5732450485229492188] yes=5,no=6,missing=5
			5:leaf=0.0023291294928640127182
			6:[11_NumCatTE:CAPSULE:DCAPS.0<9.6598453521728515625] yes=7,no=8,missing=7
				7:[2_CVTE:DPROS.0<9.941951751708984375] yes=11,no=12,missing=11
					11:[2_CVTE:DPROS.0<9.462493896484375] yes=13,no=14,missing=13
						13:leaf=0.0035020341165363788605
						14:leaf=-0.0023572512436658143997
					12:leaf=0.00371982622891664505
				8:[8_CVTE:DCAPS.0<9.611904144287109375] yes=9,no=10,missing=9
					9:leaf=-0.00025406011263839900494
					10:leaf=-0.0065276045352220535278
	2:leaf=0.0011642859317362308502
booster[3]:
0:[3_CVTE:GLEASON.0<9.6411457061767578125] yes=1,no=2,missing=1
	1:[VOL<12.800000190734863281] yes=5,no=6,missing=5
		5:leaf=-0.0033098421990871429443
		6:[4_CVTE:RACE.0<9.669841766357421875] yes=7,no=8,missing=7
			7:leaf=0.0018882958684116601944
			8:leaf=-0.0030748019926249980927
	2:[2_CVTE:DPROS.0<9.9531841278076171875] yes=3,no=4,missing=3
		3:[PSA<3.5] yes=11,no=12,missing=11
			11:leaf=-0.0028714642394334077835
			12:[4_CVTE:RACE.0<9.621623992919921875] yes=13,no=14,missing=13
				13:leaf=-0.005163658875972032547
				14:leaf=0.001382211572490632534
		4:[11_NumCatTE:CAPSULE:DCAPS.0<9.700893402099609375] yes=9,no=10,missing=9
			9:leaf=0.005553450901061296463
			10:leaf=-0.0011974817607551813126
booster[4]:
0:[12_TruncSVD:CAPSULE:DCAPS:VOL.0<31.252386093139648438] yes=1,no=2,missing=1
	1:[10_ClusterTE:ClusterID94:DCAPS:VOL.0<9.5962696075439453125] yes=3,no=4,missing=3
		3:leaf=0.0013757082633674144745
		4:[2_CVTE:DPROS.0<9.6816148757934570312] yes=5,no=6,missing=5
			5:[8_CVTE:DCAPS.0<9.671916961669921875] yes=7,no=8,missing=7
				7:[PSA<16.100000381469726562] yes=13,no=14,missing=13
					13:leaf=0.00044499052455648779869
					14:leaf=-0.0049119163304567337036
				8:[PSA<4.5999999046325683594] yes=9,no=10,missing=9
					9:leaf=-0.015372217632830142975
					10:[PSA<23.399999618530273438] yes=11,no=12,missing=11
						11:leaf=-0.005493172910064458847
						12:leaf=0.0017150988569483160973
			6:leaf=0.00060530233895406126976
	2:leaf=0.0028320918790996074677
booster[5]:
0:[VOL<31] yes=1,no=2,missing=1
	1:[6_RACE<0.5] yes=3,no=4,missing=3
		3:[0_CVTE:CAPSULE.0<9.680858612060546875] yes=5,no=6,missing=5
			5:leaf=0.0020479797385632991791
			6:leaf=-0.020932633429765701294
		4:[3_CVTE:GLEASON.0<9.3570604324340820312] yes=7,no=8,missing=7
			7:leaf=0.0032140796538442373276
			8:[3_CVTE:GLEASON.0<9.6009979248046875] yes=9,no=10,missing=9
				9:leaf=-0.0037034677807241678238
				10:[2_CVTE:DPROS.0<9.5609445571899414062] yes=11,no=12,missing=11
					11:leaf=-0.0013892025453969836235
					12:[PSA<20.399999618530273438] yes=13,no=14,missing=13
						13:leaf=0.0035684539470821619034
						14:leaf=-0.0016990111907944083214
	2:leaf=0.0031533201690763235092
booster[6]:
0:[12_TruncSVD:CAPSULE:DCAPS:VOL.1<-0.3692493438720703125] yes=1,no=2,missing=1
	1:leaf=0.005129401572048664093
	2:[2_CVTE:DPROS.0<9.941951751708984375] yes=3,no=4,missing=3
		3:[0_CVTE:CAPSULE.0<9.6461582183837890625] yes=5,no=6,missing=5
			5:leaf=0.00059589539887383580208
			6:[6_RACE<0.5] yes=7,no=8,missing=7
				7:leaf=-0.020841872319579124451
				8:[VOL<8.8000001907348632812] yes=9,no=10,missing=9
					9:[11_NumCatTE:CAPSULE:DCAPS.0<9.6050662994384765625] yes=11,no=12,missing=11
						11:leaf=0.0015347644221037626266
						12:leaf=-0.0056367837823927402496
					10:[12_TruncSVD:CAPSULE:DCAPS:VOL.1<0.19139583408832550049] yes=13,no=14,missing=13
						13:leaf=-0.0047131315805017948151
						14:leaf=0.00085156364366412162781
		4:leaf=0.0018646856769919395447
booster[7]:
0:[2_CVTE:DPROS.0<9.941951751708984375] yes=1,no=2,missing=1
	1:[2_CVTE:DPROS.0<9.462493896484375] yes=3,no=4,missing=3
		3:leaf=0.0021380712278187274933
		4:[VOL<11.800000190734863281] yes=5,no=6,missing=5
			5:[11_NumCatTE:CAPSULE:DCAPS.0<9.6050662994384765625] yes=9,no=10,missing=9
				9:leaf=-0.00019969500135630369186
				10:[2_CVTE:DPROS.0<9.6816148757934570312] yes=11,no=12,missing=11
					11:leaf=-0.0067842635326087474823
					12:leaf=0.00066442316165193915367
			6:[6_RACE<0.5] yes=7,no=8,missing=7
				7:leaf=-0.020841872319579124451
				8:leaf=0.00065339065622538328171
	2:[3_CVTE:GLEASON.0<9.6411457061767578125] yes=13,no=14,missing=13
		13:leaf=-0.00047052957233972847462
		14:leaf=0.0043314765207469463348
booster[8]:
0:[2_CVTE:DPROS.0<9.941951751708984375] yes=1,no=2,missing=1
	1:[0_CVTE:CAPSULE.0<9.5955677032470703125] yes=3,no=4,missing=3
		3:[PSA<12.699999809265136719] yes=9,no=10,missing=9
			9:leaf=0.0036788417492061853409
			10:[3_CVTE:GLEASON.0<9.9099254608154296875] yes=11,no=12,missing=11
				11:leaf=0.0019927762914448976517
				12:leaf=-0.005500459577888250351
		4:[12_TruncSVD:CAPSULE:DCAPS:VOL.0<0.037719029933214187622] yes=5,no=6,missing=5
			5:leaf=-0.0051548904739320278168
			6:leaf=-0.00088710349518805742264
	2:[14_CVTE:CAPSULE:DCAPS.0<9.6863164901733398438] yes=7,no=8,missing=7
		7:leaf=0.0031360136345028877258
		8:[10_ClusterTE:ClusterID94:DCAPS:VOL.0<9.6342716217041015625] yes=13,no=14,missing=13
			13:leaf=-0.0057188742794096469879
			14:leaf=0.0025981878861784934998
booster[9]:
0:[3_CVTE:GLEASON.0<9.6411457061767578125] yes=1,no=2,missing=1
	1:[6_RACE<0.5] yes=3,no=4,missing=3
		3:leaf=-0.020737661048769950867
		4:[3_CVTE:GLEASON.0<9.4035959243774414062] yes=5,no=6,missing=5
			5:[2_CVTE:DPROS.0<10.024127006530761719] yes=11,no=12,missing=11
				11:leaf=0.0038997270166873931885
				12:leaf=-0.0026702051982283592224
			6:[14_CVTE:CAPSULE:DCAPS.0<9.5789270401000976562] yes=9,no=10,missing=9
				9:[2_CVTE:DPROS.0<9.5609445571899414062] yes=13,no=14,missing=13
					13:leaf=-0.010720039717853069305
					14:leaf=-0.0011918052332475781441
				10:leaf=-0.0012147830566391348839
	2:[2_CVTE:DPROS.0<9.941951751708984375] yes=7,no=8,missing=7
		7:leaf=0.00064665882382541894913
		8:leaf=0.0041804076172411441803
booster[10]:
0:[2_CVTE:DPROS.0<9.6816148757934570312] yes=1,no=2,missing=1
	1:[2_CVTE:DPROS.0<9.462493896484375] yes=3,no=4,missing=3
		3:leaf=0.0013892364222556352615
		4:[6_RACE<0.5] yes=5,no=6,missing=5
			5:leaf=-0.02068359963595867157
			6:[12_TruncSVD:CAPSULE:DCAPS:VOL.1<0.54066395759582519531] yes=7,no=8,missing=7
				7:leaf=0.0013556475751101970673
				8:[9_CVCatNumEnc:CAPSULE:DCAPS:PSA.amin.0<0.44999998807907104492] yes=9,no=10,missing=9
					9:leaf=-0.0067947781644761562347
					10:leaf=-0.0021144975908100605011
	2:[3_CVTE:GLEASON.0<9.6403255462646484375] yes=11,no=12,missing=11
		11:[1_CVTE:DCAPS.0<9.6042928695678710938] yes=13,no=14,missing=13
			13:leaf=-0.0032262306194752454758
			14:leaf=0.0016240101540461182594
		12:leaf=0.0030866351444274187088
booster[11]:
0:[2_CVTE:DPROS.0<9.6816148757934570312] yes=1,no=2,missing=1
	1:[6_RACE<0.5] yes=3,no=4,missing=3
		3:leaf=-0.02068359963595867157
		4:[12_TruncSVD:CAPSULE:DCAPS:VOL.1<0.54066395759582519531] yes=5,no=6,missing=5
			5:[10_ClusterTE:ClusterID94:DCAPS:VOL.0<9.636875152587890625] yes=11,no=12,missing=11
				11:leaf=0.0020653500687330961227
				12:[13_InteractionAdd:CAPSULE:GLEASON<6.5] yes=13,no=14,missing=13
					13:leaf=0.0021505688782781362534
					14:leaf=-0.0085049327462911605835
			6:[2_CVTE:DPROS.0<9.462493896484375] yes=7,no=8,missing=7
				7:leaf=0.0013242920394986867905
				8:[12_TruncSVD:CAPSULE:DCAPS:VOL.1<1.3046334981918334961] yes=9,no=10,missing=9
					9:leaf=-0.0069266897626221179962
					10:leaf=-0.0023041719105094671249
	2:leaf=0.00173108675517141819
booster[12]:
0:[3_CVTE:GLEASON.0<9.6411457061767578125] yes=1,no=2,missing=1
	1:[6_RACE<0.5] yes=3,no=4,missing=3
		3:leaf=-0.020580181851983070374
		4:[VOL<3.7000000476837158203] yes=5,no=6,missing=5
			5:[3_CVTE:GLEASON.0<9.3570604324340820312] yes=7,no=8,missing=7
				7:leaf=0.002789236605167388916
				8:[1_CVTE:DCAPS.0<9.5732450485229492188] yes=11,no=12,missing=11
					11:leaf=0.00099567952565848827362
					12:[3_CVTE:GLEASON.0<9.4183473587036132812] yes=13,no=14,missing=13
						13:leaf=-0.010209689848124980927
						14:leaf=-0.0036717667244374752045
			6:leaf=0.00056132301688194274902
	2:[2_CVTE:DPROS.0<9.941951751708984375] yes=9,no=10,missing=9
		9:leaf=0.00010410939285065978765
		10:leaf=0.0039071785286068916321
booster[13]:
0:[2_CVTE:DPROS.0<9.6816148757934570312] yes=1,no=2,missing=1
	1:[0_CVTE:CAPSULE.0<9.5955677032470703125] yes=3,no=4,missing=3
		3:leaf=0.002080920850858092308
		4:[12_TruncSVD:CAPSULE:DCAPS:VOL.1<0.63573694229125976562] yes=5,no=6,missing=5
			5:[6_RACE<0.5] yes=7,no=8,missing=7
				7:leaf=-0.020580181851983070374
				8:leaf=0.00076660909689962863922
			6:[2_CVTE:DPROS.0<9.462493896484375] yes=9,no=10,missing=9
				9:leaf=0.00042845247662626206875
				10:[PSA<1.7999999523162841797] yes=11,no=12,missing=11
					11:leaf=0.0021380260586738586426
					12:[PSA<17.700000762939453125] yes=13,no=14,missing=13
						13:leaf=-0.0072163171134889125824
						14:leaf=-0.0011087881866842508316
	2:leaf=0.001340660732239484787
booster[14]:
0:[VOL<31] yes=1,no=2,missing=1
	1:[3_CVTE:GLEASON.0<9.3570604324340820312] yes=3,no=4,missing=3
		3:leaf=0.0049324934370815753937
		4:[3_CVTE:GLEASON.0<9.6009979248046875] yes=5,no=6,missing=5
			5:[6_RACE<0.5] yes=7,no=8,missing=7
				7:leaf=-0.020477280020713806152
				8:[4_CVTE:RACE.0<9.6490869522094726562] yes=9,no=10,missing=9
					9:leaf=0.00033980695297941565514
					10:[1_CVTE:DCAPS.0<9.5732450485229492188] yes=11,no=12,missing=11
						11:[2_CVTE:DPROS.0<9.54106903076171875] yes=13,no=14,missing=13
							13:leaf=0.0053690797649323940277
							14:leaf=-0.0040450226515531539917
						12:leaf=-0.0061038606800138950348
			6:leaf=9.7382086096331477165e-05
	2:leaf=0.0032864864915609359741
booster[15]:
0:[6_RACE<0.5] yes=1,no=2,missing=1
	1:[0_CVTE:CAPSULE.0<9.680858612060546875] yes=3,no=4,missing=3
		3:leaf=0.0020233748946338891983
		4:leaf=-0.020477280020713806152
	2:[2_CVTE:DPROS.0<9.941951751708984375] yes=5,no=6,missing=5
		5:[0_CVTE:CAPSULE.0<9.5955677032470703125] yes=7,no=8,missing=7
			7:[10_ClusterTE:ClusterID94:DCAPS:VOL.0<9.5962696075439453125] yes=9,no=10,missing=9
				9:leaf=0.0064233546145260334015
				10:leaf=0.00049016380216926336288
			8:[12_TruncSVD:CAPSULE:DCAPS:VOL.1<0.55557471513748168945] yes=11,no=12,missing=11
				11:leaf=0.00045365549158304929733
				12:[2_CVTE:DPROS.0<9.4316959381103515625] yes=13,no=14,missing=13
					13:leaf=0.0020396118052303791046
					14:leaf=-0.0037247433792799711227
		6:leaf=0.0023237420246005058289
booster[16]:
0:[6_RACE<0.5] yes=1,no=2,missing=1
	1:[0_CVTE:CAPSULE.0<9.680858612060546875] yes=3,no=4,missing=3
		3:leaf=0.0020180726423859596252
		4:leaf=-0.020374894142150878906
	2:[2_CVTE:DPROS.0<9.941951751708984375] yes=5,no=6,missing=5
		5:[VOL<29.799999237060546875] yes=7,no=8,missing=7
			7:[10_ClusterTE:ClusterID94:DCAPS:VOL.0<9.5962696075439453125] yes=9,no=10,missing=9
				9:[13_InteractionAdd:CAPSULE:GLEASON<6.5] yes=11,no=12,missing=11
					11:leaf=-0.0023291537072509527206
					12:leaf=0.0034671076573431491852
				10:[12_TruncSVD:CAPSULE:DCAPS:VOL.1<0.7345040440559387207] yes=13,no=14,missing=13
					13:leaf=-0.00014107972674537450075
					14:leaf=-0.0031680488027632236481
			8:leaf=0.0021367776207625865936
		6:leaf=0.0020639551803469657898
booster[17]:
0:[6_RACE<0.5] yes=1,no=2,missing=1
	1:leaf=-0.020374894142150878906
	2:[0_CVTE:CAPSULE.0<9.5955677032470703125] yes=3,no=4,missing=3
		3:leaf=0.001925859600305557251
		4:[2_CVTE:DPROS.0<9.6816148757934570312] yes=5,no=6,missing=5
			5:[12_TruncSVD:CAPSULE:DCAPS:VOL.1<0.63573694229125976562] yes=7,no=8,missing=7
				7:leaf=0.00073639565380290150642
				8:[2_CVTE:DPROS.0<9.462493896484375] yes=9,no=10,missing=9
					9:leaf=0.00098242214880883693695
					10:[9_CVCatNumEnc:CAPSULE:DCAPS:PSA.amin.0<0.44999998807907104492] yes=11,no=12,missing=11
						11:[14_CVTE:CAPSULE:DCAPS.0<9.63765716552734375] yes=13,no=14,missing=13
							13:leaf=-0.0029990174807608127594
							14:leaf=-0.011929197236895561218
						12:leaf=-0.0037280721589922904968
			6:leaf=0.0013927505351603031158
booster[18]:
0:[2_CVTE:DPROS.0<9.941951751708984375] yes=1,no=2,missing=1
	1:[2_CVTE:DPROS.0<9.4316959381103515625] yes=3,no=4,missing=3
		3:leaf=0.0022266658488661050797
		4:[6_RACE<0.5] yes=5,no=6,missing=5
			5:leaf=-0.020273020491003990173
			6:[VOL<11.800000190734863281] yes=7,no=8,missing=7
				7:leaf=-0.0031390828080475330353
				8:[PSA<14.800000190734863281] yes=9,no=10,missing=9
					9:[2_CVTE:DPROS.0<9.8450040817260742188] yes=11,no=12,missing=11
						11:leaf=0.0025084496010094881058
						12:leaf=-0.0071156285703182220459
					10:[2_CVTE:DPROS.0<9.488552093505859375] yes=13,no=14,missing=13
						13:leaf=-0.0075190579518675804138
						14:leaf=0.00025001526228152215481
	2:leaf=0.0027486935723572969437
booster[19]:
0:[0_CVTE:CAPSULE.0<9.5955677032470703125] yes=1,no=2,missing=1
	1:leaf=0.0021621589548885822296
	2:[12_TruncSVD:CAPSULE:DCAPS:VOL.1<-0.3692493438720703125] yes=3,no=4,missing=3
		3:leaf=0.0037415085826069116592
		4:[2_CVTE:DPROS.0<9.6816148757934570312] yes=5,no=6,missing=5
			5:[12_TruncSVD:CAPSULE:DCAPS:VOL.1<0.63573694229125976562] yes=7,no=8,missing=7
				7:[10_ClusterTE:ClusterID94:DCAPS:VOL.0<9.636875152587890625] yes=11,no=12,missing=11
					11:leaf=0.001615449204109609127
					12:leaf=-0.0059600714594125747681
				8:[2_CVTE:DPROS.0<9.462493896484375] yes=9,no=10,missing=9
					9:leaf=0.0011706455843523144722
					10:[PSA<1.7999999523162841797] yes=13,no=14,missing=13
						13:leaf=0.0028630243614315986633
						14:leaf=-0.0066938707605004310608
			6:leaf=0.00041366516961716115475
booster[20]:
0:[0_CVTE:CAPSULE.0<9.5955677032470703125] yes=1,no=2,missing=1
	1:leaf=0.0021567903459072113037
	2:[2_CVTE:DPROS.0<9.941951751708984375] yes=3,no=4,missing=3
		3:[PSA<17.200000762939453125] yes=5,no=6,missing=5
			5:[6_RACE<0.5] yes=7,no=8,missing=7
				7:leaf=-0.020226376131176948547
				8:[12_TruncSVD:CAPSULE:DCAPS:VOL.1<0.63573694229125976562] yes=9,no=10,missing=9
					9:leaf=0.00068446673685684800148
					10:[PSA<13] yes=11,no=12,missing=11
						11:[1_CVTE:DCAPS.0<9.5732450485229492188] yes=13,no=14,missing=13
							13:leaf=0.0022401749156415462494
							14:leaf=-0.0040319943800568580627
						12:leaf=-0.012569813057780265808
			6:leaf=0.0008275432046502828598
		4:leaf=0.0022781952284276485443
booster[21]:
0:[3_CVTE:GLEASON.0<9.6411457061767578125] yes=1,no=2,missing=1
	1:[6_RACE<0.5] yes=3,no=4,missing=3
		3:leaf=-0.020226376131176948547
		4:[3_CVTE:GLEASON.0<9.3570604324340820312] yes=5,no=6,missing=5
			5:leaf=0.0024507832713425159454
			6:[12_TruncSVD:CAPSULE:DCAPS:VOL.1<0.0035200563725084066391] yes=7,no=8,missing=7
				7:leaf=0.0023062042891979217529
				8:[4_CVTE:RACE.0<9.6490869522094726562] yes=9,no=10,missing=9
					9:leaf=0.00058076903223991394043
					10:leaf=-0.0040972684510052204132
	2:[VOL<34] yes=11,no=12,missing=11
		11:[2_CVTE:DPROS.0<9.5609445571899414062] yes=13,no=14,missing=13
			13:leaf=-0.00072656758129596710205
			14:leaf=0.0018857298418879508972
		12:leaf=0.0040510618127882480621
booster[22]:
0:[VOL<29.799999237060546875] yes=1,no=2,missing=1
	1:[3_CVTE:GLEASON.0<9.3570604324340820312] yes=3,no=4,missing=3
		3:leaf=0.0032615163363516330719
		4:[3_CVTE:GLEASON.0<9.61075592041015625] yes=5,no=6,missing=5
			5:[10_ClusterTE:ClusterID94:DCAPS:VOL.0<9.636875152587890625] yes=7,no=8,missing=7
				7:[4_CVTE:RACE.0<9.6490869522094726562] yes=11,no=12,missing=11
					11:leaf=-0.00026844500098377466202
					12:[1_CVTE:DCAPS.0<9.5732450485229492188] yes=13,no=14,missing=13
						13:leaf=-0.00037970647099427878857
						14:leaf=-0.0058391303755342960358
				8:leaf=0.003620290663093328476
			6:[12_TruncSVD:CAPSULE:DCAPS:VOL.1<0.1794672161340713501] yes=9,no=10,missing=9
				9:leaf=-0.0051366826519370079041
				10:leaf=0.00031459305319003760815
	2:leaf=0.0026909771841019392014
booster[23]:
0:[VOL<31] yes=1,no=2,missing=1
	1:[3_CVTE:GLEASON.0<9.61075592041015625] yes=3,no=4,missing=3
		3:[6_RACE<0.5] yes=5,no=6,missing=5
			5:leaf=-0.020125243812799453735
			6:[3_CVTE:GLEASON.0<9.3570604324340820312] yes=7,no=8,missing=7
				7:leaf=0.0027414490468800067902
				8:[9_CVCatNumEnc:CAPSULE:DCAPS:RACE.amin.1<0.5] yes=9,no=10,missing=9
					9:leaf=-0.0019208064768463373184
					10:leaf=-0.0085587408393621444702
		4:[2_CVTE:DPROS.0<9.5609445571899414062] yes=11,no=12,missing=11
			11:[14_CVTE:CAPSULE:DCAPS.0<9.5736722946166992188] yes=13,no=14,missing=13
				13:leaf=0.0029107187874615192413
				14:leaf=-0.0015270372387021780014
			12:leaf=0.0024387855082750320435
	2:leaf=0.0028738253749907016754
booster[24]:
0:[VOL<31] yes=1,no=2,missing=1
	1:[12_TruncSVD:CAPSULE:DCAPS:VOL.1<0.18841367959976196289] yes=3,no=4,missing=3
		3:leaf=-0.0041306414641439914703
		4:[1_CVTE:DCAPS.0<9.5732450485229492188] yes=5,no=6,missing=5
			5:leaf=0.0027176791336387395859
			6:[12_TruncSVD:CAPSULE:DCAPS:VOL.1<0.25998538732528686523] yes=7,no=8,missing=7
				7:leaf=0.0057765529491007328033
				8:[12_TruncSVD:CAPSULE:DCAPS:VOL.1<0.27489617466926574707] yes=9,no=10,missing=9
					9:leaf=-0.011640965938568115234
					10:[2_CVTE:DPROS.0<9.697200775146484375] yes=11,no=12,missing=11
						11:[3_CVTE:GLEASON.0<9.4183473587036132812] yes=13,no=14,missing=13
							13:leaf=-0.0057658790610730648041
							14:leaf=-0.00059434620197862386703
						12:leaf=0.0015009796479716897011
	2:leaf=0.0028770880308002233505
booster[25]:
0:[0_CVTE:CAPSULE.0<9.5955677032470703125] yes=1,no=2,missing=1
	1:[14_CVTE:CAPSULE:DCAPS.0<9.6863164901733398438] yes=7,no=8,missing=7
		7:leaf=0.0029813316650688648224
		8:[3_CVTE:GLEASON.0<9.3570604324340820312] yes=11,no=12,missing=11
			11:leaf=0.0059375348500907421112
			12:[PSA<21.200000762939453125] yes=13,no=14,missing=13
				13:leaf=-0.0057343035005033016205
				14:leaf=0.002646040869876742363
	2:[3_CVTE:GLEASON.0<9.6411457061767578125] yes=3,no=4,missing=3
		3:[6_RACE<0.5] yes=5,no=6,missing=5
			5:leaf=-0.020074259489774703979
			6:[10_ClusterTE:ClusterID94:DCAPS:VOL.0<9.40560150146484375] yes=9,no=10,missing=9
				9:leaf=-0.0073071452789008617401
				10:leaf=-0.0015054575633257627487
		4:leaf=0.00027658673934638500214
booster[26]:
0:[6_RACE<0.5] yes=1,no=2,missing=1
	1:[0_CVTE:CAPSULE.0<9.680858612060546875] yes=3,no=4,missing=3
		3:leaf=0.0020924615673720836639
		4:leaf=-0.019994970411062240601
	2:[12_TruncSVD:CAPSULE:DCAPS:VOL.1<0.0035200563725084066391] yes=5,no=6,missing=5
		5:leaf=0.002906949259340763092
		6:[12_TruncSVD:CAPSULE:DCAPS:VOL.1<0.093340657651424407959] yes=7,no=8,missing=7
			7:[1_CVTE:DCAPS.0<9.6771907806396484375] yes=9,no=10,missing=9
				9:leaf=-0.0084738451987504959106
				10:leaf=0.0056905201636254787445
			8:[11_NumCatTE:CAPSULE:DCAPS.0<9.6598453521728515625] yes=11,no=12,missing=11
				11:[2_CVTE:DPROS.0<9.941951751708984375] yes=13,no=14,missing=13
					13:leaf=-5.4293748689815402031e-05
					14:leaf=0.0044484632089734077454
				12:leaf=-0.0013560819206759333611
booster[27]:
0:[VOL<31] yes=1,no=2,missing=1
	1:[3_CVTE:GLEASON.0<9.6009979248046875] yes=3,no=4,missing=3
		3:[6_RACE<0.5] yes=5,no=6,missing=5
			5:leaf=-0.019994970411062240601
			6:[3_CVTE:GLEASON.0<9.3570604324340820312] yes=9,no=10,missing=9
				9:leaf=0.002444229787215590477
				10:[4_CVTE:RACE.0<9.6490869522094726562] yes=11,no=12,missing=11
					11:leaf=0.00026202292065136134624
					12:leaf=-0.0049362499266862869263
		4:[10_ClusterTE:ClusterID94:DCAPS:VOL.0<9.5173807144165039062] yes=7,no=8,missing=7
			7:leaf=0.003287120722234249115
			8:[14_CVTE:CAPSULE:DCAPS.0<9.5789270401000976562] yes=13,no=14,missing=13
				13:leaf=0.0021189269609749317169
				14:leaf=-0.0013801393797621130943
	2:leaf=0.0027899136766791343689
booster[28]:
0:[3_CVTE:GLEASON.0<9.698329925537109375] yes=1,no=2,missing=1
	1:[6_RACE<0.5] yes=3,no=4,missing=3
		3:leaf=-0.019894998520612716675
		4:[VOL<15.090000152587890625] yes=5,no=6,missing=5
			5:leaf=-0.0036531360819935798645
			6:leaf=0.0003289208398200571537
	2:[2_CVTE:DPROS.0<9.9531841278076171875] yes=7,no=8,missing=7
		7:[9_CVCatNumEnc:CAPSULE:DCAPS:RACE.amin.1<0.5] yes=9,no=10,missing=9
			9:[3_CVTE:GLEASON.0<9.8712568283081054688] yes=11,no=12,missing=11
				11:leaf=0.00041440135100856423378
				12:leaf=-0.0039705699309706687927
			10:[0_CVTE:CAPSULE.0<9.6461582183837890625] yes=13,no=14,missing=13
				13:leaf=0.0047426675446331501007
				14:leaf=-0.00010422969353385269642
		8:leaf=0.0041041490621864795685
booster[29]:
0:[3_CVTE:GLEASON.0<9.698329925537109375] yes=1,no=2,missing=1
	1:[6_RACE<0.5] yes=3,no=4,missing=3
		3:leaf=-0.019894998520612716675
		4:[3_CVTE:GLEASON.0<9.3570604324340820312] yes=5,no=6,missing=5
			5:leaf=0.0030457903631031513214
			6:[VOL<3.7000000476837158203] yes=7,no=8,missing=7
				7:[2_CVTE:DPROS.0<10.0171661376953125] yes=11,no=12,missing=11
					11:[10_ClusterTE:ClusterID94:DCAPS:VOL.0<9.5962696075439453125] yes=13,no=14,missing=13
						13:leaf=-0.002641826169565320015
						14:leaf=-0.0079692853614687919617
					12:leaf=0.002666444750502705574
				8:leaf=-0.00028353781090117990971
	2:[VOL<35] yes=9,no=10,missing=9
		9:leaf=0.00066867924761027097702
		10:leaf=0.0041590416803956031799
booster[30]:
0:[6_RACE<0.5] yes=1,no=2,missing=1
	1:[0_CVTE:CAPSULE.0<9.680858612060546875] yes=3,no=4,missing=3
		3:leaf=0.0020654844120144844055
		4:leaf=-0.019795522093772888184
	2:[3_CVTE:GLEASON.0<9.6411457061767578125] yes=5,no=6,missing=5
		5:[3_CVTE:GLEASON.0<9.3570604324340820312] yes=7,no=8,missing=7
			7:leaf=0.0025339550338685512543
			8:[VOL<15.090000152587890625] yes=9,no=10,missing=9
				9:leaf=-0.0041057695634663105011
				10:leaf=-0.00016435611178167164326
		6:[VOL<35] yes=11,no=12,missing=11
			11:[10_ClusterTE:ClusterID94:DCAPS:VOL.0<9.5173807144165039062] yes=13,no=14,missing=13
				13:leaf=0.0032869200222194194794
				14:leaf=-0.00057254632702097296715
			12:leaf=0.0045542917214334011078
booster[31]:
0:[2_CVTE:DPROS.0<9.941951751708984375] yes=1,no=2,missing=1
	1:[VOL<33.799999237060546875] yes=3,no=4,missing=3
		3:[2_CVTE:DPROS.0<9.462493896484375] yes=5,no=6,missing=5
			5:leaf=0.0011343765072524547577
			6:[6_RACE<0.5] yes=7,no=8,missing=7
				7:[0_CVTE:CAPSULE.0<9.680858612060546875] yes=13,no=14,missing=13
					13:leaf=0.0020654844120144844055
					14:leaf=-0.019795522093772888184
				8:[12_TruncSVD:CAPSULE:DCAPS:VOL.1<0.55557471513748168945] yes=9,no=10,missing=9
					9:leaf=0.00086139660561457276344
					10:[PSA<17.700000762939453125] yes=11,no=12,missing=11
						11:leaf=-0.0045295236632227897644
						12:leaf=-0.00017267400107812136412
		4:leaf=0.0031894745770841836929
	2:leaf=0.0017744335345923900604
booster[32]:
0:[12_TruncSVD:CAPSULE:DCAPS:VOL.1<-0.13664123415946960449] yes=1,no=2,missing=1
	1:leaf=0.0035884694661945104599
	2:[10_ClusterTE:ClusterID94:DCAPS:VOL.0<9.5962696075439453125] yes=3,no=4,missing=3
		3:[1_CVTE:DCAPS.0<9.6042928695678710938] yes=5,no=6,missing=5
			5:leaf=0.0037113337311893701553
			6:[11_NumCatTE:CAPSULE:DCAPS.0<9.6598453521728515625] yes=7,no=8,missing=7
				7:leaf=0.0021705706603825092316
				8:[8_CVTE:DCAPS.0<9.611904144287109375] yes=9,no=10,missing=9
					9:leaf=0.00056513678282499313354
					10:leaf=-0.0072534154169261455536
		4:[12_TruncSVD:CAPSULE:DCAPS:VOL.0<0.057867873460054397583] yes=11,no=12,missing=11
			11:leaf=-0.0037317289970815181732
			12:[12_TruncSVD:CAPSULE:DCAPS:VOL.1<0.27489617466926574707] yes=13,no=14,missing=13
				13:leaf=-0.0031218191143125295639
				14:leaf=0.00052932481048628687859
booster[33]:
0:[0_CVTE:CAPSULE.0<9.5955677032470703125] yes=1,no=2,missing=1
	1:leaf=0.0017927439184859395027
	2:[2_CVTE:DPROS.0<9.941951751708984375] yes=3,no=4,missing=3
		3:[3_CVTE:GLEASON.0<9.61075592041015625] yes=5,no=6,missing=5
			5:[9_CVCatNumEnc:CAPSULE:DCAPS:RACE.amin.1<0.5] yes=7,no=8,missing=7
				7:leaf=-0.0018786747241392731667
				8:[4_CVTE:RACE.0<9.6364612579345703125] yes=9,no=10,missing=9
					9:leaf=0.0037778711412101984024
					10:leaf=-0.014030111953616142273
			6:[9_CVCatNumEnc:CAPSULE:DCAPS:RACE.amin.1<0.5] yes=11,no=12,missing=11
				11:[3_CVTE:GLEASON.0<9.8712568283081054688] yes=13,no=14,missing=13
					13:leaf=-0.00086340447887778282166
					14:leaf=-0.0053888987749814987183
				12:leaf=0.0015573647106066346169
		4:leaf=0.0018872815417125821114
booster[34]:
0:[VOL<29.799999237060546875] yes=1,no=2,missing=1
	1:[0_CVTE:CAPSULE.0<9.6352205276489257812] yes=3,no=4,missing=3
		3:leaf=0.0010058940388262271881
		4:[2_CVTE:DPROS.0<9.6816148757934570312] yes=5,no=6,missing=5
			5:[12_TruncSVD:CAPSULE:DCAPS:VOL.1<0.63573694229125976562] yes=7,no=8,missing=7
				7:[VOL<25] yes=11,no=12,missing=11
					11:leaf=0.0020722101908177137375
					12:leaf=-0.0085818022489547729492
				8:[2_CVTE:DPROS.0<9.462493896484375] yes=9,no=10,missing=9
					9:leaf=0.00063966249581426382065
					10:[11_NumCatTE:CAPSULE:DCAPS.0<9.5868806838989257812] yes=13,no=14,missing=13
						13:leaf=-0.00064713833853602409363
						14:leaf=-0.0074758506380021572113
			6:leaf=0.00050043169176205992699
	2:leaf=0.0026407127734273672104
booster[35]:
0:[3_CVTE:GLEASON.0<9.6411457061767578125] yes=1,no=2,missing=1
	1:[6_RACE<0.5] yes=3,no=4,missing=3
		3:leaf=-0.019653664901852607727
		4:[14_CVTE:CAPSULE:DCAPS.0<9.6863164901733398438] yes=11,no=12,missing=11
			11:[3_CVTE:GLEASON.0<9.5228557586669921875] yes=13,no=14,missing=13
				13:leaf=0.0013642184203490614891
				14:leaf=-0.0033214592840522527695
			12:leaf=-0.0041731339879333972931
	2:[2_CVTE:DPROS.0<9.9081506729125976562] yes=5,no=6,missing=5
		5:[9_CVCatNumEnc:CAPSULE:DCAPS:RACE.amin.1<0.5] yes=7,no=8,missing=7
			7:[3_CVTE:GLEASON.0<9.9099254608154296875] yes=9,no=10,missing=9
				9:leaf=-0.0003587128885556012392
				10:leaf=-0.0050839553587138652802
			8:leaf=0.0023401591461151838303
		6:leaf=0.0030942042358219623566
booster[36]:
0:[VOL<29.799999237060546875] yes=1,no=2,missing=1
	1:[2_CVTE:DPROS.0<9.941951751708984375] yes=3,no=4,missing=3
		3:[2_CVTE:DPROS.0<9.462493896484375] yes=5,no=6,missing=5
			5:leaf=0.00085727509576827287674
			6:[PSA<9.3000001907348632812] yes=9,no=10,missing=9
				9:[8_CVTE:DCAPS.0<9.671916961669921875] yes=11,no=12,missing=11
					11:leaf=-0.0022698384709656238556
					12:[2_CVTE:DPROS.0<9.488552093505859375] yes=13,no=14,missing=13
						13:leaf=0.0010933303274214267731
						14:leaf=-0.012717175297439098358
				10:leaf=-0.0010718908160924911499
		4:[11_NumCatTE:CAPSULE:DCAPS.0<9.6598453521728515625] yes=7,no=8,missing=7
			7:leaf=0.0037130278069525957108
			8:leaf=-0.0012506396742537617683
	2:leaf=0.0018141032196581363678
booster[37]:
0:[VOL<31] yes=1,no=2,missing=1
	1:[3_CVTE:GLEASON.0<9.61075592041015625] yes=3,no=4,missing=3
		3:[6_RACE<0.5] yes=5,no=6,missing=5
			5:leaf=-0.019609713926911354065
			6:[3_CVTE:GLEASON.0<9.3570604324340820312] yes=7,no=8,missing=7
				7:leaf=0.0020940129179507493973
				8:[4_CVTE:RACE.0<9.6490869522094726562] yes=11,no=12,missing=11
					11:leaf=0.00058307545259594917297
					12:[1_CVTE:DCAPS.0<9.5732450485229492188] yes=13,no=14,missing=13
						13:leaf=0.0010285230819135904312
						14:leaf=-0.0049545615911483764648
		4:[10_ClusterTE:ClusterID94:DCAPS:VOL.0<9.5962696075439453125] yes=9,no=10,missing=9
			9:leaf=0.0030205440707504749298
			10:leaf=-0.00032450782600790262222
	2:leaf=0.0027945607434958219528
booster[38]:
0:[VOL<29.799999237060546875] yes=1,no=2,missing=1
	1:[12_TruncSVD:CAPSULE:DCAPS:VOL.1<0.10193117707967758179] yes=3,no=4,missing=3
		3:[4_CVTE:RACE.0<9.637477874755859375] yes=5,no=6,missing=5
			5:leaf=0.0055163693614304065704
			6:leaf=-0.0088533014059066772461
		4:[1_CVTE:DCAPS.0<9.628055572509765625] yes=7,no=8,missing=7
			7:leaf=0.00092689850134775042534
			8:[PSA<9.8999996185302734375] yes=9,no=10,missing=9
				9:[6_RACE<0.5] yes=11,no=12,missing=11
					11:leaf=-0.01952889561653137207
					12:[4_CVTE:RACE.0<9.678497314453125] yes=13,no=14,missing=13
						13:leaf=-0.0012171651469543576241
						14:leaf=-0.0075950231403112411499
				10:leaf=0.00037204223917797207832
	2:leaf=0.0023774609435349702835
booster[39]:
0:[12_TruncSVD:CAPSULE:DCAPS:VOL.1<-0.0352479591965675354] yes=1,no=2,missing=1
	1:leaf=0.0033457803074270486832
	2:[6_RACE<0.5] yes=3,no=4,missing=3
		3:[0_CVTE:CAPSULE.0<9.680858612060546875] yes=5,no=6,missing=5
			5:leaf=0.0043496321886777877808
			6:leaf=-0.01952889561653137207
		4:[3_CVTE:GLEASON.0<9.3570604324340820312] yes=7,no=8,missing=7
			7:leaf=0.0031067514792084693909
			8:[3_CVTE:GLEASON.0<9.698329925537109375] yes=9,no=10,missing=9
				9:[VOL<15.090000152587890625] yes=13,no=14,missing=13
					13:leaf=-0.0042638801969587802887
					14:leaf=-0.00058264948893338441849
				10:[2_CVTE:DPROS.0<9.941951751708984375] yes=11,no=12,missing=11
					11:leaf=-0.00051667582010850310326
					12:leaf=0.0026897110510617494583
booster[40]:
0:[6_RACE<0.5] yes=1,no=2,missing=1
	1:[0_CVTE:CAPSULE.0<9.680858612060546875] yes=3,no=4,missing=3
		3:leaf=0.0043378281407058238983
		4:leaf=-0.019431252032518386841
	2:[0_CVTE:CAPSULE.0<9.5955677032470703125] yes=5,no=6,missing=5
		5:leaf=0.0017455515917390584946
		6:[2_CVTE:DPROS.0<9.6816148757934570312] yes=7,no=8,missing=7
			7:[2_CVTE:DPROS.0<9.462493896484375] yes=9,no=10,missing=9
				9:leaf=0.00120393349789083004
				10:[12_TruncSVD:CAPSULE:DCAPS:VOL.0<0.037719029933214187622] yes=11,no=12,missing=11
					11:[11_NumCatTE:CAPSULE:DCAPS.0<9.6328277587890625] yes=13,no=14,missing=13
						13:leaf=0.00090733810793608427048
						14:leaf=-0.0080146500840783119202
					12:leaf=-0.0010413660202175378799
			8:leaf=0.00088244013022631406784
booster[41]:
0:[6_RACE<0.5] yes=1,no=2,missing=1
	1:[0_CVTE:CAPSULE.0<9.680858612060546875] yes=3,no=4,missing=3
		3:leaf=0.0020168183837085962296
		4:leaf=-0.019431252032518386841
	2:[VOL<35] yes=5,no=6,missing=5
		5:[3_CVTE:GLEASON.0<9.4035959243774414062] yes=7,no=8,missing=7
			7:[14_CVTE:CAPSULE:DCAPS.0<9.63765716552734375] yes=9,no=10,missing=9
				9:leaf=0.0056237489916384220123
				10:[4_CVTE:RACE.0<9.669841766357421875] yes=11,no=12,missing=11
					11:leaf=0.0038170188199728727341
					12:leaf=-0.0076090660877525806427
			8:[1_CVTE:DCAPS.0<9.6042928695678710938] yes=13,no=14,missing=13
				13:leaf=0.00070271157892420887947
				14:leaf=-0.0015320077072829008102
		6:leaf=0.0035857488401234149933
booster[42]:
0:[6_RACE<0.5] yes=1,no=2,missing=1
	1:[0_CVTE:CAPSULE.0<9.680858612060546875] yes=3,no=4,missing=3
		3:leaf=0.0020009325817227363586
		4:leaf=-0.019334096461534500122
	2:[3_CVTE:GLEASON.0<9.6411457061767578125] yes=5,no=6,missing=5
		5:[VOL<14.5] yes=7,no=8,missing=7
			7:leaf=-0.0032706803176552057266
			8:leaf=0.00037190556759014725685
		6:[2_CVTE:DPROS.0<9.9081506729125976562] yes=9,no=10,missing=9
			9:[2_CVTE:DPROS.0<9.4316959381103515625] yes=13,no=14,missing=13
				13:leaf=0.0027753587346524000168
				14:leaf=-0.0004771409439854323864
			10:[PSA<64.3000030517578125] yes=11,no=12,missing=11
				11:leaf=0.0032450917642563581467
				12:leaf=-0.0073180552572011947632
booster[43]:
0:[2_CVTE:DPROS.0<9.6816148757934570312] yes=1,no=2,missing=1
	1:[2_CVTE:DPROS.0<9.5071077346801757812] yes=3,no=4,missing=3
		3:[10_ClusterTE:ClusterID94:DCAPS:VOL.0<9.6368150711059570312] yes=9,no=10,missing=9
			9:leaf=0.00043373758671805262566
			10:leaf=-0.0052562449127435684204
		4:[6_RACE<0.5] yes=5,no=6,missing=5
			5:leaf=-0.019334096461534500122
			6:[12_TruncSVD:CAPSULE:DCAPS:VOL.1<0.40312883257865905762] yes=7,no=8,missing=7
				7:leaf=0.0017220615409314632416
				8:[13_InteractionAdd:CAPSULE:GLEASON<6.5] yes=11,no=12,missing=11
					11:leaf=-0.0084852427244186401367
					12:[3_CVTE:GLEASON.0<9.7507677078247070312] yes=13,no=14,missing=13
						13:leaf=-0.0072263805195689201355
						14:leaf=0.0011175052495673298836
	2:leaf=0.0016052920836955308914
booster[44]:
0:[6_RACE<0.5] yes=1,no=2,missing=1
	1:leaf=-0.019237425178289413452
	2:[12_TruncSVD:CAPSULE:DCAPS:VOL.1<-0.41696381568908691406] yes=3,no=4,missing=3
		3:leaf=0.0038514938205480575562
		4:[12_TruncSVD:CAPSULE:DCAPS:VOL.1<0.1794672161340713501] yes=5,no=6,missing=5
			5:leaf=-0.0029457255732268095016
			6:[VOL<21.600000381469726562] yes=7,no=8,missing=7
				7:[1_CVTE:DCAPS.0<9.5732450485229492188] yes=9,no=10,missing=9
					9:leaf=0.0020995645318180322647
					10:[3_CVTE:GLEASON.0<9.698329925537109375] yes=11,no=12,missing=11
						11:[3_CVTE:GLEASON.0<9.3570604324340820312] yes=13,no=14,missing=13
							13:leaf=0.0033227056264877319336
							14:leaf=-0.0037697777152061462402
						12:leaf=0.00020837414194829761982
				8:leaf=0.0021642444189637899399
booster[45]:
0:[12_TruncSVD:CAPSULE:DCAPS:VOL.1<-0.3692493438720703125] yes=1,no=2,missing=1
	1:leaf=0.0040780296549201011658
	2:[3_CVTE:GLEASON.0<9.3570604324340820312] yes=3,no=4,missing=3
		3:leaf=0.0025919121690094470978
		4:[2_CVTE:DPROS.0<9.941951751708984375] yes=5,no=6,missing=5
			5:[VOL<13] yes=9,no=10,missing=9
				9:[11_NumCatTE:CAPSULE:DCAPS.0<9.6050662994384765625] yes=11,no=12,missing=11
					11:leaf=0.00040141481440514326096
					12:[2_CVTE:DPROS.0<9.462493896484375] yes=13,no=14,missing=13
						13:leaf=-0.00021176679001655429602
						14:leaf=-0.0053862011991441249847
				10:leaf=-3.1488660169998183846e-05
			6:[11_NumCatTE:CAPSULE:DCAPS.0<9.6598453521728515625] yes=7,no=8,missing=7
				7:leaf=0.0037415835540741682053
				8:leaf=-0.0008060198160819709301
booster[46]:
0:[0_CVTE:CAPSULE.0<9.5955677032470703125] yes=1,no=2,missing=1
	1:leaf=0.0019907280802726745605
	2:[2_CVTE:DPROS.0<9.941951751708984375] yes=3,no=4,missing=3
		3:[12_TruncSVD:CAPSULE:DCAPS:VOL.0<0.037719029933214187622] yes=5,no=6,missing=5
			5:[2_CVTE:DPROS.0<9.4316959381103515625] yes=7,no=8,missing=7
				7:leaf=0.00076936290133744478226
				8:[11_NumCatTE:CAPSULE:DCAPS.0<9.6328277587890625] yes=11,no=12,missing=11
					11:leaf=0.00056797789875417947769
					12:[PSA<5.5] yes=13,no=14,missing=13
						13:leaf=-0.0029669909272342920303
						14:leaf=-0.01155863981693983078
			6:leaf=-0.00033685340895317494869
		4:[3_CVTE:GLEASON.0<9.6411457061767578125] yes=9,no=10,missing=9
			9:leaf=-0.00059691612841561436653
			10:leaf=0.0038324873894453048706
booster[47]:
0:[VOL<31] yes=1,no=2,missing=1
	1:[12_TruncSVD:CAPSULE:DCAPS:VOL.1<0.10193117707967758179] yes=3,no=4,missing=3
		3:[1_CVTE:DCAPS.0<9.6771907806396484375] yes=13,no=14,missing=13
			13:leaf=-0.0092872548848390579224
			14:leaf=0.0029758953023701906204
		4:[2_CVTE:DPROS.0<9.4316959381103515625] yes=5,no=6,missing=5
			5:leaf=0.0023013227619230747223
			6:[8_CVTE:DCAPS.0<9.5838298797607421875] yes=7,no=8,missing=7
				7:[4_CVTE:RACE.0<9.6619892120361328125] yes=9,no=10,missing=9
					9:leaf=0.0031839385628700256348
					10:[PSA<1.3999999761581420898] yes=11,no=12,missing=11
						11:leaf=-0.0089281061664223670959
						12:leaf=0.00047966087004169821739
				8:leaf=-0.0019261555280536413193
	2:leaf=0.0022468902170658111572
booster[48]:
0:[3_CVTE:GLEASON.0<9.6411457061767578125] yes=1,no=2,missing=1
	1:[6_RACE<0.5] yes=3,no=4,missing=3
		3:leaf=-0.019183594733476638794
		4:[VOL<12.800000190734863281] yes=5,no=6,missing=5
			5:[11_NumCatTE:CAPSULE:DCAPS.0<9.620250701904296875] yes=11,no=12,missing=11
				11:leaf=0.00068032828858122229576
				12:[2_CVTE:DPROS.0<9.697200775146484375] yes=13,no=14,missing=13
					13:leaf=-0.0065516065806150436401
					14:leaf=-0.00069230300141498446465
			6:leaf=0.00031221611425280570984
	2:[1_CVTE:DCAPS.0<9.6042928695678710938] yes=7,no=8,missing=7
		7:leaf=0.0026325397193431854248
		8:[14_CVTE:CAPSULE:DCAPS.0<9.5736722946166992188] yes=9,no=10,missing=9
			9:leaf=0.0032967452425509691238
			10:leaf=-0.00056431622942909598351
booster[49]:
0:[VOL<29.799999237060546875] yes=1,no=2,missing=1
	1:[2_CVTE:DPROS.0<9.6816148757934570312] yes=3,no=4,missing=3
		3:[0_CVTE:CAPSULE.0<9.5955677032470703125] yes=5,no=6,missing=5
			5:leaf=0.0013960638316348195076
			6:[2_CVTE:DPROS.0<9.54106903076171875] yes=7,no=8,missing=7
				7:[1_CVTE:DCAPS.0<9.6042928695678710938] yes=11,no=12,missing=11
					11:[PSA<10.5] yes=13,no=14,missing=13
						13:leaf=0.00464372243732213974
						14:leaf=-0.002746614161878824234
					12:leaf=-0.0024586513172835111618
				8:[VOL<21] yes=9,no=10,missing=9
					9:leaf=-0.0026088105514645576477
					10:leaf=-0.016702150925993919373
		4:leaf=0.0011129456106573343277
	2:leaf=0.0026353991124778985977
booster[50]:
0:[2_CVTE:DPROS.0<9.941951751708984375] yes=1,no=2,missing=1
	1:[12_TruncSVD:CAPSULE:DCAPS:VOL.1<0.54066395759582519531] yes=3,no=4,missing=3
		3:[4_CVTE:RACE.0<9.6490869522094726562] yes=11,no=12,missing=11
			11:leaf=0.0040501579642295837402
			12:leaf=-0.00046700148959644138813
		4:[10_ClusterTE:ClusterID94:DCAPS:VOL.0<9.4330959320068359375] yes=5,no=6,missing=5
			5:[0_CVTE:CAPSULE.0<9.5955677032470703125] yes=13,no=14,missing=13
				13:leaf=0.0058956560678780078888
				14:leaf=-0.00031827733619138598442
			6:[PSA<17.700000762939453125] yes=7,no=8,missing=7
				7:[11_NumCatTE:CAPSULE:DCAPS.0<9.5868806838989257812] yes=9,no=10,missing=9
					9:leaf=0.0016791924135759472847
					10:leaf=-0.0061898888088762760162
				8:leaf=4.8194960982073098421e-05
	2:leaf=0.0016999472863972187042
booster[51]:
0:[2_CVTE:DPROS.0<9.941951751708984375] yes=1,no=2,missing=1
	1:[VOL<13] yes=3,no=4,missing=3
		3:[10_ClusterTE:ClusterID94:DCAPS:VOL.0<9.5962696075439453125] yes=5,no=6,missing=5
			5:[0_CVTE:CAPSULE.0<9.5955677032470703125] yes=11,no=12,missing=11
				11:leaf=0.0057201301679015159607
				12:[1_CVTE:DCAPS.0<9.5732450485229492188] yes=13,no=14,missing=13
					13:leaf=0.0047892439179122447968
					14:leaf=-0.0022848863154649734497
			6:[3_CVTE:GLEASON.0<9.698329925537109375] yes=7,no=8,missing=7
				7:leaf=-0.0083634797483682632446
				8:[3_CVTE:GLEASON.0<9.8712568283081054688] yes=9,no=10,missing=9
					9:leaf=-8.4273815446067601442e-05
					10:leaf=-0.0067532686516642570496
		4:leaf=0.00055362470448017120361
	2:leaf=0.0016552343731746077538
booster[52]:
0:[3_CVTE:GLEASON.0<9.6411457061767578125] yes=1,no=2,missing=1
	1:[6_RACE<0.5] yes=3,no=4,missing=3
		3:leaf=-0.019105387851595878601
		4:[3_CVTE:GLEASON.0<9.5228557586669921875] yes=5,no=6,missing=5
			5:[12_TruncSVD:CAPSULE:DCAPS:VOL.0<0.037719029933214187622] yes=9,no=10,missing=9
				9:[PSA<5.3000001907348632812] yes=11,no=12,missing=11
					11:leaf=0.0025833814870566129684
					12:leaf=-0.0088865095749497413635
				10:leaf=0.001522926846519112587
			6:[14_CVTE:CAPSULE:DCAPS.0<9.5789270401000976562] yes=7,no=8,missing=7
				7:leaf=-0.0092015322297811508179
				8:leaf=-0.0013808241346850991249
	2:[4_CVTE:RACE.0<9.621623992919921875] yes=13,no=14,missing=13
		13:leaf=-0.0042118290439248085022
		14:leaf=0.0017898089718073606491
booster[53]:
0:[VOL<29.799999237060546875] yes=1,no=2,missing=1
	1:[3_CVTE:GLEASON.0<9.61075592041015625] yes=3,no=4,missing=3
		3:[6_RACE<0.5] yes=5,no=6,missing=5
			5:leaf=-0.019105387851595878601
			6:[3_CVTE:GLEASON.0<9.3570604324340820312] yes=9,no=10,missing=9
				9:leaf=0.0021308197174221277237
				10:[12_TruncSVD:CAPSULE:DCAPS:VOL.1<0.47505652904510498047] yes=11,no=12,missing=11
					11:leaf=0.00053145526908338069916
					12:[1_CVTE:DCAPS.0<9.5732450485229492188] yes=13,no=14,missing=13
						13:leaf=0.0012944054324179887772
						14:leaf=-0.0051994291134178638458
		4:[6_RACE<1.5] yes=7,no=8,missing=7
			7:leaf=0.00075694551924243569374
			8:leaf=-0.005347382277250289917
	2:leaf=0.0027584477793425321579
booster[54]:
0:[3_CVTE:GLEASON.0<9.698329925537109375] yes=1,no=2,missing=1
	1:[6_RACE<0.5] yes=3,no=4,missing=3
		3:leaf=-0.01900986209511756897
		4:[3_CVTE:GLEASON.0<9.3570604324340820312] yes=5,no=6,missing=5
			5:leaf=0.0025493279099464416504
			6:[VOL<31] yes=7,no=8,missing=7
				7:[4_CVTE:RACE.0<9.6490869522094726562] yes=9,no=10,missing=9
					9:[1_CVTE:DCAPS.0<9.628055572509765625] yes=13,no=14,missing=13
						13:leaf=0.0029775833245366811752
						14:leaf=-0.0037488394882529973984
					10:[1_CVTE:DCAPS.0<9.5732450485229492188] yes=11,no=12,missing=11
						11:leaf=-0.00027279203641228377819
						12:leaf=-0.00577275129035115242
				8:leaf=0.0014862739481031894684
	2:leaf=0.00080792955122888088226
booster[55]:
0:[3_CVTE:GLEASON.0<9.6411457061767578125] yes=1,no=2,missing=1
	1:[6_RACE<0.5] yes=3,no=4,missing=3
		3:leaf=-0.01900986209511756897
		4:[3_CVTE:GLEASON.0<9.3570604324340820312] yes=5,no=6,missing=5
			5:leaf=0.0029724852647632360458
			6:[VOL<31] yes=7,no=8,missing=7
				7:[14_CVTE:CAPSULE:DCAPS.0<9.5789270401000976562] yes=9,no=10,missing=9
					9:leaf=-0.00929249543696641922
					10:[11_NumCatTE:CAPSULE:DCAPS.0<9.620250701904296875] yes=13,no=14,missing=13
						13:leaf=0.0012338934466242790222
						14:leaf=-0.0031781368888914585114
				8:leaf=0.0027948101051151752472
	2:[2_CVTE:DPROS.0<9.941951751708984375] yes=11,no=12,missing=11
		11:leaf=0.00042637251317501068115
		12:leaf=0.0035460996441543102264
booster[56]:
0:[VOL<31] yes=1,no=2,missing=1
	1:[3_CVTE:GLEASON.0<9.3570604324340820312] yes=3,no=4,missing=3
		3:leaf=0.0034298966638743877411
		4:[3_CVTE:GLEASON.0<9.698329925537109375] yes=5,no=6,missing=5
			5:[6_RACE<0.5] yes=7,no=8,missing=7
				7:leaf=-0.018914811313152313232
				8:[14_CVTE:CAPSULE:DCAPS.0<9.5789270401000976562] yes=9,no=10,missing=9
					9:leaf=-0.010030335746705532074
					10:leaf=-0.0017174436943605542183
			6:[8_CVTE:DCAPS.0<9.5838298797607421875] yes=11,no=12,missing=11
				11:leaf=0.0026040587108582258224
				12:[3_CVTE:GLEASON.0<9.8712568283081054688] yes=13,no=14,missing=13
					13:leaf=0.00076049304334446787834
					14:leaf=-0.003229882335290312767
	2:leaf=0.0026403029914945363998
booster[57]:
0:[10_ClusterTE:ClusterID94:DCAPS:VOL.0<9.5962696075439453125] yes=1,no=2,missing=1
	1:leaf=0.0019126159604638814926
	2:[3_CVTE:GLEASON.0<9.698329925537109375] yes=3,no=4,missing=3
		3:[4_CVTE:RACE.0<9.6490869522094726562] yes=7,no=8,missing=7
			7:leaf=0.0013263102155178785324
			8:[2_CVTE:DPROS.0<9.54106903076171875] yes=11,no=12,missing=11
				11:[12_TruncSVD:CAPSULE:DCAPS:VOL.1<0.47505652904510498047] yes=13,no=14,missing=13
					13:leaf=-0.0019991712179034948349
					14:leaf=-0.0095788650214672088623
				12:leaf=-0.0011678180890157818794
		4:[VOL<35] yes=5,no=6,missing=5
			5:[2_CVTE:DPROS.0<9.941951751708984375] yes=9,no=10,missing=9
				9:leaf=-0.00074777065310627222061
				10:leaf=0.00306269107386469841
			6:leaf=0.0040142768993973731995
booster[58]:
0:[3_CVTE:GLEASON.0<9.698329925537109375] yes=1,no=2,missing=1
	1:[6_RACE<0.5] yes=3,no=4,missing=3
		3:leaf=-0.01887083984911441803
		4:[VOL<3.7000000476837158203] yes=5,no=6,missing=5
			5:[2_CVTE:DPROS.0<9.3497018814086914062] yes=7,no=8,missing=7
				7:leaf=0.0057446984574198722839
				8:leaf=-0.0038670881185680627823
			6:leaf=0.00054473767522722482681
	2:[VOL<29.100000381469726562] yes=9,no=10,missing=9
		9:[1_CVTE:DCAPS.0<9.6042928695678710938] yes=11,no=12,missing=11
			11:[8_CVTE:DCAPS.0<9.611904144287109375] yes=13,no=14,missing=13
				13:leaf=0.0042780945077538490295
				14:leaf=-0.00033992354292422533035
			12:leaf=-0.00073419214459136128426
		10:leaf=0.0039111752994358539581
booster[59]:
0:[3_CVTE:GLEASON.0<9.6411457061767578125] yes=1,no=2,missing=1
	1:[6_RACE<0.5] yes=3,no=4,missing=3
		3:leaf=-0.01887083984911441803
		4:[3_CVTE:GLEASON.0<9.4035959243774414062] yes=7,no=8,missing=7
			7:[14_CVTE:CAPSULE:DCAPS.0<9.6863164901733398438] yes=9,no=10,missing=9
				9:leaf=0.0028261542320251464844
				10:leaf=-0.0046386024914681911469
			8:[12_TruncSVD:CAPSULE:DCAPS:VOL.1<0.0035200563725084066391] yes=11,no=12,missing=11
				11:leaf=0.0022999276407063007355
				12:leaf=-0.0029922802932560443878
	2:[VOL<35] yes=5,no=6,missing=5
		5:[14_CVTE:CAPSULE:DCAPS.0<9.5789270401000976562] yes=13,no=14,missing=13
			13:leaf=0.0026027285493910312653
			14:leaf=-0.00043973713763989508152
		6:leaf=0.0041434508748352527618
booster[60]:
0:[3_CVTE:GLEASON.0<9.6411457061767578125] yes=1,no=2,missing=1
	1:[6_RACE<0.5] yes=3,no=4,missing=3
		3:leaf=-0.01877648569643497467
		4:[VOL<12.800000190734863281] yes=7,no=8,missing=7
			7:[2_CVTE:DPROS.0<9.3497018814086914062] yes=9,no=10,missing=9
				9:leaf=0.0044236672110855579376
				10:[2_CVTE:DPROS.0<9.697200775146484375] yes=11,no=12,missing=11
					11:[10_ClusterTE:ClusterID94:DCAPS:VOL.0<9.5962696075439453125] yes=13,no=14,missing=13
						13:leaf=-0.0029567007441073656082
						14:leaf=-0.0099232913926243782043
					12:leaf=-0.00040594639722257852554
			8:leaf=0.00028378530987538397312
	2:[2_CVTE:DPROS.0<9.941951751708984375] yes=5,no=6,missing=5
		5:leaf=0.00026553205680102109909
		6:leaf=0.0036798093933612108231
booster[61]:
0:[12_TruncSVD:CAPSULE:DCAPS:VOL.1<-0.3692493438720703125] yes=1,no=2,missing=1
	1:leaf=0.0039004336576908826828
	2:[2_CVTE:DPROS.0<9.6816148757934570312] yes=3,no=4,missing=3
		3:[6_RACE<0.5] yes=5,no=6,missing=5
			5:[0_CVTE:CAPSULE.0<9.680858612060546875] yes=7,no=8,missing=7
				7:leaf=0.0043413639068603515625
				8:leaf=-0.01877648569643497467
			6:[PSA<13] yes=9,no=10,missing=9
				9:[1_CVTE:DCAPS.0<9.6042928695678710938] yes=11,no=12,missing=11
					11:leaf=0.00264071696437895298
					12:[12_TruncSVD:CAPSULE:DCAPS:VOL.1<0.63573694229125976562] yes=13,no=14,missing=13
						13:leaf=0.0010803559562191367149
						14:leaf=-0.002923538675531744957
				10:leaf=-0.0030531662050634622574
		4:leaf=0.000954151153564453125
booster[62]:
0:[VOL<35] yes=1,no=2,missing=1
	1:[6_RACE<0.5] yes=3,no=4,missing=3
		3:[0_CVTE:CAPSULE.0<9.680858612060546875] yes=5,no=6,missing=5
			5:leaf=0.004329845774918794632
			6:leaf=-0.018682602792978286743
		4:[11_NumCatTE:CAPSULE:DCAPS.0<9.6850147247314453125] yes=7,no=8,missing=7
			7:[2_CVTE:DPROS.0<9.941951751708984375] yes=9,no=10,missing=9
				9:leaf=-0.00093151122564449906349
				10:leaf=0.002693040529265999794
			8:[8_CVTE:DCAPS.0<9.671916961669921875] yes=11,no=12,missing=11
				11:leaf=-0.0013356948038563132286
				12:[VOL<15.399999618530273438] yes=13,no=14,missing=13
					13:leaf=-0.0092565370723605155945
					14:leaf=0.002117085503414273262
	2:leaf=0.0026818451005965471268
booster[63]:
0:[2_CVTE:DPROS.0<9.6816148757934570312] yes=1,no=2,missing=1
	1:[0_CVTE:CAPSULE.0<9.5955677032470703125] yes=3,no=4,missing=3
		3:leaf=0.0026782702188938856125
		4:[12_TruncSVD:CAPSULE:DCAPS:VOL.1<0.47505652904510498047] yes=5,no=6,missing=5
			5:[6_RACE<0.5] yes=7,no=8,missing=7
				7:leaf=-0.018682602792978286743
				8:[4_CVTE:RACE.0<9.6490869522094726562] yes=11,no=12,missing=11
					11:leaf=0.0037199773360043764114
					12:[PSA<17.5] yes=13,no=14,missing=13
						13:leaf=0.00049714208580553531647
						14:leaf=-0.0065493681468069553375
			6:[2_CVTE:DPROS.0<9.462493896484375] yes=9,no=10,missing=9
				9:leaf=-0.00011755487503251060843
				10:leaf=-0.0052188653498888015747
	2:leaf=0.0016874257707968354225
booster[64]:
0:[0_CVTE:CAPSULE.0<9.5955677032470703125] yes=1,no=2,missing=1
	1:leaf=0.0015643229708075523376
	2:[11_NumCatTE:CAPSULE:DCAPS.0<9.5868806838989257812] yes=3,no=4,missing=3
		3:leaf=0.0013741669245064258575
		4:[2_CVTE:DPROS.0<9.6816148757934570312] yes=5,no=6,missing=5
			5:[2_CVTE:DPROS.0<9.5071077346801757812] yes=7,no=8,missing=7
				7:leaf=-0.00067005574237555265427
				8:[13_InteractionAdd:CAPSULE:GLEASON<6.5] yes=9,no=10,missing=9
					9:[0_CVTE:CAPSULE.0<9.680858612060546875] yes=13,no=14,missing=13
						13:leaf=-0.0027436157688498497009
						14:leaf=-0.012377141043543815613
					10:[14_CVTE:CAPSULE:DCAPS.0<9.63765716552734375] yes=11,no=12,missing=11
						11:leaf=-0.0055508008226752281189
						12:leaf=0.0031743063591420650482
			6:leaf=0.00054137257393449544907
booster[65]:
0:[6_RACE<0.5] yes=1,no=2,missing=1
	1:[0_CVTE:CAPSULE.0<9.680858612060546875] yes=3,no=4,missing=3
		3:leaf=0.0019918489269912242889
		4:leaf=-0.018589191138744354248
	2:[VOL<35] yes=5,no=6,missing=5
		5:[10_ClusterTE:ClusterID94:DCAPS:VOL.0<9.5962696075439453125] yes=7,no=8,missing=7
			7:[13_InteractionAdd:CAPSULE:GLEASON<6.5] yes=9,no=10,missing=9
				9:[PSA<10.199999809265136719] yes=11,no=12,missing=11
					11:[8_CVTE:DCAPS.0<9.611904144287109375] yes=13,no=14,missing=13
						13:leaf=0.0030198202002793550491
						14:leaf=-0.002182944444939494133
					12:leaf=-0.0050930702127516269684
				10:leaf=0.0037842772435396909714
			8:leaf=-0.00093152147019281983376
		6:leaf=0.0030547638889402151108
booster[66]:
0:[3_CVTE:GLEASON.0<9.6411457061767578125] yes=1,no=2,missing=1
	1:[3_CVTE:GLEASON.0<9.3570604324340820312] yes=3,no=4,missing=3
		3:leaf=0.0031917679589241743088
		4:[12_TruncSVD:CAPSULE:DCAPS:VOL.1<0.47505652904510498047] yes=5,no=6,missing=5
			5:leaf=0.00034451429382897913456
			6:leaf=-0.0036124687176197767258
	2:[3_CVTE:GLEASON.0<9.8712568283081054688] yes=7,no=8,missing=7
		7:[14_CVTE:CAPSULE:DCAPS.0<9.63765716552734375] yes=13,no=14,missing=13
			13:leaf=0.00069964095018804073334
			14:leaf=0.0035262994933873414993
		8:[9_CVCatNumEnc:CAPSULE:DCAPS:RACE.amin.1<0.5] yes=9,no=10,missing=9
			9:[2_CVTE:DPROS.0<9.9081506729125976562] yes=11,no=12,missing=11
				11:leaf=-0.0053105344995856285095
				12:leaf=0.0017981164855882525444
			10:leaf=0.0032381841447204351425
booster[67]:
0:[2_CVTE:DPROS.0<9.6816148757934570312] yes=1,no=2,missing=1
	1:[12_TruncSVD:CAPSULE:DCAPS:VOL.1<0.47505652904510498047] yes=3,no=4,missing=3
		3:leaf=0.00128266157116740942
		4:[10_ClusterTE:ClusterID94:DCAPS:VOL.0<9.4330959320068359375] yes=5,no=6,missing=5
			5:[0_CVTE:CAPSULE.0<9.6352205276489257812] yes=7,no=8,missing=7
				7:leaf=0.0045117805711925029755
				8:[2_CVTE:DPROS.0<9.54106903076171875] yes=13,no=14,missing=13
					13:leaf=-0.00013318935816641896963
					14:leaf=-0.010490244254469871521
			6:[3_CVTE:GLEASON.0<9.6288175582885742188] yes=9,no=10,missing=9
				9:[1_CVTE:DCAPS.0<9.5732450485229492188] yes=11,no=12,missing=11
					11:leaf=0.0020010613370686769485
					12:leaf=-0.0080612218007445335388
				10:leaf=-0.0017085524741560220718
	2:leaf=0.0019296862883493304253
booster[68]:
0:[2_CVTE:DPROS.0<9.6816148757934570312] yes=1,no=2,missing=1
	1:[6_RACE<0.5] yes=3,no=4,missing=3
		3:leaf=-0.018515842035412788391
		4:[12_TruncSVD:CAPSULE:DCAPS:VOL.1<0.54066395759582519531] yes=5,no=6,missing=5
			5:[PSA<17.5] yes=13,no=14,missing=13
				13:leaf=0.0014558919938281178474
				14:leaf=-0.0044284919276833534241
			6:[2_CVTE:DPROS.0<9.462493896484375] yes=7,no=8,missing=7
				7:leaf=0.001299483119510114193
				8:[11_NumCatTE:CAPSULE:DCAPS.0<9.6050662994384765625] yes=9,no=10,missing=9
					9:[4_CVTE:RACE.0<9.637477874755859375] yes=11,no=12,missing=11
						11:leaf=-0.0058829602785408496857
						12:leaf=0.0011178533313795924187
					10:leaf=-0.0051643424667418003082
	2:leaf=0.0012990001123398542404
booster[69]:
0:[12_TruncSVD:CAPSULE:DCAPS:VOL.1<-0.3692493438720703125] yes=1,no=2,missing=1
	1:leaf=0.0043059149757027626038
	2:[10_ClusterTE:ClusterID94:DCAPS:VOL.0<9.5962696075439453125] yes=3,no=4,missing=3
		3:[0_CVTE:CAPSULE.0<9.5955677032470703125] yes=11,no=12,missing=11
			11:leaf=0.0051998379640281200409
			12:leaf=0.00051263091154396533966
		4:[12_TruncSVD:CAPSULE:DCAPS:VOL.0<0.057867873460054397583] yes=5,no=6,missing=5
			5:[11_NumCatTE:CAPSULE:DCAPS.0<9.5868806838989257812] yes=7,no=8,missing=7
				7:leaf=0.0020476256031543016434
				8:[2_CVTE:DPROS.0<10.0171661376953125] yes=9,no=10,missing=9
					9:[4_CVTE:RACE.0<9.669841766357421875] yes=13,no=14,missing=13
						13:leaf=-0.0093913152813911437988
						14:leaf=-0.0024619367904961109161
					10:leaf=0.0013696288224309682846
			6:leaf=-0.00024650932755321264267
booster[70]:
0:[3_CVTE:GLEASON.0<9.698329925537109375] yes=1,no=2,missing=1
	1:[6_RACE<0.5] yes=3,no=4,missing=3
		3:leaf=-0.0184689350426197052
		4:[14_CVTE:CAPSULE:DCAPS.0<9.5789270401000976562] yes=5,no=6,missing=5
			5:[2_CVTE:DPROS.0<9.5609445571899414062] yes=11,no=12,missing=11
				11:leaf=-0.0091463988646864891052
				12:leaf=-0.00047440116759389638901
			6:[11_NumCatTE:CAPSULE:DCAPS.0<9.620250701904296875] yes=13,no=14,missing=13
				13:leaf=0.0019140555523335933685
				14:leaf=-0.0010957063641399145126
	2:[14_CVTE:CAPSULE:DCAPS.0<9.5789270401000976562] yes=7,no=8,missing=7
		7:[6_RACE<1.5] yes=9,no=10,missing=9
			9:leaf=0.0040301997214555740356
			10:leaf=-0.0061851697973906993866
		8:leaf=0.00014234583068173378706
booster[71]:
0:[3_CVTE:GLEASON.0<9.698329925537109375] yes=1,no=2,missing=1
	1:[6_RACE<0.5] yes=3,no=4,missing=3
		3:leaf=-0.0184689350426197052
		4:[12_TruncSVD:CAPSULE:DCAPS:VOL.1<0.47505652904510498047] yes=5,no=6,missing=5
			5:leaf=0.00081050046719610691071
			6:[0_CVTE:CAPSULE.0<9.715793609619140625] yes=7,no=8,missing=7
				7:[3_CVTE:GLEASON.0<9.4035959243774414062] yes=9,no=10,missing=9
					9:leaf=0.0019103717058897018433
					10:[1_CVTE:DCAPS.0<9.5732450485229492188] yes=11,no=12,missing=11
						11:leaf=0.0016065181698650121689
						12:[PSA<8.8999996185302734375] yes=13,no=14,missing=13
							13:leaf=-0.0068593858741223812103
							14:leaf=-0.0012896076077595353127
				8:leaf=-0.0086416974663734436035
	2:leaf=0.0011550670024007558823
booster[72]:
0:[2_CVTE:DPROS.0<9.941951751708984375] yes=1,no=2,missing=1
	1:[0_CVTE:CAPSULE.0<9.5955677032470703125] yes=3,no=4,missing=3
		3:[PSA<12.699999809265136719] yes=5,no=6,missing=5
			5:leaf=0.0042175417765974998474
			6:[3_CVTE:GLEASON.0<9.9099254608154296875] yes=7,no=8,missing=7
				7:leaf=0.0011369450949132442474
				8:leaf=-0.0055031911469995975494
		4:[6_RACE<0.5] yes=9,no=10,missing=9
			9:[0_CVTE:CAPSULE.0<9.680858612060546875] yes=11,no=12,missing=11
				11:leaf=0.0043524764478206634521
				12:leaf=-0.018376590684056282043
			10:[12_TruncSVD:CAPSULE:DCAPS:VOL.1<0.78221851587295532227] yes=13,no=14,missing=13
				13:leaf=0.00025270858895964920521
				14:leaf=-0.0024371761828660964966
	2:leaf=0.0023089018650352954865
booster[73]:
0:[8_CVTE:DCAPS.0<9.671916961669921875] yes=1,no=2,missing=1
	1:[PSA<64.3000030517578125] yes=11,no=12,missing=11
		11:leaf=0.00064758863300085067749
		12:leaf=-0.0057768309488892555237
	2:[2_CVTE:DPROS.0<9.6816148757934570312] yes=3,no=4,missing=3
		3:[PSA<19.200000762939453125] yes=5,no=6,missing=5
			5:[10_ClusterTE:ClusterID94:DCAPS:VOL.0<9.5962696075439453125] yes=7,no=8,missing=7
				7:leaf=0.0008370822761207818985
				8:[4_CVTE:RACE.0<9.6364612579345703125] yes=9,no=10,missing=9
					9:leaf=0.0018851566128432750702
					10:[9_CVCatNumEnc:CAPSULE:DCAPS:PSA.amin.0<0.44999998807907104492] yes=13,no=14,missing=13
						13:leaf=-0.01224741712212562561
						14:leaf=-0.0054421075619757175446
			6:leaf=0.0015006454195827245712
		4:leaf=0.0018847770988941192627
booster[74]:
0:[6_RACE<0.5] yes=1,no=2,missing=1
	1:[0_CVTE:CAPSULE.0<9.680858612060546875] yes=3,no=4,missing=3
		3:leaf=0.0019555783364921808243
		4:leaf=-0.018300030380487442017
	2:[12_TruncSVD:CAPSULE:DCAPS:VOL.1<-0.41696381568908691406] yes=5,no=6,missing=5
		5:leaf=0.0042483615688979625702
		6:[VOL<42.40000152587890625] yes=7,no=8,missing=7
			7:[10_ClusterTE:ClusterID94:DCAPS:VOL.0<9.67498779296875] yes=9,no=10,missing=9
				9:[11_NumCatTE:CAPSULE:DCAPS.0<9.5796947479248046875] yes=11,no=12,missing=11
					11:leaf=0.0017621091101318597794
					12:[3_CVTE:GLEASON.0<9.3570604324340820312] yes=13,no=14,missing=13
						13:leaf=0.0021464466117322444916
						14:leaf=-0.0011457990622147917747
				10:leaf=0.0039708334952592849731
			8:leaf=-0.0052327588200569152832
booster[75]:
0:[6_RACE<0.5] yes=1,no=2,missing=1
	1:[0_CVTE:CAPSULE.0<9.680858612060546875] yes=3,no=4,missing=3
		3:leaf=0.0019555783364921808243
		4:leaf=-0.018300030380487442017
	2:[10_ClusterTE:ClusterID94:DCAPS:VOL.0<9.4330959320068359375] yes=5,no=6,missing=5
		5:leaf=0.0027378392405807971954
		6:[2_CVTE:DPROS.0<9.941951751708984375] yes=7,no=8,missing=7
			7:[12_TruncSVD:CAPSULE:DCAPS:VOL.1<0.7345040440559387207] yes=9,no=10,missing=9
				9:leaf=0.00062901701312512159348
				10:[PSA<17.700000762939453125] yes=11,no=12,missing=11
					11:[11_NumCatTE:CAPSULE:DCAPS.0<9.5868806838989257812] yes=13,no=14,missing=13
						13:leaf=0.00092223007231950759888
						14:leaf=-0.005324536934494972229
					12:leaf=0.0008694080752320587635
			8:leaf=0.0022251512855291366577
booster[76]:
0:[2_CVTE:DPROS.0<9.4316959381103515625] yes=1,no=2,missing=1
	1:leaf=0.0021503116004168987274
	2:[VOL<11.800000190734863281] yes=3,no=4,missing=3
		3:[2_CVTE:DPROS.0<9.745311737060546875] yes=5,no=6,missing=5
			5:[14_CVTE:CAPSULE:DCAPS.0<9.63765716552734375] yes=7,no=8,missing=7
				7:leaf=-0.00098871206864714622498
				8:[9_CVCatNumEnc:CAPSULE:DCAPS:PSA.amin.0<0.44999998807907104492] yes=9,no=10,missing=9
					9:[1_CVTE:DCAPS.0<9.5732450485229492188] yes=11,no=12,missing=11
						11:leaf=0.0046549844555556774139
						12:leaf=-0.011468551121652126312
					10:leaf=-0.0017283331835642457008
			6:leaf=0.00060438987566158175468
		4:[1_CVTE:DCAPS.0<9.5732450485229492188] yes=13,no=14,missing=13
			13:leaf=-0.0023213517852127552032
			14:leaf=0.0013375785201787948608
booster[77]:
0:[6_RACE<0.5] yes=1,no=2,missing=1
	1:[0_CVTE:CAPSULE.0<9.680858612060546875] yes=3,no=4,missing=3
		3:leaf=0.0019458007300272583961
		4:leaf=-0.018208529800176620483
	2:[2_CVTE:DPROS.0<9.941951751708984375] yes=5,no=6,missing=5
		5:[3_CVTE:GLEASON.0<9.3570604324340820312] yes=7,no=8,missing=7
			7:leaf=0.0040062442421913146973
			8:[VOL<29.799999237060546875] yes=9,no=10,missing=9
				9:[12_TruncSVD:CAPSULE:DCAPS:VOL.1<0.10193117707967758179] yes=11,no=12,missing=11
					11:leaf=-0.0091633275151252746582
					12:leaf=-0.0011705273063853383064
				10:[2_CVTE:DPROS.0<9.488552093505859375] yes=13,no=14,missing=13
					13:leaf=-0.0017981287091970443726
					14:leaf=0.0029139989055693149567
		6:leaf=0.0015645447419956326485
booster[78]:
0:[2_CVTE:DPROS.0<9.6816148757934570312] yes=1,no=2,missing=1
	1:[2_CVTE:DPROS.0<9.4316959381103515625] yes=3,no=4,missing=3
		3:leaf=0.0019069026457145810127
		4:[6_RACE<0.5] yes=5,no=6,missing=5
			5:leaf=-0.018166353926062583923
			6:[12_TruncSVD:CAPSULE:DCAPS:VOL.1<0.54066395759582519531] yes=7,no=8,missing=7
				7:[4_CVTE:RACE.0<9.678497314453125] yes=9,no=10,missing=9
					9:[13_InteractionAdd:CAPSULE:GLEASON<8.5] yes=11,no=12,missing=11
						11:leaf=0.0023668755311518907547
						12:leaf=-0.0063860272057354450226
					10:leaf=-0.0043806247413158416748
				8:[12_TruncSVD:CAPSULE:DCAPS:VOL.1<1.0774518251419067383] yes=13,no=14,missing=13
					13:leaf=-0.004900607280433177948
					14:leaf=-0.0010636390652507543564
	2:leaf=0.0015910322545096278191
booster[79]:
0:[0_CVTE:CAPSULE.0<9.5955677032470703125] yes=1,no=2,missing=1
	1:leaf=0.0023750336840748786926
	2:[12_TruncSVD:CAPSULE:DCAPS:VOL.1<-0.30030381679534912109] yes=3,no=4,missing=3
		3:leaf=0.0036694367881864309311
		4:[2_CVTE:DPROS.0<9.941951751708984375] yes=5,no=6,missing=5
			5:[4_CVTE:RACE.0<9.678497314453125] yes=9,no=10,missing=9
				9:[12_TruncSVD:CAPSULE:DCAPS:VOL.0<0.037719029933214187622] yes=11,no=12,missing=11
					11:leaf=-0.0029986139852553606033
					12:leaf=0.00020871218293905258179
				10:[14_CVTE:CAPSULE:DCAPS.0<9.5996618270874023438] yes=13,no=14,missing=13
					13:leaf=0.0012837981339544057846
					14:leaf=-0.0047498703934252262115
			6:[14_CVTE:CAPSULE:DCAPS.0<9.63765716552734375] yes=7,no=8,missing=7
				7:leaf=0.0038312755059450864792
				8:leaf=-0.00043737597297877073288
booster[80]:
0:[VOL<29.399999618530273438] yes=1,no=2,missing=1
	1:[3_CVTE:GLEASON.0<9.3570604324340820312] yes=3,no=4,missing=3
		3:leaf=0.0050423089414834976196
		4:[3_CVTE:GLEASON.0<9.61075592041015625] yes=5,no=6,missing=5
			5:[12_TruncSVD:CAPSULE:DCAPS:VOL.1<0.47505652904510498047] yes=9,no=10,missing=9
				9:leaf=0.00048346351832151412964
				10:[1_CVTE:DCAPS.0<9.5732450485229492188] yes=11,no=12,missing=11
					11:[8_CVTE:DCAPS.0<9.5838298797607421875] yes=13,no=14,missing=13
						13:leaf=-0.0031687116716057062149
						14:leaf=0.0059137563221156597137
					12:leaf=-0.0050910674035549163818
			6:[10_ClusterTE:ClusterID94:DCAPS:VOL.0<9.40560150146484375] yes=7,no=8,missing=7
				7:leaf=0.0042862053960561752319
				8:leaf=-0.00041786715155467391014
	2:leaf=0.0023618510458618402481
booster[81]:
0:[3_CVTE:GLEASON.0<9.6411457061767578125] yes=1,no=2,missing=1
	1:[3_CVTE:GLEASON.0<9.3570604324340820312] yes=3,no=4,missing=3
		3:leaf=0.0025579161010682582855
		4:[VOL<15.399999618530273438] yes=5,no=6,missing=5
			5:[1_CVTE:DCAPS.0<9.5732450485229492188] yes=13,no=14,missing=13
				13:leaf=6.7119595769327133894e-05
				14:leaf=-0.0053166532889008522034
			6:leaf=-0.00026405393145978450775
	2:[6_RACE<1.5] yes=7,no=8,missing=7
		7:[14_CVTE:CAPSULE:DCAPS.0<9.5736722946166992188] yes=9,no=10,missing=9
			9:leaf=0.0040637701749801635742
			10:leaf=0.00049634481547400355339
		8:[12_TruncSVD:CAPSULE:DCAPS:VOL.1<0.70468246936798095703] yes=11,no=12,missing=11
			11:leaf=0.0015833623474463820457
			12:leaf=-0.0056505501270294189453
booster[82]:
0:[3_CVTE:GLEASON.0<9.6411457061767578125] yes=1,no=2,missing=1
	1:[6_RACE<0.5] yes=3,no=4,missing=3
		3:leaf=-0.018122008070349693298
		4:[0_CVTE:CAPSULE.0<9.715793609619140625] yes=11,no=12,missing=11
			11:leaf=-0.00033871529740281403065
			12:[1_CVTE:DCAPS.0<9.628055572509765625] yes=13,no=14,missing=13
				13:leaf=-0.010386167094111442566
				14:leaf=-0.0012807730818167328835
	2:[2_CVTE:DPROS.0<9.941951751708984375] yes=5,no=6,missing=5
		5:[3_CVTE:GLEASON.0<9.8712568283081054688] yes=7,no=8,missing=7
			7:leaf=0.001063509378582239151
			8:[9_CVCatNumEnc:CAPSULE:DCAPS:RACE.amin.1<0.5] yes=9,no=10,missing=9
				9:leaf=-0.0048409462906420230865
				10:leaf=0.0038483315147459506989
		6:leaf=0.0036523579619824886322
booster[83]:
0:[12_TruncSVD:CAPSULE:DCAPS:VOL.1<-0.13664123415946960449] yes=1,no=2,missing=1
	1:leaf=0.0032274662517011165619
	2:[3_CVTE:GLEASON.0<9.3570604324340820312] yes=3,no=4,missing=3
		3:leaf=0.0033683322835713624954
		4:[3_CVTE:GLEASON.0<9.698329925537109375] yes=5,no=6,missing=5
			5:[6_RACE<0.5] yes=7,no=8,missing=7
				7:leaf=-0.018122008070349693298
				8:[VOL<15.090000152587890625] yes=9,no=10,missing=9
					9:[10_ClusterTE:ClusterID94:DCAPS:VOL.0<9.6368150711059570312] yes=11,no=12,missing=11
						11:[3_CVTE:GLEASON.0<9.4183473587036132812] yes=13,no=14,missing=13
							13:leaf=-0.0086342832073569297791
							14:leaf=-0.0022490532137453556061
						12:leaf=0.0039504957385361194611
					10:leaf=-8.9741748524829745293e-05
			6:leaf=0.00044686347246170043945
booster[84]:
0:[2_CVTE:DPROS.0<9.4316959381103515625] yes=1,no=2,missing=1
	1:leaf=0.0028922250494360923767
	2:[VOL<31] yes=3,no=4,missing=3
		3:[6_RACE<0.5] yes=5,no=6,missing=5
			5:[0_CVTE:CAPSULE.0<9.680858612060546875] yes=7,no=8,missing=7
				7:leaf=0.0019191931933164596558
				8:leaf=-0.018031395971775054932
			6:[3_CVTE:GLEASON.0<9.3570604324340820312] yes=9,no=10,missing=9
				9:leaf=0.002437836257740855217
				10:[3_CVTE:GLEASON.0<9.6009979248046875] yes=11,no=12,missing=11
					11:leaf=-0.003471867414191365242
					12:[14_CVTE:CAPSULE:DCAPS.0<9.5789270401000976562] yes=13,no=14,missing=13
						13:leaf=0.0026026959531009197235
						14:leaf=-0.0014297032030299305916
		4:leaf=0.0021085231564939022064
booster[85]:
0:[0_CVTE:CAPSULE.0<9.5955677032470703125] yes=1,no=2,missing=1
	1:leaf=0.0023964918218553066254
	2:[2_CVTE:DPROS.0<9.6816148757934570312] yes=3,no=4,missing=3
		3:[2_CVTE:DPROS.0<9.4316959381103515625] yes=5,no=6,missing=5
			5:leaf=0.0015500109875574707985
			6:[6_RACE<0.5] yes=7,no=8,missing=7
				7:leaf=-0.018031395971775054932
				8:[12_TruncSVD:CAPSULE:DCAPS:VOL.1<0.63573694229125976562] yes=9,no=10,missing=9
					9:leaf=0.00027582081384025514126
					10:[9_CVCatNumEnc:CAPSULE:DCAPS:PSA.amin.0<0.44999998807907104492] yes=11,no=12,missing=11
						11:[PSA<23.100000381469726562] yes=13,no=14,missing=13
							13:leaf=-0.0085058398544788360596
							14:leaf=0.0042093275114893913269
						12:leaf=-0.00277120969258248806
		4:leaf=0.0013526291586458683014
booster[86]:
0:[6_RACE<0.5] yes=1,no=2,missing=1
	1:[0_CVTE:CAPSULE.0<9.680858612060546875] yes=3,no=4,missing=3
		3:leaf=0.0019110130378976464272
		4:leaf=-0.017941238358616828918
	2:[12_TruncSVD:CAPSULE:DCAPS:VOL.1<-0.3692493438720703125] yes=5,no=6,missing=5
		5:leaf=0.0036781716626137495041
		6:[12_TruncSVD:CAPSULE:DCAPS:VOL.1<0.093340657651424407959] yes=7,no=8,missing=7
			7:leaf=-0.0027580745518207550049
			8:[12_TruncSVD:CAPSULE:DCAPS:VOL.1<0.47505652904510498047] yes=9,no=10,missing=9
				9:leaf=0.0017183170421048998833
				10:[1_CVTE:DCAPS.0<9.5732450485229492188] yes=11,no=12,missing=11
					11:leaf=0.0020612373482435941696
					12:[2_CVTE:DPROS.0<9.6816148757934570312] yes=13,no=14,missing=13
						13:leaf=-0.0024666797835379838943
						14:leaf=0.00060648698126897215843
booster[87]:
0:[3_CVTE:GLEASON.0<9.61075592041015625] yes=1,no=2,missing=1
	1:[6_RACE<0.5] yes=3,no=4,missing=3
		3:leaf=-0.017941238358616828918
		4:[3_CVTE:GLEASON.0<9.3570604324340820312] yes=5,no=6,missing=5
			5:leaf=0.0030923902522772550583
			6:[VOL<31] yes=7,no=8,missing=7
				7:[10_ClusterTE:ClusterID94:DCAPS:VOL.0<9.5962696075439453125] yes=11,no=12,missing=11
					11:leaf=-0.0009926047641783952713
					12:[VOL<15.090000152587890625] yes=13,no=14,missing=13
						13:leaf=-0.0082042552530765533447
						14:leaf=-0.0025211751926690340042
				8:leaf=0.0025282646529376506805
	2:[14_CVTE:CAPSULE:DCAPS.0<9.5736722946166992188] yes=9,no=10,missing=9
		9:leaf=0.0046016350388526916504
		10:leaf=0.00049215462058782577515
booster[88]:
0:[6_RACE<0.5] yes=1,no=2,missing=1
	1:[0_CVTE:CAPSULE.0<9.680858612060546875] yes=3,no=4,missing=3
		3:leaf=0.0019050049595534801483
		4:leaf=-0.017851531505584716797
	2:[12_TruncSVD:CAPSULE:DCAPS:VOL.1<0.012466521933674812317] yes=5,no=6,missing=5
		5:leaf=0.0019283326109871268272
		6:[12_TruncSVD:CAPSULE:DCAPS:VOL.1<0.078073933720588684082] yes=7,no=8,missing=7
			7:leaf=-0.0063727255910634994507
			8:[2_CVTE:DPROS.0<9.6816148757934570312] yes=9,no=10,missing=9
				9:[2_CVTE:DPROS.0<9.462493896484375] yes=11,no=12,missing=11
					11:leaf=0.0015414361841976642609
					12:[12_TruncSVD:CAPSULE:DCAPS:VOL.1<0.54066395759582519531] yes=13,no=14,missing=13
						13:leaf=0.0020518780220299959183
						14:leaf=-0.003583013312891125679
				10:leaf=0.0011126456083729863167
booster[89]:
0:[12_TruncSVD:CAPSULE:DCAPS:VOL.1<-0.30030381679534912109] yes=1,no=2,missing=1
	1:leaf=0.0046103266067802906036
	2:[11_NumCatTE:CAPSULE:DCAPS.0<9.6598453521728515625] yes=3,no=4,missing=3
		3:[10_ClusterTE:ClusterID94:DCAPS:VOL.0<9.6368083953857421875] yes=5,no=6,missing=5
			5:leaf=0.0013774858089163899422
			6:[2_CVTE:DPROS.0<9.54106903076171875] yes=7,no=8,missing=7
				7:leaf=-0.0063684717752039432526
				8:leaf=0.0014187474735081195831
		4:[8_CVTE:DCAPS.0<9.611904144287109375] yes=9,no=10,missing=9
			9:[2_CVTE:DPROS.0<10.024127006530761719] yes=13,no=14,missing=13
				13:leaf=0.0015782975824549794197
				14:leaf=-0.0047531859017908573151
			10:[VOL<11.800000190734863281] yes=11,no=12,missing=11
				11:leaf=-0.0054807704873383045197
				12:leaf=0.00080056703882291913033
booster[90]:
0:[VOL<29.799999237060546875] yes=1,no=2,missing=1
	1:[2_CVTE:DPROS.0<9.6816148757934570312] yes=3,no=4,missing=3
		3:[2_CVTE:DPROS.0<9.5071077346801757812] yes=5,no=6,missing=5
			5:[PSA<6.6999998092651367188] yes=11,no=12,missing=11
				11:[1_CVTE:DCAPS.0<9.6042928695678710938] yes=13,no=14,missing=13
					13:leaf=0.005444049835205078125
					14:leaf=-5.8300596720073372126e-05
				12:leaf=-0.0017907456494867801666
			6:[6_RACE<0.5] yes=7,no=8,missing=7
				7:leaf=-0.017810346558690071106
				8:[12_TruncSVD:CAPSULE:DCAPS:VOL.0<0.037719029933214187622] yes=9,no=10,missing=9
					9:leaf=-0.0077823195606470108032
					10:leaf=-0.0014846310950815677643
		4:leaf=0.00083550304407253861427
	2:leaf=0.0021321324165910482407
booster[91]:
0:[3_CVTE:GLEASON.0<9.3570604324340820312] yes=1,no=2,missing=1
	1:leaf=0.0031352834776043891907
	2:[VOL<31] yes=3,no=4,missing=3
		3:[12_TruncSVD:CAPSULE:DCAPS:VOL.1<0.1794672161340713501] yes=5,no=6,missing=5
			5:leaf=-0.0052439076825976371765
			6:[1_CVTE:DCAPS.0<9.5732450485229492188] yes=7,no=8,missing=7
				7:[VOL<21.200000762939453125] yes=13,no=14,missing=13
					13:leaf=0.003474973142147064209
					14:leaf=-0.0025124964304268360138
				8:[12_TruncSVD:CAPSULE:DCAPS:VOL.1<0.501895904541015625] yes=9,no=10,missing=9
					9:leaf=0.001887251739390194416
					10:[3_CVTE:GLEASON.0<9.61075592041015625] yes=11,no=12,missing=11
						11:leaf=-0.0041197407990694046021
						12:leaf=-0.00035844955709762871265
		4:leaf=0.0021196582820266485214
booster[92]:
0:[12_TruncSVD:CAPSULE:DCAPS:VOL.1<-0.0352479591965675354] yes=1,no=2,missing=1
	1:leaf=0.0028388111386448144913
	2:[8_CVTE:DCAPS.0<9.5838298797607421875] yes=3,no=4,missing=3
		3:[12_TruncSVD:CAPSULE:DCAPS:VOL.1<0.027377298101782798767] yes=7,no=8,missing=7
			7:leaf=-0.0054160258732736110687
			8:[PSA<1.3999999761581420898] yes=13,no=14,missing=13
				13:leaf=-0.0045425295829772949219
				14:leaf=0.0020168097689747810364
		4:[2_CVTE:DPROS.0<9.4316959381103515625] yes=5,no=6,missing=5
			5:leaf=0.0024970036465674638748
			6:[6_RACE<0.5] yes=9,no=10,missing=9
				9:[0_CVTE:CAPSULE.0<9.680858612060546875] yes=11,no=12,missing=11
					11:leaf=0.0018860220443457365036
					12:leaf=-0.017770538106560707092
				10:leaf=-0.0015317054931074380875
booster[93]:
0:[VOL<35] yes=1,no=2,missing=1
	1:[10_ClusterTE:ClusterID94:DCAPS:VOL.0<9.5962696075439453125] yes=3,no=4,missing=3
		3:leaf=0.0010541395749896764755
		4:[VOL<11.800000190734863281] yes=5,no=6,missing=5
			5:[2_CVTE:DPROS.0<9.54106903076171875] yes=11,no=12,missing=11
				11:[11_NumCatTE:CAPSULE:DCAPS.0<9.6050662994384765625] yes=13,no=14,missing=13
					13:leaf=-0.0013256735401228070259
					14:leaf=-0.0084221148863434791565
				12:leaf=-0.0010209495667368173599
			6:[1_CVTE:DCAPS.0<9.6042928695678710938] yes=7,no=8,missing=7
				7:[VOL<20.299999237060546875] yes=9,no=10,missing=9
					9:leaf=0.0028811316005885601044
					10:leaf=-0.0038817846216261386871
				8:leaf=0.0015481079462915658951
	2:leaf=0.0034505550283938646317
booster[94]:
0:[3_CVTE:GLEASON.0<9.698329925537109375] yes=1,no=2,missing=1
	1:[6_RACE<0.5] yes=3,no=4,missing=3
		3:leaf=-0.017729982733726501465
		4:[0_CVTE:CAPSULE.0<9.715793609619140625] yes=5,no=6,missing=5
			5:[14_CVTE:CAPSULE:DCAPS.0<9.5789270401000976562] yes=7,no=8,missing=7
				7:leaf=-0.0043687671422958374023
				8:[11_NumCatTE:CAPSULE:DCAPS.0<9.620250701904296875] yes=9,no=10,missing=9
					9:leaf=0.0032650884240865707397
					10:[4_CVTE:RACE.0<9.669841766357421875] yes=11,no=12,missing=11
						11:leaf=0.0010529311839491128922
						12:[9_CVCatNumEnc:CAPSULE:DCAPS:RACE.amin.1<0.5] yes=13,no=14,missing=13
							13:leaf=-0.0007701780996285378933
							14:leaf=-0.0095371883362531661987
			6:leaf=-0.0055994829162955284119
	2:leaf=0.00079444609582424163818
booster[95]:
0:[6_RACE<0.5] yes=1,no=2,missing=1
	1:[0_CVTE:CAPSULE.0<9.680858612060546875] yes=3,no=4,missing=3
		3:leaf=0.0018786715809255838394
		4:leaf=-0.017729982733726501465
	2:[2_CVTE:DPROS.0<9.941951751708984375] yes=5,no=6,missing=5
		5:[0_CVTE:CAPSULE.0<9.5955677032470703125] yes=13,no=14,missing=13
			13:leaf=0.0013315443648025393486
			14:leaf=-0.00084207527106627821922
		6:[13_InteractionAdd:CAPSULE:GLEASON<7.5] yes=7,no=8,missing=7
			7:[8_CVTE:DCAPS.0<9.5838298797607421875] yes=9,no=10,missing=9
				9:[VOL<29.600000381469726562] yes=11,no=12,missing=11
					11:leaf=0.0054176822304725646973
					12:leaf=-0.00074554857565090060234
				10:leaf=-0.00035958873922936618328
			8:leaf=0.0061229476705193519592
booster[96]:
0:[2_CVTE:DPROS.0<9.6816148757934570312] yes=1,no=2,missing=1
	1:[0_CVTE:CAPSULE.0<9.5955677032470703125] yes=3,no=4,missing=3
		3:leaf=0.0016878967871889472008
		4:[2_CVTE:DPROS.0<9.5609445571899414062] yes=5,no=6,missing=5
			5:[12_TruncSVD:CAPSULE:DCAPS:VOL.1<0.63573694229125976562] yes=9,no=10,missing=9
				9:[4_CVTE:RACE.0<9.678497314453125] yes=13,no=14,missing=13
					13:leaf=0.0019138463540002703667
					14:leaf=-0.0061841774731874465942
				10:[2_CVTE:DPROS.0<9.462493896484375] yes=11,no=12,missing=11
					11:leaf=0.0014568311162292957306
					12:leaf=-0.0046257576905190944672
			6:[9_CVCatNumEnc:CAPSULE:DCAPS:RACE.amin.1<0.5] yes=7,no=8,missing=7
				7:leaf=7.4760915595106780529e-05
				8:leaf=-0.017530022189021110535
	2:leaf=0.0012321759713813662529
booster[97]:
0:[3_CVTE:GLEASON.0<9.6411457061767578125] yes=1,no=2,missing=1
	1:[6_RACE<0.5] yes=3,no=4,missing=3
		3:leaf=-0.017641333863139152527
		4:[12_TruncSVD:CAPSULE:DCAPS:VOL.0<0.037719029933214187622] yes=5,no=6,missing=5
			5:[0_CVTE:CAPSULE.0<9.6461582183837890625] yes=11,no=12,missing=11
				11:leaf=0.0020437499042600393295
				12:leaf=-0.0046621584333479404449
			6:[3_CVTE:GLEASON.0<9.4035959243774414062] yes=7,no=8,missing=7
				7:leaf=0.0032021387014538049698
				8:[14_CVTE:CAPSULE:DCAPS.0<9.5789270401000976562] yes=9,no=10,missing=9
					9:[2_CVTE:DPROS.0<9.5609445571899414062] yes=13,no=14,missing=13
						13:leaf=-0.0095172515138983726501
						14:leaf=-0.00093328795628622174263
					10:leaf=0.00015005916066002100706
	2:leaf=0.0008534443913958966732
booster[98]:
0:[3_CVTE:GLEASON.0<9.6411457061767578125] yes=1,no=2,missing=1
	1:[6_RACE<0.5] yes=3,no=4,missing=3
		3:leaf=-0.017553405836224555969
		4:[4_CVTE:RACE.0<9.6490869522094726562] yes=7,no=8,missing=7
			7:leaf=0.0014177248813211917877
			8:leaf=-0.001871251966804265976
	2:[14_CVTE:CAPSULE:DCAPS.0<9.5736722946166992188] yes=5,no=6,missing=5
		5:leaf=0.0039465189911425113678
		6:[13_InteractionAdd:CAPSULE:GLEASON<7.5] yes=9,no=10,missing=9
			9:[PSA<64.3000030517578125] yes=13,no=14,missing=13
				13:leaf=0.0016378206200897693634
				14:leaf=-0.0066983774304389953613
			10:[10_ClusterTE:ClusterID94:DCAPS:VOL.0<9.5173807144165039062] yes=11,no=12,missing=11
				11:leaf=0.0033470578491687774658
				12:leaf=-0.0024805844295769929886
booster[99]:
0:[6_RACE<0.5] yes=1,no=2,missing=1
	1:[0_CVTE:CAPSULE.0<9.680858612060546875] yes=3,no=4,missing=3
		3:leaf=0.0018667745171114802361
		4:leaf=-0.017553405836224555969
	2:[12_TruncSVD:CAPSULE:DCAPS:VOL.1<-0.3692493438720703125] yes=5,no=6,missing=5
		5:leaf=0.0032448288984596729279
		6:[10_ClusterTE:ClusterID94:DCAPS:VOL.0<9.5962696075439453125] yes=7,no=8,missing=7
			7:[1_CVTE:DCAPS.0<9.5732450485229492188] yes=13,no=14,missing=13
				13:leaf=0.0049307984299957752228
				14:leaf=-2.79627765848999843e-05
			8:[2_CVTE:DPROS.0<9.5609445571899414062] yes=9,no=10,missing=9
				9:leaf=-0.0022142650559544563293
				10:[1_CVTE:DCAPS.0<9.6042928695678710938] yes=11,no=12,missing=11
					11:leaf=-0.0022631033789366483688
					12:leaf=0.002295799553394317627
booster[100]:
0:[12_TruncSVD:CAPSULE:DCAPS:VOL.1<-0.3692493438720703125] yes=1,no=2,missing=1
	1:leaf=0.0036338211502879858017
	2:[VOL<42.40000152587890625] yes=3,no=4,missing=3
		3:[0_CVTE:CAPSULE.0<9.656795501708984375] yes=5,no=6,missing=5
			5:[PSA<16.799999237060546875] yes=9,no=10,missing=9
				9:[14_CVTE:CAPSULE:DCAPS.0<9.6524839401245117188] yes=11,no=12,missing=11
					11:leaf=0.0025379275903105735779
					12:leaf=-0.0011606372427195310593
				10:[12_TruncSVD:CAPSULE:DCAPS:VOL.1<0.89518445730209350586] yes=13,no=14,missing=13
					13:leaf=-0.0048942831344902515411
					14:leaf=0.00012960322783328592777
			6:[6_RACE<0.5] yes=7,no=8,missing=7
				7:leaf=-0.017465637996792793274
				8:leaf=-0.00095530028920620679855
		4:leaf=-0.0071159955114126205444
booster[101]:
0:[3_CVTE:GLEASON.0<9.6411457061767578125] yes=1,no=2,missing=1
	1:[6_RACE<0.5] yes=3,no=4,missing=3
		3:leaf=-0.017465637996792793274
		4:[3_CVTE:GLEASON.0<9.3570604324340820312] yes=5,no=6,missing=5
			5:leaf=0.0023084781132638454437
			6:[14_CVTE:CAPSULE:DCAPS.0<9.5789270401000976562] yes=7,no=8,missing=7
				7:[2_CVTE:DPROS.0<9.5609445571899414062] yes=9,no=10,missing=9
					9:leaf=-0.010868340730667114258
					10:leaf=-0.00093678472330793738365
				8:[VOL<31] yes=11,no=12,missing=11
					11:[4_CVTE:RACE.0<9.6490869522094726562] yes=13,no=14,missing=13
						13:leaf=0.0011206822236999869347
						14:leaf=-0.0033073490485548973083
					12:leaf=0.0019090279238298535347
	2:leaf=0.00057924323482438921928
booster[102]:
0:[VOL<31] yes=1,no=2,missing=1
	1:[0_CVTE:CAPSULE.0<9.656795501708984375] yes=3,no=4,missing=3
		3:[3_CVTE:GLEASON.0<9.3570604324340820312] yes=11,no=12,missing=11
			11:leaf=0.0042016259394586086273
			12:leaf=-0.00061892811208963394165
		4:[6_RACE<0.5] yes=5,no=6,missing=5
			5:leaf=-0.017378311604261398315
			6:[11_NumCatTE:CAPSULE:DCAPS.0<9.6598453521728515625] yes=7,no=8,missing=7
				7:[13_InteractionAdd:CAPSULE:GLEASON<7.5] yes=9,no=10,missing=9
					9:leaf=0.001659671892412006855
					10:leaf=-0.0042850393801927566528
				8:[4_CVTE:RACE.0<9.637477874755859375] yes=13,no=14,missing=13
					13:leaf=0.0010926226386800408363
					14:leaf=-0.0053804158233106136322
	2:leaf=0.0017533894861117005348
booster[103]:
0:[8_CVTE:DCAPS.0<9.611904144287109375] yes=1,no=2,missing=1
	1:[PSA<20.100000381469726562] yes=9,no=10,missing=9
		9:leaf=0.0013982368400320410728
		10:leaf=-0.0022929753176867961884
	2:[PSA<3.9000000953674316406] yes=3,no=4,missing=3
		3:[2_CVTE:DPROS.0<9.488552093505859375] yes=5,no=6,missing=5
			5:leaf=-0.00096406578086316585541
			6:[2_CVTE:DPROS.0<9.9531841278076171875] yes=7,no=8,missing=7
				7:leaf=-0.014171563088893890381
				8:leaf=-0.0005234968266449868679
		4:[6_RACE<1.5] yes=11,no=12,missing=11
			11:[11_NumCatTE:CAPSULE:DCAPS.0<9.6598453521728515625] yes=13,no=14,missing=13
				13:leaf=0.0013992910971865057945
				14:leaf=-0.0016960183857008814812
			12:leaf=-0.0041425349190831184387
booster[104]:
0:[VOL<31] yes=1,no=2,missing=1
	1:[3_CVTE:GLEASON.0<9.61075592041015625] yes=3,no=4,missing=3
		3:[6_RACE<0.5] yes=5,no=6,missing=5
			5:leaf=-0.01729943789541721344
			6:[VOL<29] yes=7,no=8,missing=7
				7:[14_CVTE:CAPSULE:DCAPS.0<9.5736722946166992188] yes=9,no=10,missing=9
					9:leaf=-0.0077443164773285388947
					10:[14_CVTE:CAPSULE:DCAPS.0<9.63765716552734375] yes=11,no=12,missing=11
						11:leaf=0.0016000778414309024811
						12:[8_CVTE:DCAPS.0<9.57102203369140625] yes=13,no=14,missing=13
							13:leaf=0.0037220325320959091187
							14:leaf=-0.0030337946955114603043
				8:leaf=-0.0076745427213609218597
		4:leaf=0.00021560685127042233944
	2:leaf=0.0023687516804784536362
booster[105]:
0:[6_RACE<0.5] yes=1,no=2,missing=1
	1:[0_CVTE:CAPSULE.0<9.680858612060546875] yes=3,no=4,missing=3
		3:leaf=0.0018500185105949640274
		4:leaf=-0.01729943789541721344
	2:[3_CVTE:GLEASON.0<9.6411457061767578125] yes=5,no=6,missing=5
		5:[0_CVTE:CAPSULE.0<9.715793609619140625] yes=13,no=14,missing=13
			13:leaf=-0.00056865916121751070023
			14:leaf=-0.0042274016886949539185
		6:[3_CVTE:GLEASON.0<9.8712568283081054688] yes=7,no=8,missing=7
			7:leaf=0.0013989401049911975861
			8:[9_CVCatNumEnc:CAPSULE:DCAPS:RACE.amin.1<0.5] yes=9,no=10,missing=9
				9:[10_ClusterTE:ClusterID94:DCAPS:VOL.0<9.4330959320068359375] yes=11,no=12,missing=11
					11:leaf=0.0030904577579349279404
					12:leaf=-0.0044139055535197257996
				10:leaf=0.0030392254702746868134
booster[106]:
0:[6_RACE<0.5] yes=1,no=2,missing=1
	1:[0_CVTE:CAPSULE.0<9.680858612060546875] yes=3,no=4,missing=3
		3:leaf=0.001844854326918721199
		4:leaf=-0.017212938517332077026
	2:[2_CVTE:DPROS.0<9.5609445571899414062] yes=5,no=6,missing=5
		5:[12_TruncSVD:CAPSULE:DCAPS:VOL.1<0.47505652904510498047] yes=7,no=8,missing=7
			7:leaf=0.0011075295042246580124
			8:[11_NumCatTE:CAPSULE:DCAPS.0<9.6050662994384765625] yes=9,no=10,missing=9
				9:leaf=0.0004583532863762229681
				10:[2_CVTE:DPROS.0<9.4316959381103515625] yes=11,no=12,missing=11
					11:leaf=0.0010778825962916016579
					12:[1_CVTE:DCAPS.0<9.8628997802734375] yes=13,no=14,missing=13
						13:leaf=-0.0064216181635856628418
						14:leaf=0.001063573756255209446
		6:leaf=0.0012860625283792614937
booster[107]:
0:[VOL<31] yes=1,no=2,missing=1
	1:[3_CVTE:GLEASON.0<9.698329925537109375] yes=3,no=4,missing=3
		3:[6_RACE<0.5] yes=5,no=6,missing=5
			5:leaf=-0.017212938517332077026
			6:[3_CVTE:GLEASON.0<9.3570604324340820312] yes=7,no=8,missing=7
				7:leaf=0.0024651116691529750824
				8:[4_CVTE:RACE.0<9.6490869522094726562] yes=9,no=10,missing=9
					9:leaf=0.0006060573505237698555
					10:[1_CVTE:DCAPS.0<9.5732450485229492188] yes=11,no=12,missing=11
						11:leaf=0.0007613203488290309906
						12:leaf=-0.0050748037174344062805
		4:[14_CVTE:CAPSULE:DCAPS.0<9.5789270401000976562] yes=13,no=14,missing=13
			13:leaf=0.0022403514012694358826
			14:leaf=-0.00061113038100302219391
	2:leaf=0.002165037207305431366
booster[108]:
0:[6_RACE<0.5] yes=1,no=2,missing=1
	1:[0_CVTE:CAPSULE.0<9.680858612060546875] yes=3,no=4,missing=3
		3:leaf=0.0018417692044749855995
		4:leaf=-0.017126874998211860657
	2:[0_CVTE:CAPSULE.0<9.5955677032470703125] yes=5,no=6,missing=5
		5:[10_ClusterTE:ClusterID94:DCAPS:VOL.0<9.5962696075439453125] yes=9,no=10,missing=9
			9:leaf=0.00476731080561876297
			10:[14_CVTE:CAPSULE:DCAPS.0<9.6863164901733398438] yes=11,no=12,missing=11
				11:leaf=0.0020017467904835939407
				12:[PSA<21.200000762939453125] yes=13,no=14,missing=13
					13:leaf=-0.0055524576455354690552
					14:leaf=0.0026101665571331977844
		6:[2_CVTE:DPROS.0<9.941951751708984375] yes=7,no=8,missing=7
			7:leaf=-0.0012741474201902747154
			8:leaf=0.0017011594027280807495
booster[109]:
0:[VOL<35] yes=1,no=2,missing=1
	1:[2_CVTE:DPROS.0<9.462493896484375] yes=3,no=4,missing=3
		3:leaf=0.0014571609208360314369
		4:[6_RACE<0.5] yes=5,no=6,missing=5
			5:[0_CVTE:CAPSULE.0<9.680858612060546875] yes=13,no=14,missing=13
				13:leaf=0.0018417692044749855995
				14:leaf=-0.017126874998211860657
			6:[VOL<11.800000190734863281] yes=7,no=8,missing=7
				7:[2_CVTE:DPROS.0<9.6816148757934570312] yes=9,no=10,missing=9
					9:[11_NumCatTE:CAPSULE:DCAPS.0<9.6050662994384765625] yes=11,no=12,missing=11
						11:leaf=0.00079812970943748950958
						12:leaf=-0.0059612081386148929596
					10:leaf=4.8020989197539165616e-05
				8:leaf=0.00052484765183180570602
	2:leaf=0.0023425600957125425339
booster[110]:
0:[3_CVTE:GLEASON.0<9.6411457061767578125] yes=1,no=2,missing=1
	1:[6_RACE<0.5] yes=3,no=4,missing=3
		3:leaf=-0.017041239887475967407
		4:[0_CVTE:CAPSULE.0<9.715793609619140625] yes=5,no=6,missing=5
			5:[14_CVTE:CAPSULE:DCAPS.0<9.5789270401000976562] yes=7,no=8,missing=7
				7:[3_CVTE:GLEASON.0<9.5228557586669921875] yes=9,no=10,missing=9
					9:leaf=-0.0012123775668442249298
					10:leaf=-0.0098113203421235084534
				8:leaf=0.0001470883289584890008
			6:leaf=-0.0067115849815309047699
	2:[2_CVTE:DPROS.0<9.941951751708984375] yes=11,no=12,missing=11
		11:[3_CVTE:GLEASON.0<9.8712568283081054688] yes=13,no=14,missing=13
			13:leaf=0.00098421447910368442535
			14:leaf=-0.0020858575589954853058
		12:leaf=0.0031216370407491922379
booster[111]:
0:[VOL<29.899999618530273438] yes=1,no=2,missing=1
	1:[12_TruncSVD:CAPSULE:DCAPS:VOL.1<0.1794672161340713501] yes=5,no=6,missing=5
		5:[4_CVTE:RACE.0<9.669841766357421875] yes=7,no=8,missing=7
			7:leaf=0.00083857710706070065498
			8:leaf=-0.0073001626878976821899
		6:[1_CVTE:DCAPS.0<9.5732450485229492188] yes=9,no=10,missing=9
			9:leaf=0.0021444547455757856369
			10:[12_TruncSVD:CAPSULE:DCAPS:VOL.1<0.25998538732528686523] yes=11,no=12,missing=11
				11:leaf=0.0053513450548052787781
				12:[12_TruncSVD:CAPSULE:DCAPS:VOL.1<0.27489617466926574707] yes=13,no=14,missing=13
					13:leaf=-0.010333428159356117249
					14:leaf=-0.00071050639962777495384
	2:[2_CVTE:DPROS.0<9.488552093505859375] yes=3,no=4,missing=3
		3:leaf=-0.0013847122900187969208
		4:leaf=0.0030436445958912372589
booster[112]:
0:[12_TruncSVD:CAPSULE:DCAPS:VOL.0<0.057867873460054397583] yes=1,no=2,missing=1
	1:[10_ClusterTE:ClusterID94:DCAPS:VOL.0<9.5962696075439453125] yes=3,no=4,missing=3
		3:[1_CVTE:DCAPS.0<9.6771907806396484375] yes=5,no=6,missing=5
			5:[4_CVTE:RACE.0<9.6490869522094726562] yes=11,no=12,missing=11
				11:[14_CVTE:CAPSULE:DCAPS.0<9.6863164901733398438] yes=13,no=14,missing=13
					13:leaf=0.00095323729328811168671
					14:leaf=-0.0081544304266571998596
				12:leaf=0.0031435324344784021378
			6:leaf=-0.0037961048074066638947
		4:[11_NumCatTE:CAPSULE:DCAPS.0<9.5868806838989257812] yes=7,no=8,missing=7
			7:leaf=0.0015347331063821911812
			8:[2_CVTE:DPROS.0<10.0171661376953125] yes=9,no=10,missing=9
				9:leaf=-0.0062956111505627632141
				10:leaf=0.0014562814030796289444
	2:leaf=0.00059832341503351926804
booster[113]:
0:[6_RACE<0.5] yes=1,no=2,missing=1
	1:[0_CVTE:CAPSULE.0<9.680858612060546875] yes=3,no=4,missing=3
		3:leaf=0.0042042923159897327423
		4:leaf=-0.016972804442048072815
	2:[12_TruncSVD:CAPSULE:DCAPS:VOL.1<-0.41696381568908691406] yes=5,no=6,missing=5
		5:leaf=0.0040489262901246547699
		6:[2_CVTE:DPROS.0<9.5609445571899414062] yes=7,no=8,missing=7
			7:leaf=-0.00077292800415307283401
			8:[11_NumCatTE:CAPSULE:DCAPS.0<9.6598453521728515625] yes=9,no=10,missing=9
				9:leaf=0.0023400529753416776657
				10:[10_ClusterTE:ClusterID94:DCAPS:VOL.0<9.6240587234497070312] yes=11,no=12,missing=11
					11:[13_InteractionAdd:CAPSULE:GLEASON<6.5] yes=13,no=14,missing=13
						13:leaf=-0.0066252979449927806854
						14:leaf=0.0030778779182583093643
					12:leaf=0.0013333661481738090515
booster[114]:
0:[10_ClusterTE:ClusterID94:DCAPS:VOL.0<9.5962696075439453125] yes=1,no=2,missing=1
	1:[1_CVTE:DCAPS.0<9.5732450485229492188] yes=3,no=4,missing=3
		3:leaf=0.0049527636729180812836
		4:leaf=0.00049543805653229355812
	2:[12_TruncSVD:CAPSULE:DCAPS:VOL.0<0.057867873460054397583] yes=5,no=6,missing=5
		5:[11_NumCatTE:CAPSULE:DCAPS.0<9.5868806838989257812] yes=7,no=8,missing=7
			7:leaf=0.0020138465333729982376
			8:[2_CVTE:DPROS.0<9.9081506729125976562] yes=9,no=10,missing=9
				9:leaf=-0.0067572388797998428345
				10:leaf=0.00014261722390074282885
		6:[6_RACE<0.5] yes=11,no=12,missing=11
			11:[0_CVTE:CAPSULE.0<9.680858612060546875] yes=13,no=14,missing=13
				13:leaf=0.0041922852396965026855
				14:leaf=-0.016931867226958274841
			12:leaf=0.00041293280082754790783
booster[115]:
0:[2_CVTE:DPROS.0<9.941951751708984375] yes=1,no=2,missing=1
	1:[0_CVTE:CAPSULE.0<9.5955677032470703125] yes=3,no=4,missing=3
		3:[10_ClusterTE:ClusterID94:DCAPS:VOL.0<9.5962696075439453125] yes=5,no=6,missing=5
			5:leaf=0.0057003744877874851227
			6:[12_TruncSVD:CAPSULE:DCAPS:VOL.1<1.3398815393447875977] yes=7,no=8,missing=7
				7:leaf=0.0022467961534857749939
				8:[PSA<21.200000762939453125] yes=9,no=10,missing=9
					9:leaf=-0.0048650130629539489746
					10:leaf=0.0023096457589417695999
		4:[10_ClusterTE:ClusterID94:DCAPS:VOL.0<9.5962696075439453125] yes=11,no=12,missing=11
			11:leaf=0.00060518697137013077736
			12:[3_CVTE:GLEASON.0<9.6288175582885742188] yes=13,no=14,missing=13
				13:leaf=-0.0037639332003891468048
				14:leaf=-0.00066857208730652928352
	2:leaf=0.0022940887138247489929
booster[116]:
0:[3_CVTE:GLEASON.0<9.61075592041015625] yes=1,no=2,missing=1
	1:[3_CVTE:GLEASON.0<9.3570604324340820312] yes=3,no=4,missing=3
		3:leaf=0.001967294374480843544
		4:[VOL<31] yes=5,no=6,missing=5
			5:[10_ClusterTE:ClusterID94:DCAPS:VOL.0<9.5962696075439453125] yes=7,no=8,missing=7
				7:[10_ClusterTE:ClusterID94:DCAPS:VOL.0<9.40560150146484375] yes=11,no=12,missing=11
					11:[0_CVTE:CAPSULE.0<9.5955677032470703125] yes=13,no=14,missing=13
						13:leaf=0.0021787101868540048599
						14:leaf=-0.0086375931277871131897
					12:leaf=0.0010021532652899622917
				8:[2_CVTE:DPROS.0<9.941951751708984375] yes=9,no=10,missing=9
					9:leaf=-0.0067155472934246063232
					10:leaf=-0.00079549226211383938789
			6:leaf=0.0020754910074174404144
	2:leaf=0.00074774876702576875687
booster[117]:
0:[VOL<35] yes=1,no=2,missing=1
	1:[0_CVTE:CAPSULE.0<9.6461582183837890625] yes=3,no=4,missing=3
		3:[10_ClusterTE:ClusterID94:DCAPS:VOL.0<9.5173807144165039062] yes=13,no=14,missing=13
			13:leaf=0.0027736558113247156143
			14:leaf=0.00024844004656188189983
		4:[6_RACE<0.5] yes=5,no=6,missing=5
			5:leaf=-0.016880128532648086548
			6:[2_CVTE:DPROS.0<9.4316959381103515625] yes=7,no=8,missing=7
				7:leaf=0.0027847613673657178879
				8:[2_CVTE:DPROS.0<9.472808837890625] yes=9,no=10,missing=9
					9:[9_CVCatNumEnc:CAPSULE:DCAPS:PSA.amin.0<0.44999998807907104492] yes=11,no=12,missing=11
						11:leaf=-0.010155933909118175507
						12:leaf=-0.0013193689519539475441
					10:leaf=-0.00082502915756776928902
	2:leaf=0.0026656121481209993362
booster[118]:
0:[12_TruncSVD:CAPSULE:DCAPS:VOL.1<-0.3692493438720703125] yes=1,no=2,missing=1
	1:leaf=0.0039612562395632266998
	2:[10_ClusterTE:ClusterID94:DCAPS:VOL.0<9.5962696075439453125] yes=3,no=4,missing=3
		3:[0_CVTE:CAPSULE.0<9.5955677032470703125] yes=5,no=6,missing=5
			5:leaf=0.0048624305054545402527
			6:[1_CVTE:DCAPS.0<9.5732450485229492188] yes=11,no=12,missing=11
				11:[PSA<1.3999999761581420898] yes=13,no=14,missing=13
					13:leaf=-0.0065676569938659667969
					14:leaf=0.0052383178845047950745
				12:leaf=-0.00083443743642419576645
		4:[2_CVTE:DPROS.0<9.941951751708984375] yes=7,no=8,missing=7
			7:leaf=-0.0016948868287727236748
			8:[11_NumCatTE:CAPSULE:DCAPS.0<9.6850147247314453125] yes=9,no=10,missing=9
				9:leaf=0.0030686764512211084366
				10:leaf=-0.0020504244603216648102
booster[119]:
0:[10_ClusterTE:ClusterID94:DCAPS:VOL.0<9.40560150146484375] yes=1,no=2,missing=1
	1:leaf=0.0029771490953862667084
	2:[2_CVTE:DPROS.0<9.941951751708984375] yes=3,no=4,missing=3
		3:[12_TruncSVD:CAPSULE:DCAPS:VOL.1<0.54066395759582519531] yes=5,no=6,missing=5
			5:leaf=0.00081658747512847185135
			6:[2_CVTE:DPROS.0<9.4316959381103515625] yes=7,no=8,missing=7
				7:leaf=0.001595850801095366478
				8:[2_CVTE:DPROS.0<9.6816148757934570312] yes=9,no=10,missing=9
					9:[11_NumCatTE:CAPSULE:DCAPS.0<9.6050662994384765625] yes=11,no=12,missing=11
						11:[4_CVTE:RACE.0<9.6373233795166015625] yes=13,no=14,missing=13
							13:leaf=-0.00668149581179022789
							14:leaf=0.00081150338519364595413
						12:leaf=-0.0053530428558588027954
					10:leaf=-8.129179332172498107e-05
		4:leaf=0.0014624677132815122604
booster[120]:
0:[12_TruncSVD:CAPSULE:DCAPS:VOL.0<31.252386093139648438] yes=1,no=2,missing=1
	1:[12_TruncSVD:CAPSULE:DCAPS:VOL.1<0.1794672161340713501] yes=3,no=4,missing=3
		3:[4_CVTE:RACE.0<9.637477874755859375] yes=5,no=6,missing=5
			5:leaf=0.0049009416252374649048
			6:leaf=-0.0068762479349970817566
		4:[9_CVCatNumEnc:CAPSULE:DCAPS:PSA.amin.0<8.5] yes=9,no=10,missing=9
			9:[11_NumCatTE:CAPSULE:DCAPS.0<9.5868806838989257812] yes=11,no=12,missing=11
				11:leaf=0.0021110766101628541946
				12:[2_CVTE:DPROS.0<9.6816148757934570312] yes=13,no=14,missing=13
					13:leaf=-0.0014096745289862155914
					14:leaf=0.001286204904317855835
			10:leaf=-0.0064720925875008106232
	2:[2_CVTE:DPROS.0<9.472808837890625] yes=7,no=8,missing=7
		7:leaf=-0.0036596900317817926407
		8:leaf=0.0027603169437497854233
booster[121]:
0:[3_CVTE:GLEASON.0<9.6411457061767578125] yes=1,no=2,missing=1
	1:[14_CVTE:CAPSULE:DCAPS.0<9.5789270401000976562] yes=3,no=4,missing=3
		3:[3_CVTE:GLEASON.0<9.4035959243774414062] yes=7,no=8,missing=7
			7:leaf=0.0034279092215001583099
			8:leaf=-0.0067618424072861671448
		4:[11_NumCatTE:CAPSULE:DCAPS.0<9.620250701904296875] yes=5,no=6,missing=5
			5:leaf=0.0022682228591293096542
			6:leaf=-0.0012455766554921865463
	2:[2_CVTE:DPROS.0<9.9081506729125976562] yes=9,no=10,missing=9
		9:[3_CVTE:GLEASON.0<9.8712568283081054688] yes=11,no=12,missing=11
			11:leaf=0.0012143065687268972397
			12:[9_CVCatNumEnc:CAPSULE:DCAPS:RACE.amin.1<0.5] yes=13,no=14,missing=13
				13:leaf=-0.0046638329513370990753
				14:leaf=0.0040790834464132785797
		10:leaf=0.0026487798895686864853
booster[122]:
0:[6_RACE<0.5] yes=1,no=2,missing=1
	1:leaf=-0.01681230589747428894
	2:[3_CVTE:GLEASON.0<9.6411457061767578125] yes=3,no=4,missing=3
		3:[3_CVTE:GLEASON.0<9.4035959243774414062] yes=7,no=8,missing=7
			7:[14_CVTE:CAPSULE:DCAPS.0<9.63765716552734375] yes=9,no=10,missing=9
				9:leaf=0.0042895460501313209534
				10:[10_ClusterTE:ClusterID94:DCAPS:VOL.0<9.636875152587890625] yes=11,no=12,missing=11
					11:leaf=-0.0032750517129898071289
					12:leaf=0.0071049896068871021271
			8:[14_CVTE:CAPSULE:DCAPS.0<9.5789270401000976562] yes=13,no=14,missing=13
				13:leaf=-0.0067279702052474021912
				14:leaf=-0.0013744077878072857857
		4:[2_CVTE:DPROS.0<9.9531841278076171875] yes=5,no=6,missing=5
			5:leaf=0.00024906336329877376556
			6:leaf=0.0038912061136215925217
booster[123]:
0:[12_TruncSVD:CAPSULE:DCAPS:VOL.1<-0.3692493438720703125] yes=1,no=2,missing=1
	1:leaf=0.0046140290796756744385
	2:[8_CVTE:DCAPS.0<9.7277050018310546875] yes=3,no=4,missing=3
		3:[PSA<13] yes=5,no=6,missing=5
			5:[0_CVTE:CAPSULE.0<9.656795501708984375] yes=9,no=10,missing=9
				9:[12_TruncSVD:CAPSULE:DCAPS:VOL.1<1.3398815393447875977] yes=11,no=12,missing=11
					11:leaf=0.0019516119500622153282
					12:[3_CVTE:GLEASON.0<9.7656097412109375] yes=13,no=14,missing=13
						13:leaf=-0.0051728379912674427032
						14:leaf=0.0035642888396978378296
				10:leaf=-0.00089265411952510476112
			6:[14_CVTE:CAPSULE:DCAPS.0<9.5736722946166992188] yes=7,no=8,missing=7
				7:leaf=0.0032873931340873241425
				8:leaf=-0.0026573210489004850388
		4:leaf=0.0026336503215134143829
booster[124]:
0:[6_RACE<0.5] yes=1,no=2,missing=1
	1:[0_CVTE:CAPSULE.0<9.680858612060546875] yes=3,no=4,missing=3
		3:leaf=0.0042171669192612171173
		4:leaf=-0.016768041998147964478
	2:[3_CVTE:GLEASON.0<9.3570604324340820312] yes=5,no=6,missing=5
		5:leaf=0.0031653877813369035721
		6:[3_CVTE:GLEASON.0<9.6411457061767578125] yes=7,no=8,missing=7
			7:[12_TruncSVD:CAPSULE:DCAPS:VOL.1<0.0035200563725084066391] yes=9,no=10,missing=9
				9:leaf=0.0026028654538094997406
				10:[4_CVTE:RACE.0<9.6490869522094726562] yes=13,no=14,missing=13
					13:leaf=0.0008239485323429107666
					14:leaf=-0.003091569291427731514
			8:[2_CVTE:DPROS.0<9.941951751708984375] yes=11,no=12,missing=11
				11:leaf=-0.00011301270569674670696
				12:leaf=0.0028671298641711473465
booster[125]:
0:[3_CVTE:GLEASON.0<9.6411457061767578125] yes=1,no=2,missing=1
	1:[6_RACE<0.5] yes=3,no=4,missing=3
		3:leaf=-0.016768041998147964478
		4:[14_CVTE:CAPSULE:DCAPS.0<9.5789270401000976562] yes=9,no=10,missing=9
			9:leaf=-0.0051167369820177555084
			10:[12_TruncSVD:CAPSULE:DCAPS:VOL.0<0.037719029933214187622] yes=11,no=12,missing=11
				11:[0_CVTE:CAPSULE.0<9.715793609619140625] yes=13,no=14,missing=13
					13:leaf=-0.0013074348680675029755
					14:leaf=-0.0090418178588151931763
				12:leaf=0.0008129755733534693718
	2:[6_RACE<1.5] yes=5,no=6,missing=5
		5:leaf=0.0012894697720184922218
		6:[PSA<16.799999237060546875] yes=7,no=8,missing=7
			7:leaf=0.001913508167490363121
			8:leaf=-0.0055474857799708843231
booster[126]:
0:[12_TruncSVD:CAPSULE:DCAPS:VOL.1<0.0035200563725084066391] yes=1,no=2,missing=1
	1:leaf=0.0024518934078514575958
	2:[12_TruncSVD:CAPSULE:DCAPS:VOL.1<0.11087764054536819458] yes=3,no=4,missing=3
		3:[1_CVTE:DCAPS.0<9.6771907806396484375] yes=5,no=6,missing=5
			5:leaf=-0.0078465826809406280518
			6:leaf=0.0032528066076338291168
		4:[12_TruncSVD:CAPSULE:DCAPS:VOL.1<0.34050360321998596191] yes=7,no=8,missing=7
			7:leaf=0.0027644233778119087219
			8:[11_NumCatTE:CAPSULE:DCAPS.0<9.6598453521728515625] yes=9,no=10,missing=9
				9:[2_CVTE:DPROS.0<9.941951751708984375] yes=13,no=14,missing=13
					13:leaf=-0.00036684982478618621826
					14:leaf=0.0036094575189054012299
				10:[1_CVTE:DCAPS.0<9.5732450485229492188] yes=11,no=12,missing=11
					11:leaf=0.0039740428328514099121
					12:leaf=-0.0029628705233335494995
booster[127]:
0:[1_CVTE:DCAPS.0<9.5732450485229492188] yes=1,no=2,missing=1
	1:[VOL<20.299999237060546875] yes=5,no=6,missing=5
		5:leaf=0.004102978389710187912
		6:leaf=-0.00060085905715823173523
	2:[2_CVTE:DPROS.0<9.6816148757934570312] yes=3,no=4,missing=3
		3:[2_CVTE:DPROS.0<9.462493896484375] yes=7,no=8,missing=7
			7:[8_CVTE:DCAPS.0<9.5838298797607421875] yes=13,no=14,missing=13
				13:leaf=-0.0024981454480439424515
				14:leaf=0.0030826462898403406143
			8:[6_RACE<0.5] yes=9,no=10,missing=9
				9:leaf=-0.016684202477335929871
				10:[12_TruncSVD:CAPSULE:DCAPS:VOL.1<0.63573694229125976562] yes=11,no=12,missing=11
					11:leaf=0.0015800042310729622841
					12:leaf=-0.0037807349581271409988
		4:leaf=0.001095696701668202877
booster[128]:
0:[3_CVTE:GLEASON.0<9.6411457061767578125] yes=1,no=2,missing=1
	1:[6_RACE<0.5] yes=3,no=4,missing=3
		3:leaf=-0.0166494026780128479
		4:[14_CVTE:CAPSULE:DCAPS.0<9.5789270401000976562] yes=9,no=10,missing=9
			9:[2_CVTE:DPROS.0<9.5609445571899414062] yes=11,no=12,missing=11
				11:leaf=-0.0079170903190970420837
				12:leaf=0.0014020795933902263641
			10:[PSA<1.2000000476837158203] yes=13,no=14,missing=13
				13:leaf=-0.0071853362023830413818
				14:leaf=-4.7427718527615070343e-05
	2:[3_CVTE:GLEASON.0<9.9099254608154296875] yes=5,no=6,missing=5
		5:leaf=0.0013086515245959162712
		6:[9_CVCatNumEnc:CAPSULE:DCAPS:RACE.amin.1<0.5] yes=7,no=8,missing=7
			7:leaf=-0.0040094228461384773254
			8:leaf=0.0027561192400753498077
booster[129]:
0:[VOL<29.799999237060546875] yes=1,no=2,missing=1
	1:[4_CVTE:RACE.0<9.669841766357421875] yes=3,no=4,missing=3
		3:[2_CVTE:DPROS.0<9.5609445571899414062] yes=7,no=8,missing=7
			7:[12_TruncSVD:CAPSULE:DCAPS:VOL.1<0.63573694229125976562] yes=9,no=10,missing=9
				9:leaf=0.0014638059074059128761
				10:[2_CVTE:DPROS.0<9.4316959381103515625] yes=11,no=12,missing=11
					11:leaf=0.0017205508193001151085
					12:leaf=-0.0046131210401654243469
			8:[PSA<61.59999847412109375] yes=13,no=14,missing=13
				13:leaf=0.0023587492760270833969
				14:leaf=-0.0040124459192156791687
		4:[VOL<25] yes=5,no=6,missing=5
			5:leaf=-0.0011372052831575274467
			6:leaf=-0.0069674826227128505707
	2:leaf=0.0016260559204965829849
booster[130]:
0:[3_CVTE:GLEASON.0<9.6411457061767578125] yes=1,no=2,missing=1
	1:[6_RACE<0.5] yes=3,no=4,missing=3
		3:leaf=-0.016613675281405448914
		4:leaf=-0.00083721667760983109474
	2:[2_CVTE:DPROS.0<9.9081506729125976562] yes=5,no=6,missing=5
		5:[9_CVCatNumEnc:CAPSULE:DCAPS:RACE.amin.1<0.5] yes=7,no=8,missing=7
			7:[3_CVTE:GLEASON.0<9.8712568283081054688] yes=9,no=10,missing=9
				9:leaf=0.0005718038300983607769
				10:[14_CVTE:CAPSULE:DCAPS.0<9.5736722946166992188] yes=13,no=14,missing=13
					13:leaf=0.0031808614730834960938
					14:leaf=-0.005318121984601020813
			8:[PSA<3.5] yes=11,no=12,missing=11
				11:leaf=-0.0042084357701241970062
				12:leaf=0.0036048223264515399933
		6:leaf=0.0029640581924468278885
booster[131]:
0:[12_TruncSVD:CAPSULE:DCAPS:VOL.1<-0.13664123415946960449] yes=1,no=2,missing=1
	1:leaf=0.0028332227375358343124
	2:[12_TruncSVD:CAPSULE:DCAPS:VOL.1<0.27489617466926574707] yes=3,no=4,missing=3
		3:[VOL<21.200000762939453125] yes=5,no=6,missing=5
			5:leaf=-0.015314508229494094849
			6:[4_CVTE:RACE.0<9.669841766357421875] yes=7,no=8,missing=7
				7:leaf=0.00091881898697465658188
